0.29939994, -0.84145605, 0.84831167, 0.40890044, -0.74068863, -1.00781162, -0.85092457, -0.49451558, -0.25075593, -0.72954888, -0.16181860, 0.72346708, -0.59696640, -0.64688100, -0.16344962, 0.61188796, -0.67358779, 0.61516422, 0.28411981, -0.05199257, -0.02677570, 0.47453656, -1.07884625, 0.81983900, -0.27516349, -1.01011718, -1.04928092, 0.69969626, -0.48205127, 0.74492608, -0.54720808, -1.07170145, -0.98558009, -0.58794653, 0.44814887, -0.61531885, -0.48480827, 0.70817417, 0.00111545, 0.37538568, -0.91042483, -1.04975327, 0.20980263, -0.39644135, -0.58568439, -0.84269710, -0.67360351, -0.14832230, 0.88341700, 0.72146618, -1.08936499, -0.03240882, 0.30695261, -1.05726137, -0.10161994, -0.85726100, -0.95642867, -0.03995098, -1.04661486, -0.32753006, -0.18407503, -0.48287306, -0.28828163, -0.05870524, 
0.18895977, -0.58035340, 0.58575527, 0.81510138, -0.76122935, -0.30217941, 0.30143694, -0.56070430, -0.24098280, -0.37781055, 0.15380423, 0.28428269, -0.10955778, 0.59115060, -0.75308974, -0.11519090, 0.42356666, -0.73150485, 0.96335015, -0.15853085, -0.67781634, -0.02731991, 0.09515803, -0.52329513, -0.95632101, 0.15949304, 0.26012470, -0.02944616, 0.78756986, -0.91720705, 1.02279848, -0.06134997, -0.53544005, 0.57067414, -0.28412819, -0.33454900, -0.76938486, 0.97942914, 0.06686710, -0.04824726, -0.43626101, -0.81720827, -0.80184417, 0.41630162, 0.73606273, -0.59281350, -0.73676888, 0.12174979, -0.36219795, -0.81129832, 0.92533934, -0.07789389, 0.12350217, -0.01738223, 0.36093139, 0.12930156, -0.89576879, -0.41682352, -0.93802420, 0.85392147, -0.37191017, -0.95310532, -0.24530810, 0.05477018, 
56.85449733, 56.70749221, 56.95714968, 57.04723287, 56.64904176, 55.98613718, 55.96110601, 57.17490115, 56.13104931, 56.12138225, 56.55332318, 55.82923245, 56.49068914, 56.77867470, 56.91310264, 57.09061159, 56.92949678, 56.80056239, 55.97483811, 56.01511935, 55.74530056, 57.29788990, 57.10654132, 55.81165217, 55.84318678, 57.13063752, 55.62769405, 56.43339702, 57.13965260, 56.34450635, 55.45028760, 56.68146223, 55.73931087, 57.09474959, 56.41600740, 57.07566493, 55.76819907, 57.06442571, 56.93787838, 56.58656068, 55.87312026, 56.17851386, 57.10310543, 57.05112171, 55.64450086, 56.70352038, 56.82904560, 57.26130994, 56.19139506, 55.49119601, 55.96374160, 56.62400792, 55.47639821, 55.75759521, 57.12297239, 56.00689729, 55.57554503, 55.43797874, 57.12760662, 55.40250994, 56.46979740, 57.26520652, 56.77128447, 56.89642057, 
23.83634650, 22.66368226, 23.44847589, 22.29185787, 22.41542028, 23.07366658, 23.56573085, 22.97585284, 23.93949274, 23.35614859, 22.71428685, 22.27130590, 22.74698127, 22.23064475, 22.21992815, 23.62568863, 22.40915306, 22.87098204, 22.93700885, 22.57286357, 23.31588956, 22.74729355, 23.26707317, 23.57874689, 22.87258459, 23.08199208, 23.66856913, 24.02969429, 23.03451090, 23.12716590, 23.61342716, 22.76909161, 23.68908237, 22.96013726, 22.95918369, 24.00273686, 23.93203805, 22.42314875, 22.87682391, 23.76976499, 23.67753154, 23.48934496, 23.93930511, 22.32274702, 23.61822392, 24.05746746, 23.84666985, 23.92561118, 22.82668371, 22.68191291, 22.39670896, 24.04080748, 23.32744066, 23.56201634, 23.51778858, 24.09825946, 22.54224263, 23.08459192, 24.02618796, 23.47498774, 22.10999202, 23.53784933, 22.14231356, 23.69730860, 
-0.73497906, -0.13146841, 0.46707981, -0.90470681, 0.18991455, -0.75786208, 0.76329240, -0.23431970, 0.62971709, 0.60083171, -0.01333848, 0.14617521, 0.55653337, -0.26843442, -0.02997940, -0.71854871, 0.31171270, 0.26496377, -0.77950703, -0.46261243, -0.27478568, 0.63651576, -0.46611876, 0.16569115, -0.38065812, -0.54169659, -0.46108690, -0.37243189, 0.89438695, -0.42053913, -0.77688908, -0.81115805, 0.47742653, 0.71962479, -0.68643078, -0.30322486, -1.00880322, -0.89370432, 0.49188950, 0.65034793, 0.73656146, -0.49201491, -0.17404279, 0.32252890, 0.26898474, 0.82541188, 0.63341425, -0.38986850, 0.11980972, 0.88334130, 0.17695314, 0.87445810, 0.54929112, 0.74026845, 0.06958332, -0.80193293, -0.77199408, 0.63793049, -0.14493075, -0.84817306, -0.75317458, 0.10761423, -0.62989704, 0.75368602, 
33.05164827, 32.90808142, 32.67487040, 33.07227911, 33.04381117, 32.19619397, 32.75206111, 32.80980669, 32.73361313, 33.60745239, 34.16176965, 34.03203193, 33.46229833, 33.82461798, 32.67159750, 32.61154212, 33.73739334, 33.87798471, 32.51543429, 33.31611853, 33.64768723, 33.61445168, 33.54361967, 33.90512722, 33.28181623, 32.42812298, 34.08638822, 33.55807573, 33.56517129, 32.48592525, 33.34119581, 32.45127845, 33.22846556, 33.85052510, 33.35801645, 34.10673562, 33.88117796, 33.94453646, 32.75100120, 32.44924998, 33.38644774, 32.74722975, 32.31574081, 32.68320497, 32.40630662, 32.82179720, 33.12920598, 33.97815885, 32.53424081, 33.47909915, 33.12873627, 34.01638692, 32.92800972, 32.50681483, 33.75597303, 34.04428485, 32.76939671, 33.67682015, 33.43681947, 32.16902689, 33.99720429, 32.61247417, 32.45476423, 33.06012874, 
30.34689921, 31.69668063, 31.05076431, 32.06253607, 31.47567598, 31.63622441, 30.34624494, 30.69658261, 30.21791305, 30.49644464, 31.21424647, 30.45867856, 31.15270074, 32.17791134, 30.27129631, 31.52140043, 31.49146939, 31.23449147, 31.37224625, 30.25393800, 31.57576520, 30.96267817, 32.13268174, 32.17962080, 30.47395721, 31.40396010, 32.18310659, 30.30562039, 31.85089316, 30.47232971, 31.20020803, 31.98281021, 31.95402818, 32.03599018, 31.83036412, 31.21472200, 31.45723242, 31.96162690, 31.69632245, 31.46016331, 30.24308938, 30.69558676, 31.70385971, 31.18080796, 30.65851594, 31.76017386, 30.48722623, 31.93500317, 30.77968317, 31.64449032, 31.97395901, 32.14046621, 30.39218633, 31.89165859, 32.10510485, 30.65116139, 31.08063653, 32.07322928, 30.74179962, 30.71654753, 30.33057683, 31.72702548, 30.48437558, 32.06962285, 
15.24711629, 15.79884034, 14.76844548, 14.48936656, 15.54548508, 14.24978578, 15.73454771, 15.57359230, 14.73039038, 15.22342526, 14.53941810, 15.17392416, 14.76861696, 14.81166217, 14.89394517, 15.33331797, 14.24117034, 14.65292202, 15.25880201, 14.41837451, 14.32959845, 15.14892470, 14.85455373, 15.19525282, 15.00717182, 15.38137119, 15.69681819, 15.12276648, 14.89341451, 13.96621161, 14.97740716, 14.22646585, 15.85098699, 15.83178769, 14.80176745, 15.48240711, 14.16750851, 14.62225020, 15.14193446, 14.98383393, 13.93161050, 15.76728760, 14.24369313, 14.78616250, 14.66488481, 15.22357335, 14.20541551, 14.99199019, 13.96243041, 15.55015257, 15.49629974, 14.37796390, 14.78501231, 14.43678852, 15.65915176, 15.87811916, 15.90409475, 15.44190498, 15.08682069, 14.88344430, 15.49405163, 14.15016289, 15.19584519, 15.43097367, 
-0.84171898, -0.82605692, 0.08971122, -0.58827543, -0.11787168, -0.68241928, 0.48149355, -0.10032614, -0.82919664, 0.81112172, 0.77177141, -0.07837679, 0.12063011, -0.93687804, 0.99954844, 0.16899556, 0.69920957, 0.58178323, 0.63289450, -0.42984308, -0.89549322, 0.37798130, -0.46578888, -0.90546342, -0.09417868, 0.70696685, 0.06391592, -0.51419200, 0.94306478, -0.65430385, 1.00271670, -0.90311456, -0.48482113, 0.08796756, -0.49585034, 0.39284683, 0.40108792, 0.98118284, -0.71193967, 0.56743092, 0.78784420, -0.94462862, -0.51540623, -0.09598605, -0.88596702, -0.52031815, -0.93145085, 0.80878219, -0.94299528, 0.69698329, -0.62552126, -0.84294886, 0.07050423, -0.09577050, -0.75287264, 0.97186519, -0.39326401, 0.30658292, -0.54678718, -0.45465959, 0.64781871, -0.54853083, -0.36223450, -0.84146278, 
68.63630640, 68.23878482, 68.64825373, 68.03293396, 68.21550731, 68.93185370, 67.59590452, 67.99889115, 68.98276472, 68.07603793, 68.89844474, 69.09233734, 68.55125942, 68.96253354, 68.89665917, 68.60380377, 68.65505647, 67.26667755, 68.75639456, 67.72110034, 68.16644669, 68.99906156, 67.68850516, 68.76872232, 68.30118412, 68.13725763, 67.30960237, 67.94454247, 68.58426644, 67.94290751, 68.09861933, 68.11478245, 69.07590194, 67.64108267, 69.04192602, 68.18561885, 67.46714598, 67.53204015, 69.07871961, 67.34412032, 68.50228768, 68.87137397, 67.33066727, 67.94775671, 68.72811711, 67.12153605, 67.44577009, 68.27738319, 67.28242320, 69.09637426, 68.89269314, 68.34307950, 68.98964542, 67.47540791, 68.00601143, 68.18503915, 68.50687515, 68.20982341, 69.02379122, 67.98535119, 69.04694052, 68.01662017, 68.99434325, 69.01705207, 
21.43551420, 21.81408063, 20.98048229, 21.79686979, 20.24033039, 20.95341151, 20.03519972, 21.63682768, 20.71899508, 20.26007660, 20.47879400, 20.34132181, 20.27582225, 20.81877370, 21.51291461, 20.45245507, 20.80935756, 21.29981736, 21.68974418, 20.69321259, 21.66943488, 20.58996522, 21.77246135, 21.07051963, 21.69399824, 21.69046218, 21.95008044, 21.63514837, 20.60129196, 21.83863330, 21.54641005, 20.04741401, 21.66332179, 20.53750019, 21.85489166, 21.91426003, 21.50151956, 21.90069924, 21.56169557, 20.23112250, 20.17138369, 20.05109742, 20.58305216, 20.45781380, 20.88047897, 20.10657463, 20.92087672, 21.70044439, 21.41699984, 20.62122876, 20.40426484, 21.09704257, 21.22180183, 20.18733405, 20.17817006, 20.92640792, 21.88840409, 20.13885836, 20.57216415, 20.50030390, 21.98809951, 20.12918206, 20.55832577, 21.66202916, 
-0.33996884, -0.59343366, 0.56963810, -0.82784142, -0.68212657, 0.14194152, -0.58611106, -0.50013502, 0.20364680, 0.00754896, -0.03171336, -0.90526637, 0.12473144, 0.89977121, 0.80578588, -0.44766086, -0.46839217, -0.77934143, 0.65998957, 0.76401751, -0.58139953, 0.84876749, -0.29896671, -0.68238759, -1.00176630, 0.28380530, -0.17147583, -1.00305894, 0.42359522, 0.39745779, 0.66957808, -0.88850682, 0.83189094, 0.26708298, -0.68848144, -0.82236883, -0.56310870, -0.24672570, -0.29463704, 0.66840491, 0.78869007, 0.70151640, 0.79100534, -0.05871169, 0.62915442, 0.62465802, 0.52149426, -0.81137095, 0.87318339, 0.20935063, -1.01948664, -0.68034933, 0.08598492, -0.29058654, -0.33487011, 0.11208542, -0.97891444, 0.52152086, 0.13689329, 0.47254758, -0.05315454, -0.16566183, 0.61190757, -0.19339680, 
0.55127633, 2.37328131, 1.43408956, 1.01603444, 1.15442242, 2.16731932, 0.71230615, 0.97097929, 1.89670252, 0.53117829, 1.94013441, 1.55372375, 2.18370311, 1.48949546, 1.77021960, 2.08475330, 0.72671290, 1.77859976, 0.43227078, 1.84056462, 0.51588002, 1.12526747, 0.98051685, 0.56483239, 0.67465514, 2.14527695, 2.06524677, 1.64936740, 1.00748192, 1.70502114, 0.48383741, 1.16463668, 1.68418088, 1.52380540, 1.78654955, 0.44448173, 1.29700315, 2.10473413, 1.02133945, 0.79958410, 2.24179084, 0.56735228, 1.95918627, 2.03137238, 1.66272618, 1.33528430, 1.72200411, 1.99531750, 0.71976249, 1.76015332, 1.44176055, 0.84152094, 0.49129922, 2.02815583, 1.01223175, 0.77183279, 1.77931121, 0.68335696, 2.02707862, 2.39267156, 1.99425653, 2.11679446, 1.16318667, 1.28431584, 
-0.22776535, -0.91862898, -0.13956764, 0.67511623, 0.79198357, 0.48765024, -0.91942124, 0.63965284, 0.66088095, 0.64564346, 0.27690365, -0.07051445, -0.41319381, -0.39521381, -0.46931852, -0.08755290, -1.02918206, 0.57832046, 0.35984647, -0.93200441, 0.21235472, -1.02204335, -0.55429320, -0.40245564, -0.73280796, -0.92133615, -0.40390565, 0.86732699, 0.80133674, 0.36515945, -0.24247874, -0.34630654, 0.52665253, 0.69807569, -0.59106824, 0.39875816, 0.26584799, -0.43036742, 0.11853307, 0.00685100, -0.70460190, -0.52444122, -0.98354138, -0.03767364, 0.16046703, -0.37273783, -1.04510448, 0.21140703, -0.71429530, 0.39486406, 0.35952469, 0.57818149, 0.45294278, 0.88535355, -0.74415209, 0.80025688, -0.95586053, -0.06793568, 0.74770594, -1.07440172, -0.62265417, -0.41465074, -0.34058619, -1.01587957, 
2.70016598, 3.48508659, 3.79961962, 4.04613603, 4.13484123, 2.99827475, 3.13310910, 2.51036140, 3.55395560, 3.22968979, 3.55280982, 2.79454469, 3.93707402, 3.58782741, 4.08607379, 2.30290078, 3.06281353, 3.52572054, 3.96120433, 2.59587837, 3.49119616, 2.29717431, 2.47625731, 3.61545770, 3.30936069, 2.30408532, 3.62117804, 3.76682859, 2.96955665, 2.36071391, 3.83107108, 3.41322573, 3.58930361, 3.37419380, 3.20286487, 3.46764794, 4.11597166, 4.07947707, 3.72151244, 3.41343035, 3.05266996, 3.01782537, 3.95147815, 2.73324709, 2.34915588, 3.78105505, 2.77965097, 3.15547251, 3.05027870, 2.48435841, 3.49485398, 2.28497796, 2.52503582, 3.71461440, 3.64393876, 3.57789961, 3.76220282, 3.00861991, 3.08823131, 2.47526257, 3.11283692, 2.66280549, 3.63199141, 2.44564363, 
48.68178794, 47.47964492, 48.55808022, 48.54126270, 47.30262509, 48.02309577, 47.69819616, 48.09879816, 48.78442424, 47.39317741, 48.57554835, 48.87708322, 48.91773556, 49.09870242, 47.77605883, 47.71151736, 47.32656393, 49.01441592, 47.73999843, 47.59510286, 48.47253342, 49.12744029, 48.91650557, 47.97823935, 47.87956330, 47.74823998, 48.19700502, 48.73590333, 48.15454857, 47.57249953, 48.92505006, 47.67855407, 47.89436201, 48.32534784, 49.06203433, 48.03920466, 47.19066116, 47.60244804, 48.98022038, 48.81730296, 47.83784301, 48.39798628, 48.53660373, 47.59779613, 48.33890626, 49.15488012, 48.15153104, 48.50768775, 49.01151359, 48.73374703, 48.94500816, 48.32626457, 48.70340488, 48.70373129, 49.14672147, 47.42518574, 47.29418883, 48.18594405, 49.00330662, 48.29095496, 48.60066114, 48.77057424, 48.81172659, 47.33724070, 
-0.27401023, 0.50382861, 0.00651306, -0.24113150, -1.05150580, -0.17104901, -0.58161099, -0.37144524, -0.93084517, 0.79721030, 0.06856845, 0.25027865, 0.79430797, -0.93768295, -0.39981605, 0.64803911, 0.63828164, -0.61259033, -0.18347877, 0.18390407, 0.93335852, -0.19453974, 0.45130736, -0.93023510, 0.83362187, 0.29683154, 0.20293742, 0.27650056, -0.09037666, -0.14311843, 0.45595883, 0.68998053, -0.58492241, -0.48316070, -0.49678355, -0.58206078, 0.40015772, -0.02402712, 0.10086140, 0.52367997, -0.17244940, -0.77620273, -0.17167397, -0.32377402, -0.65951826, 0.48287741, -0.62136748, -0.96686920, 0.92465450, 0.24952117, 0.27140229, 0.91238044, -0.89065115, -0.22292293, -0.96348724, -1.00266186, -0.87172397, 0.29381761, 0.32820613, 0.09226679, -0.79493341, -0.16146763, -0.16338525, -0.32548839, 
0.80333567, 0.78779518, 0.54041481, 0.25786081, -0.18186452, -0.30435637, -0.16409181, 0.70005350, -0.02619167, 0.71860165, -0.56935309, 0.36865749, 0.25584648, -0.13635316, 0.45615571, 0.23486840, 1.16753544, -0.21807459, 0.20161626, 1.33125172, 0.61336991, 0.29249644, -0.61704272, 0.79601336, -0.35931853, 0.76553083, -0.05735243, -0.09988452, -0.34156938, 0.83362974, 0.62899451, 1.12253714, 0.28219578, -0.16981982, 0.04116880, 0.76110211, 0.18659466, 0.53784785, 0.12192647, 0.82117384, -0.08277965, 0.21334423, -0.14939782, 0.83383768, 0.73776193, 0.96752874, -0.27052307, 0.56606822, -0.58977499, 0.59186404, 0.55809079, 0.68436577, -0.45486866, 0.60181892, 0.14114998, -0.15341634, 0.02812060, 0.74456841, 0.40747000, 0.34732207, 0.23896900, -0.30276464, 0.13063007, 1.18193563, 
-0.17612474, 0.46825859, 0.23949746, 0.67124078, -0.33312271, -0.97780522, 0.15318547, 0.24486850, -0.10369014, 0.66455851, -0.26052297, -0.70515736, 0.29285810, 0.12972481, 0.52168171, 0.36385397, -0.61764029, -0.25945665, -0.29100941, -0.41173810, -0.99686688, 0.51091142, 0.09561641, -0.30797543, -0.08374932, -0.83614274, 0.70011750, 0.81599053, -0.47813652, -0.50848158, 0.65869701, 0.37082073, -1.01514100, -0.07672355, 0.06714349, -0.32318173, -0.02944678, -0.75458905, 0.94676876, 0.89194507, 0.93505145, -0.28867223, -0.78813030, 0.25299154, 0.86613457, 0.75863340, -0.35807251, -0.72642373, -0.47574127, 0.37600006, -0.11307985, -0.44752616, -0.08800653, -0.99238145, 0.26958040, 0.85332613, -0.80344220, -0.00522012, 0.69439865, -0.25649673, 0.51138029, 0.37817764, -0.86059402, 0.52132127, 
-0.64239060, 0.26270478, -0.74570515, 0.35324461, 0.53319771, -0.77385441, 0.27027166, 0.49333114, -0.03744465, 0.50722335, -0.22859533, -0.14622809, 0.29093873, 0.43841414, 0.15243017, 0.84027946, -0.16050381, -0.93556770, -0.58216472, 0.77657164, -0.90286716, 0.71249767, 0.65497976, -0.68122737, -0.26764047, 0.37446040, 0.08735789, -0.73117819, -0.22227998, 0.25184586, 0.81522506, 0.12933809, -0.49144069, -0.93647143, -0.52340863, -0.96423431, -0.71631717, 0.74087170, 0.52310550, 0.24024685, 0.24210372, -0.71148116, -0.91197257, -0.47294887, 0.72094165, 0.23446627, -0.63866075, -0.44555349, 0.29290724, -0.22681679, -0.67497318, 0.38404876, -0.52031046, 0.97401526, 0.69683006, 0.20605775, 0.34248433, -0.22180338, 0.46888822, -0.88578698, -0.97594885, 0.27812195, 0.23755978, -0.47338088, 
0.27690455, 0.64940518, -0.50236117, 0.55459606, 0.38428555, -0.98524699, -0.21114842, -0.37960206, -0.70271949, -0.12911232, 0.14145774, -0.98776917, -0.90063738, 0.49680567, -0.43931398, 0.38627853, -0.73600246, -0.12027849, -0.23566404, -0.26230425, -0.15225456, -0.54482531, 0.93776217, -0.81576157, 0.22737998, 0.40065906, -0.70753988, 0.24543980, -0.32721032, 0.52402857, 0.76606759, -0.99754245, 0.22619706, -0.68353026, 0.60981692, -0.33675407, -0.61601394, -0.54856819, 0.33640719, -0.26597012, 0.37508280, -0.46937176, -0.20097597, 0.52720874, -0.91980278, 0.41247336, -0.03374942, -0.60304192, -0.65504181, 0.78334986, 0.18741714, 0.24546694, -0.70871214, 0.17794262, 0.48246869, 0.57143115, -0.36863500, 0.82769213, -0.13036574, 0.35691799, 0.40448401, -0.31153484, 0.41213885, -0.31655561, 
16.84409579, 16.86111666, 17.18585121, 17.28084516, 17.36531178, 16.57502171, 16.06763836, 16.79315790, 17.15841327, 16.91942571, 16.37312995, 17.29137380, 16.38466238, 17.39214385, 15.74109519, 16.78238389, 17.22825702, 16.98127565, 16.08061414, 17.57230819, 16.21198158, 17.61584615, 17.19650266, 16.89610990, 17.49630158, 16.11890023, 16.30579120, 16.95354891, 16.86012871, 15.77069336, 17.68975662, 15.97059023, 16.89817576, 17.14197356, 17.51780113, 16.52985328, 15.98336101, 15.85180522, 17.58937691, 17.40814001, 17.03759667, 16.22887259, 16.96587955, 17.68862479, 15.88738217, 16.97334048, 16.73737441, 17.38200493, 16.22098186, 17.08435429, 17.22067885, 16.69932918, 16.96656617, 16.68354724, 15.86180481, 16.72923348, 17.06881321, 16.43396175, 15.94914813, 16.19530765, 16.47102085, 15.90527048, 16.43226362, 17.63556235, 
0.62191510, -0.47526419, -0.25991333, 0.87164185, -0.35709323, -0.40417068, 0.54614759, 0.94686917, 0.09106765, -0.22160712, 0.90185969, 0.24481555, 1.01809909, -0.09440017, -0.10681379, -0.49455331, -0.74368015, -0.61976920, 0.47114161, 0.48925176, 0.33014378, 0.59931216, -0.51514903, -0.33467728, -0.70036036, -0.29963516, 0.12699611, 0.03702623, -0.12799894, 0.82562547, -0.06104569, -0.54802343, -0.69157831, 0.63710140, -0.71832116, -0.09061112, -0.80900886, 0.78588685, -0.18568154, 0.24011920, -0.47765986, -0.32576143, -0.55700483, -0.50150035, 0.53789882, 0.29424180, -0.03799324, 0.75227909, 0.63253301, -0.60879121, 0.19959126, -0.07926279, 0.94858136, 0.64250265, 0.54412035, -0.79371858, -0.69907209, -0.37082312, 0.20136806, 0.13098938, -0.58713723, -0.90161721, 0.54102638, -0.32065512, 
0.61313109, 0.70035212, 0.46638066, 0.76218265, 0.44429938, -0.76124047, -0.03963774, 0.92469994, -0.12894148, 0.36141784, -0.61873999, -0.63298225, -0.38627994, 0.30132718, -0.92264275, -0.79568651, 0.65059638, 0.23500893, 0.08311111, 0.55723816, -0.16442801, -0.41470812, 0.72158000, 0.09456032, 0.17252918, -0.11899152, -0.81638989, 0.54345236, -0.06254832, 0.68269691, -0.81914234, -0.41094330, 0.42152295, 0.68571224, -0.61028672, -0.09570374, -1.03705429, 0.38854947, -0.13252987, -0.12752185, -0.21155876, 0.28720406, 0.27796983, 0.44063523, -0.37299483, 0.39380101, 0.68342265, -0.68392451, -0.33271613, -0.19499231, 0.91178758, 0.54132979, 0.42877350, 0.67184151, -0.32563596, -0.36022340, -0.40867609, -0.10355192, -0.77829711, 0.56724952, -0.38238108, -0.55896552, -0.80521984, -0.92238420, 
-0.76999535, -0.31224864, 0.08516999, -0.76857572, -0.88522524, 0.99111404, 0.14237637, -0.05831007, 0.31679204, -0.54117987, -0.57920091, 0.98227114, 0.89109508, -0.85730433, -0.66317944, -0.40314712, -0.01382271, -0.71291793, -0.82334340, -0.54657529, 0.99739751, -0.11050543, 0.13167525, -0.37280465, 0.82441658, 0.39185207, -0.76708119, -0.51949057, 0.87136048, -0.53382710, -0.40340084, -0.92494494, 0.12761420, 0.65545909, -0.71983072, 0.21607889, 0.62026307, 0.39623559, -0.86854124, -0.08925496, 0.82874566, -0.47405221, -0.13329388, 0.69353067, -0.35766661, 0.17721662, -0.73592652, 0.60220061, 0.43798863, -0.58557998, -0.97068474, 0.40907608, 0.27760452, 0.13468045, 1.00996137, 0.07571104, -0.49977754, -0.78342989, 0.52991040, -0.65472713, -0.34356705, -0.89980050, -0.60598213, 0.75773708, 
50.58477602, 49.50330459, 49.80293341, 50.17872903, 50.87323012, 49.90808210, 49.06316401, 50.67566571, 50.40771983, 49.90356007, 50.34288632, 49.02374316, 49.05446663, 50.58064974, 50.59963371, 50.46614519, 48.96875969, 50.60263891, 49.84891121, 50.22005415, 49.71100930, 49.83256251, 49.26945513, 50.18492169, 50.02282256, 50.77305547, 50.50388450, 50.65294544, 50.84694491, 50.87159231, 50.38437246, 50.54998338, 49.49315934, 49.30556831, 49.84697485, 49.48465190, 50.33191286, 50.02840130, 49.27858006, 49.85789513, 49.05022381, 50.73972882, 49.99990073, 49.22295288, 50.43864101, 49.71779688, 50.80736052, 50.52566314, 49.43869824, 49.77453417, 49.86397974, 50.26796998, 50.72535912, 50.25169731, 49.57115411, 49.86644412, 50.14301522, 49.19330105, 49.63765201, 50.10822257, 49.18315580, 49.14028692, 49.77646839, 49.79457759, 
-0.31361311, 0.86397490, 0.51976115, -0.86343781, 0.01063864, 0.91660366, 0.11271976, 0.17912490, 0.77459492, -0.76911707, 0.52034023, 0.33149837, 0.06694226, 0.44596319, -0.02457604, 0.62390294, -0.66124020, 0.95766614, 0.01013536, -0.81761864, 0.32762589, 0.69955191, 0.16708793, -0.41109645, -0.98888460, 0.92300238, 0.81538856, -0.68746635, -0.81844826, -0.28988061, 0.22537368, -0.13606815, -0.42991249, -0.25887194, -0.00351274, 0.57671938, -0.34627506, -0.89479976, -0.24816249, -0.57568692, -0.66792360, -0.73182905, 0.75180468, 0.39501188, 0.71012737, -0.27677814, 0.01490804, -0.95511961, -0.32311878, -0.97896338, -0.77674503, 1.00050034, 0.71658175, 0.38633612, -0.41460289, 0.72369038, 0.30533172, -0.60322110, -0.96778275, 0.48287669, 0.10289151, 0.25358416, -0.65719824, 0.66897225, 
6.28606015, 5.63063696, 5.53703957, 4.93577832, 5.73183043, 6.28487030, 5.35608463, 6.05990005, 4.54903448, 5.10388253, 5.45090515, 6.25515507, 5.82309761, 4.46180642, 6.29602868, 4.49597206, 4.47883627, 4.51527687, 4.49246562, 6.19141125, 5.89760622, 5.07385596, 5.91109485, 5.19893117, 5.46662808, 5.93930533, 4.67780108, 4.56551281, 5.18888271, 5.01659607, 6.23047829, 5.17558138, 4.34787154, 5.46815637, 5.81199821, 5.78034048, 5.45366518, 4.86872134, 5.54087904, 5.70333817, 5.67324239, 4.69242271, 5.65913175, 5.19697851, 4.85486764, 5.65579894, 5.39358908, 5.03434242, 5.87171433, 5.58669322, 4.92639218, 5.46995906, 4.36118769, 4.53812554, 4.36952873, 5.52845428, 6.17806938, 4.74796833, 5.79460560, 5.06759060, 5.46520290, 5.72572240, 5.94381049, 5.51371295, 
-0.47200426, 0.08992566, -0.37182961, 0.68229943, 0.65928552, 0.86968795, 0.08627611, 0.03316642, -0.73725083, -0.55395363, 0.93078344, -0.18174468, 0.80248382, 0.02501104, 0.55323625, 0.37483666, -0.68765723, -0.81973306, -0.45456577, -0.62583104, -0.58096901, -0.38439853, 0.60326175, -0.70226112, 0.06420831, 0.09850587, 0.06596800, -0.76995027, -0.47513321, -0.28958299, 0.44440120, 0.12002258, 0.86750273, -0.86026835, -0.13051793, 0.59394831, -0.92342034, -0.97708176, -0.30572521, -0.59351112, -0.46387533, -0.30778171, 0.29190426, -0.59423144, 0.78438939, -0.08769943, 0.84776528, -0.83610778, 0.15972757, -0.53964043, -0.39477876, 0.64591863, 0.14312110, -0.72435694, -0.98918243, -0.72551052, 0.44130899, 0.14394564, -0.42830073, -0.96666416, 0.92152270, -0.91673948, 0.22051848, 0.85618550, 
-0.71277145, -0.84576307, 0.51437019, -0.56903173, -0.75568476, -0.72419496, -0.09538278, -0.15240003, 0.03518339, -0.73631846, 0.32052859, -0.11326715, 0.24314218, 0.23545393, 0.11778513, -0.52997019, 0.76297356, 0.79016643, -0.81689150, -0.02674528, -0.86703045, -0.73891387, 0.31490426, 0.64143860, 0.47219183, -1.04623641, 0.74193450, 0.46087460, -0.89581583, 0.02961305, 0.38422015, -0.53850353, 0.25393372, -0.03132592, -0.03745151, 0.56833271, 0.31456286, -1.06275055, -0.51398358, -0.58017000, -0.72898527, 0.87662875, 0.37664659, 0.58424065, 0.18216643, -0.43548454, -0.87564579, 0.01522373, -0.57523436, -0.62245355, -0.94143780, -0.37218107, -0.29128367, 0.44355020, -0.66065872, -0.74900809, 0.46739754, -0.84864048, 0.78195025, 0.64166546, 0.25105631, 0.23625415, -0.82675433, -0.42492622, 
-0.73570687, 0.19515906, -0.79722861, 0.64893974, 0.20249225, -0.24112845, -0.86114651, 0.54359073, -0.29441595, 0.58558382, 0.19791512, -1.04216578, -0.77981697, 0.39235308, 0.04314169, -0.28496759, 0.83998328, 0.17178763, 0.41293508, -0.38121665, -0.31457842, 0.82236010, -0.06014099, -0.77709714, -0.95619663, -0.20810700, -1.06534795, 0.36494342, -0.90176911, -0.82201853, -0.98989905, -0.55667339, 0.45394312, -0.70632508, -0.82693107, -0.26276205, 0.13334905, -0.60727499, -0.63836874, -1.08026431, -0.94088858, 0.64034897, -1.04162751, -0.63990297, 0.11350464, 0.08231677, 0.15593202, 0.03429050, -0.66509302, -0.35033031, 0.73387644, 0.10113114, -0.44716762, -0.24546197, 0.40483659, -0.32256166, 0.62723362, 0.42029123, -0.87681565, 0.80626709, 0.67907528, -0.78591212, -0.66960371, 0.21382098, 
-0.39429951, -0.39859708, -0.95100337, 0.81985213, 0.07493051, -0.50856952, 0.82039041, 0.21484451, -0.78741796, 0.85956548, 0.65574413, 0.40688926, 0.02268483, -0.10752126, -0.47801766, 0.43839440, 0.62295102, -0.66333863, -0.37967187, -0.74341401, 0.17200199, -0.89403269, 0.01482691, -0.11996181, 0.60706112, 0.21881385, -0.23289213, 0.36693899, 0.51370432, 0.17830675, -0.33843744, -0.81692771, 0.84337714, -0.22577334, -0.93340810, -0.01802487, 0.32932462, -1.04935021, -0.73951288, 0.60557414, 0.87388275, -1.02010128, 0.07613087, -0.03976494, -0.06395506, 0.66178070, -0.53770306, -0.37733656, -0.93789045, 0.14629256, -0.05708310, 0.29777901, 0.31592734, -0.97858871, -0.75851532, -0.01334406, 0.30389262, 0.07226003, -0.58273759, -0.11873558, -0.68576574, 0.14249244, 0.12800419, -0.77872112, 
-1.04042656, 0.23745042, 0.24610833, 0.35256553, 0.25176769, 0.57026293, 0.02180715, 0.18931791, 0.61382914, -0.83839450, -0.78677955, -0.38645845, 0.88705368, -0.26081512, 0.29987247, -0.98716930, -1.05085509, -0.69354315, 0.37427720, 0.32873973, -0.60846438, 0.67942936, -0.62093685, 0.75909573, -0.18464313, -0.14000697, -0.29597238, 0.19325860, -0.93384704, 0.89569928, 0.47820496, -0.88979298, 0.21763033, -0.19120608, 0.54725318, -0.44612136, -0.53646252, -0.34645904, 0.82767718, -0.83815276, -0.10037292, -0.87462174, -0.14013057, -0.12883861, -0.05095623, -0.75577748, -0.03152728, -0.01733069, -0.36484000, -0.57276946, -0.60411034, 0.11117626, -0.80885947, -0.14056656, -0.04524739, 0.09097802, 0.80390710, 0.74326086, -0.63128275, -1.04545931, 0.72344077, -1.06859716, -0.85077167, 0.02555172, 
-0.21775274, 0.73853201, 0.62148086, 0.33026537, -0.52344640, 0.53363867, 0.57659324, 0.46066131, 0.74349756, -0.47905671, -0.58369668, -0.22297805, -0.15035356, 0.46925667, 0.84417189, 0.56928708, -1.01903216, -0.67545782, -0.23505604, -0.74341101, 0.26845625, 0.80417720, 0.43204764, 0.15684398, 0.63191868, -1.11475448, 0.19586529, 0.43984008, -1.09887101, 0.42957425, -0.45012757, -0.18971300, 0.29501702, -0.70173595, -0.73253687, -1.10151862, -1.04118652, -1.02903288, 0.48605344, 0.82922179, -0.38117883, -0.97073248, -0.26684549, 0.59537836, 0.62543495, -0.29576285, 0.29157620, 0.73331355, 0.15569009, -0.81656909, -0.88318670, -0.44894291, -0.88548114, 0.67577170, 0.83481183, -1.12665170, 0.68792798, 0.15758788, 0.44009913, 0.71596772, -0.28592711, -0.88311768, -0.34683452, -0.86399933, 
15.23410266, 15.73958490, 14.85343833, 15.31982689, 15.83746277, 16.46640253, 15.27595944, 14.58319469, 14.62258081, 16.13602471, 16.30548382, 16.37492651, 14.96717261, 15.72397077, 16.23515082, 16.24977345, 16.03431243, 16.47887487, 14.92774130, 16.27574206, 16.28155732, 14.88946388, 16.27600111, 16.09639605, 16.17396251, 15.84301100, 15.93927453, 15.01494616, 16.08680408, 14.71935077, 15.27785758, 14.75577196, 15.89380088, 15.56616114, 15.51046407, 15.16612888, 15.46742889, 16.22128873, 15.18418879, 15.52487492, 15.79217866, 14.92453783, 15.33466665, 16.19421649, 16.08337382, 15.00468268, 15.87885516, 15.55255147, 14.91842277, 16.24146168, 15.26315875, 14.63484531, 14.56579078, 14.97402508, 16.16610659, 16.17461852, 16.25190131, 15.54024634, 14.62442990, 15.77357061, 15.69446233, 15.33715270, 15.96420778, 15.02312843, 
0.75345398, -0.67518800, 0.03939746, -0.34425191, -1.01903404, 0.65845147, 0.61548823, 0.20800984, -0.98214548, -0.61497990, -0.16290845, 0.53609356, -0.17543200, -0.84918807, -0.47648975, 0.17785599, 0.82713883, 0.22153422, 0.24756653, 0.82779484, 0.63042452, -0.15146166, 0.43727858, 0.31719105, 0.82364989, 0.49657370, -0.47437313, -0.04702256, -0.73140838, 0.92469988, 0.41097109, -0.95836411, -0.73089783, -0.53004116, -0.28302572, -0.73034158, -0.85199939, -0.64794720, 0.49725855, -0.81455458, -0.24333681, -0.64605961, 0.74112927, 0.60082148, -0.47565739, -0.71577019, -0.20173223, -0.62892826, 0.52535432, -0.93457541, -0.78154313, 0.17536913, -0.06644679, 0.67532574, -0.48784953, -0.22320660, 0.19148973, 0.05736764, 0.74936114, 0.47967164, 0.00165781, 0.17992252, 0.54089783, 0.29035028, 
0.73642241, -0.65558686, 0.64654975, 0.90401331, -0.28394377, 0.16339859, -0.89095098, 0.49230971, 0.53692928, 0.86976858, 0.11272148, -0.91913782, -0.82641132, 0.93057954, -0.52847578, 0.71853330, 1.01559442, -0.29042862, -0.08650728, -0.03126207, -0.59551259, 0.44523349, 0.76512162, 0.61556744, -0.47780858, 0.53407305, 0.11482937, 0.54343953, -0.26641413, -0.32468251, -0.14661990, -0.57735218, -0.02762983, -0.54743061, -0.72069933, 0.64106595, 0.56860753, -0.65901076, 0.08601521, 0.05817635, -0.83660264, -0.84862376, 0.09167808, -0.71037441, 1.03459532, 0.51584184, 0.96079844, 1.00282929, -0.82194724, -0.17306929, -0.07579324, -0.46482028, -0.77519626, -0.35803207, -0.89661330, -0.30036529, -0.87131948, 0.17085562, -0.80428622, -0.18509406, 0.79881265, 0.00173343, 0.19019330, -0.27617763, 
0.33562844, 0.35081960, -0.75378606, -0.14312448, 0.64444838, 0.28486870, 0.86769141, 0.76048529, 0.38888448, -0.08799097, -0.99724957, 0.37611934, -0.61950959, 0.91618841, 0.33158818, -0.48881728, -0.30424134, -0.79156552, -0.00099802, -0.12679805, -0.19695805, 0.05502823, 0.52547621, -0.11563798, -0.82147661, 0.67382954, 0.65190750, 0.92997559, -0.37179749, -0.20525965, -0.39356249, -1.01221557, -0.83048658, -0.12339508, -0.13138659, 0.83791527, -0.81457291, -0.23974171, 0.62235403, 0.59826504, 0.69622079, 0.64905793, -0.00166215, -0.89933532, 0.58919981, -0.64612050, -0.36419913, -0.69108806, -0.41373255, 0.65875632, 0.20606736, 0.41326287, -0.26226198, -0.24450296, -0.67842164, -0.05978512, -0.54671995, -1.00256067, -0.10585606, 0.10543603, -0.18386685, 0.52453492, 0.11717393, 0.00960004, 
48.05416526, 47.63881276, 48.50054073, 48.26354582, 48.42302453, 48.14684823, 47.88576433, 48.14319879, 47.81985962, 48.90805565, 48.26781694, 49.43301290, 49.28588862, 48.92757128, 47.76587831, 47.89610954, 48.61028107, 48.99589915, 49.33332588, 49.37197256, 47.77534966, 47.67885770, 48.33614091, 48.25258318, 47.70025051, 49.25423833, 49.38197268, 48.54033713, 48.80272672, 48.52310008, 49.57389064, 49.25177350, 48.55679437, 48.46931288, 47.91020084, 49.37470041, 49.01104263, 48.19084669, 47.91278073, 49.22578377, 49.49378386, 48.57547919, 49.05367819, 49.17455400, 47.89793198, 49.21443802, 49.46554505, 48.90309457, 48.60521869, 49.19375245, 48.66994865, 48.77544987, 49.26749167, 49.40097108, 49.42291457, 49.36262370, 49.05009092, 49.19976877, 48.29784235, 48.24769916, 48.11775038, 48.26661450, 47.89435418, 49.06942626, 
7.93183862, 7.00046625, 7.64003791, 7.33776277, 7.58619446, 7.94770016, 6.95842806, 7.47485984, 6.91806086, 6.40698777, 7.04429535, 7.21087437, 8.01630731, 6.90472193, 6.50885045, 7.01640752, 6.49335589, 7.57368062, 8.18673891, 8.15572909, 7.36953322, 8.00453501, 7.91323431, 6.81450566, 7.59918530, 6.60595817, 7.45708634, 8.11181720, 7.26745419, 7.74632203, 7.57612498, 6.79314462, 8.34064009, 6.81001469, 7.72475919, 7.52068636, 8.35156666, 8.27703906, 6.58939800, 6.86347932, 8.27787863, 7.22754516, 7.66820550, 7.88803774, 7.72611890, 7.77090775, 6.49829707, 7.81332660, 6.93844018, 8.27888779, 7.56290749, 7.90182520, 7.87727460, 7.06999360, 8.31018266, 7.07031170, 7.26980357, 7.36112080, 6.77598070, 8.13110957, 6.70129464, 7.94595748, 6.51810599, 6.63578654, 
42.42749191, 41.91438492, 41.82799263, 42.37291037, 41.78527578, 42.01124244, 40.83024149, 41.65700621, 40.83263941, 42.09229879, 41.13889576, 42.15261011, 41.45705835, 41.23104463, 41.55978851, 41.98935034, 41.10378423, 40.71654780, 41.48502734, 40.57491063, 41.38039320, 41.38906180, 41.23907413, 42.24404858, 42.34403441, 41.60890664, 41.96900996, 40.63918085, 41.14871593, 42.08096775, 40.86881919, 41.09239171, 41.51153655, 42.21299570, 40.98148596, 40.81299620, 41.74042201, 41.32791133, 41.98618629, 42.08924530, 40.93639400, 40.64126593, 41.75803928, 41.90963623, 41.38849444, 40.83401167, 41.41517045, 42.00846255, 41.06674335, 42.41638167, 42.09955706, 41.96332043, 41.32162735, 40.85481507, 41.72355289, 41.18184563, 41.97990559, 41.20874672, 41.33721036, 40.64480539, 40.80589835, 41.72221343, 41.25338098, 41.83361878, 
23.74178152, 24.04143932, 24.45318737, 22.99838741, 22.88553452, 23.95555754, 24.60381659, 23.33811240, 24.11300735, 23.87803975, 24.76393252, 23.01768567, 24.22823530, 23.69528684, 24.54233210, 22.81116252, 23.62785239, 24.15807303, 24.29066683, 24.46566362, 24.52907198, 23.53040359, 23.16369313, 24.02516144, 24.25533419, 24.01708737, 24.18615071, 24.57741642, 23.25548468, 22.95571556, 23.92721907, 24.22306157, 24.22295025, 23.60620181, 24.44724435, 24.33428015, 22.78755472, 24.27685631, 22.89818793, 24.12635744, 23.38069142, 22.88791582, 24.36983849, 22.83472209, 23.80899803, 24.13796596, 22.87167998, 24.66264579, 23.52183436, 24.38814218, 24.35410478, 23.27670171, 23.14434114, 24.74359328, 24.52765852, 24.62547070, 23.98647602, 23.93960460, 24.42868249, 24.46775607, 24.12111554, 23.58169693, 23.91661301, 23.56986116, 
28.95830175, 28.13426036, 27.67454431, 28.97165184, 27.63691204, 27.79852761, 28.32380466, 28.24339883, 27.91223880, 27.91943852, 28.30391630, 28.94703221, 29.28319984, 28.40139165, 28.83547337, 28.03082957, 28.01532920, 28.41537352, 28.53332665, 28.38546572, 28.38476217, 28.28678055, 28.23673179, 27.59703356, 27.45218052, 27.89120965, 29.29058501, 28.79909143, 28.69870196, 28.43299339, 27.59474796, 28.33819145, 29.24844150, 27.95048002, 27.99103103, 27.56654128, 28.43019537, 28.99602343, 28.49112785, 29.02362192, 27.59664969, 27.47623189, 28.65184186, 27.56103728, 28.55881128, 28.16850297, 28.27305459, 29.25532823, 29.26506424, 27.48756899, 28.32198169, 28.33101415, 28.45553728, 29.23990122, 28.60923545, 28.58890554, 27.81229862, 28.58100820, 28.06918470, 29.19218832, 27.69518934, 28.34512040, 28.21156751, 27.62481857, 
0.65039852, 0.55739663, -0.45384206, -0.23821837, 0.23460781, 0.71847354, -0.53340871, 0.51244524, 0.87589317, 0.79962089, 0.75467026, 0.11589219, -0.35068839, -0.29108741, 0.05240817, -0.40443641, -0.12233068, -0.94442240, 0.60776548, -0.98560567, 0.97666656, -0.10181133, 0.28448761, -0.52984708, -0.83961539, -0.96513994, -0.65647102, -0.46323831, 0.06116820, 0.23628423, -0.15723199, -0.28085589, -0.19874175, 0.39650334, 0.48850313, -0.95655656, 0.12255426, 0.96267180, 0.56346607, 0.00602482, 0.76987008, 0.32571371, -0.87050560, -0.57324092, -0.95779631, 0.18947995, 0.02990006, -0.07254961, 0.25263494, -0.35475708, -0.05057788, 0.23687889, 0.55100898, -0.75851288, 0.71460920, 0.71897098, -0.71607544, -0.93428444, -0.73668994, 0.35267015, 0.30957718, 0.11365545, -0.92060836, -0.88158719, 
32.51212415, 33.56986013, 32.16382162, 33.64225580, 33.54010932, 33.73486507, 32.65585800, 33.31755679, 33.06815617, 32.79292979, 33.75189326, 33.11793725, 31.98998713, 32.78937070, 32.05296503, 33.25019945, 33.44219101, 33.00996453, 32.49465573, 33.00077737, 33.25902903, 32.21684231, 32.72732573, 33.55053098, 32.29013526, 32.99821318, 32.91077851, 33.60728983, 32.11944601, 32.99774754, 33.73328003, 32.64475958, 32.58079708, 33.91029106, 32.30020479, 32.13409581, 33.65834555, 32.96925220, 33.46484201, 32.73969113, 33.77537140, 33.22992468, 33.87081779, 33.77854794, 32.03248479, 33.93697223, 33.04193680, 33.48786521, 32.96012616, 33.54978194, 32.50183199, 32.23234461, 33.77981366, 33.24234713, 33.79606500, 32.08313834, 32.25374972, 32.72003292, 33.70361758, 32.38638515, 33.73096987, 33.45008702, 33.04433413, 32.32495637, 
38.29343008, 38.27759092, 37.39210418, 37.96496504, 37.26003253, 38.87013560, 38.71784558, 37.04859334, 38.11324969, 38.60185278, 38.84033068, 38.15892390, 38.55201441, 37.89545690, 37.65997852, 37.52532999, 37.45842824, 38.17499992, 37.77086401, 37.25143132, 37.43053646, 37.58011841, 37.34775906, 37.69747560, 38.31334075, 37.06456605, 38.09705016, 38.05750003, 38.52784249, 37.15457370, 38.39564581, 37.91459939, 38.52549144, 38.88107681, 36.97289126, 38.87885080, 38.84453923, 38.78406367, 37.02077096, 38.05111575, 38.47924327, 36.95442847, 37.30336648, 38.12458451, 37.94321219, 38.05667182, 38.74324132, 38.49496725, 37.32499856, 37.60743215, 38.83972540, 37.84886185, 38.28087739, 37.28081128, 38.63966428, 37.68754496, 37.43870416, 37.83004126, 38.83837181, 37.05987348, 38.07794178, 38.32734445, 38.06779969, 37.69676005, 
0.31976845, 0.15203815, -0.31304196, 0.25763450, 0.02942863, -0.19894418, -0.59792292, -0.39800127, -0.15118889, -0.20122962, 0.81991006, 0.88535012, -1.05123097, 0.65647820, 0.47364420, -0.63290558, -0.64276282, 0.40669643, 0.30928309, 0.73144139, 0.78083453, 0.04227419, -0.48768683, -0.68713448, -1.03435772, -0.55598819, -0.53393418, 0.13691089, 0.86468309, 0.62719234, -1.07300223, 0.25975799, -0.14546305, -0.31073774, -0.40730105, -1.04072796, 0.56562455, 0.07008250, -0.36342277, -0.51025788, -1.05584066, -0.46820625, -0.54960130, -1.03176518, -0.73642159, -1.00065064, -0.58936430, -0.30387796, 0.48135225, 0.79522525, -0.49713011, 0.33749324, -0.08719410, 0.09048953, 0.72566522, -0.04624536, 0.60980780, -0.73296249, -0.83402801, 0.54979735, -1.03046369, -0.83172379, -0.11513820, -0.10062029, 
-0.08349570, 0.53652657, -0.08238243, -0.44256470, -0.31808448, 0.62950126, 0.12248388, -0.29861868, -0.76339853, 0.64818904, -0.25507740, -0.42451367, 0.72284486, 0.23086476, 0.34691484, 0.27950357, 0.10139647, -1.07490881, -0.30769673, -0.91049117, 0.09088717, -0.50672505, 0.11856993, -0.22399857, -0.16438108, 0.35984838, -0.59889477, -0.11953831, 0.60343105, 0.36127349, 0.85514786, -0.38841755, -0.01055284, -0.13558746, 0.26066485, 0.76300978, -0.41443910, -0.52520417, -0.44396180, -0.08619053, -0.78536803, 0.39260790, 0.58094290, -0.97087607, -0.28488024, 0.01950484, 0.40027460, 0.90816333, 0.03624313, -0.81577503, -0.91068074, -0.78122260, -0.23085297, 0.29953629, 0.08642593, 0.69641305, -0.24896823, 0.57917826, -0.33147816, -0.55389008, 0.03209885, -0.38468320, 0.14933946, -0.88680689, 
34.46723495, 33.39750993, 32.86370850, 33.14444295, 33.96395285, 33.51139380, 34.14989952, 34.27023192, 32.99564881, 33.82248953, 34.39100295, 33.80241567, 32.93364146, 33.88292466, 33.80222609, 34.06153169, 34.15879673, 33.98319245, 34.37195619, 33.01959086, 33.37437584, 33.55002922, 32.80765102, 34.21705471, 33.22085458, 33.56781996, 34.75481173, 34.34460054, 34.27478386, 33.99579829, 34.54944075, 33.93780740, 34.58909681, 34.60893784, 34.27803895, 33.74883825, 33.31612023, 33.62372706, 33.21485876, 33.50755763, 34.64200517, 34.80165030, 34.50576189, 34.77143522, 33.88036355, 33.50377657, 34.02875550, 33.23494887, 34.68275761, 33.59650028, 33.45032832, 33.25292203, 34.34231809, 33.45376793, 34.66576533, 34.75896126, 34.21737648, 34.61636565, 34.29935039, 33.68794893, 33.80795252, 34.04457972, 32.82154492, 33.59283792, 
0.03465447, 0.48072078, 0.72281308, 0.54656330, -0.69976358, -0.86653958, -0.75009049, -0.86196982, -0.86910068, 0.95145999, -0.89474601, 0.20705145, -0.34897486, 0.32979808, 0.63778891, -0.47042866, -0.87791305, -0.71609418, -0.02171804, 0.66019363, -0.06653766, -0.16016412, 0.61494348, -0.65337260, -0.34800989, 0.11008246, 0.23036492, 0.65573123, -0.64954923, 0.24769843, -0.55564226, 0.39554551, -0.26114053, -0.82238892, -0.04745093, 0.04953616, -0.67848823, 0.21289886, 0.19800661, -0.53714864, 0.17479911, 0.31370087, 0.68034308, 0.83626453, -0.34606078, 0.32857226, -0.62372387, -0.21353356, 0.62291834, 0.36499836, -0.54289966, -0.43317905, -0.78472549, -0.91751591, -0.07611138, -0.12229510, 0.20300681, -0.83530619, -0.45612361, 0.56389785, 0.42283251, -0.00132560, -0.03011638, -0.82786775, 
34.38522003, 35.13136725, 34.43060296, 34.71717207, 34.35470637, 33.63904984, 33.19046370, 33.53994575, 34.96319098, 34.88124704, 33.38665054, 33.62757046, 34.22025957, 33.77336694, 34.42447717, 33.85361818, 35.14880558, 34.89201778, 34.43087940, 33.37452036, 34.98494213, 33.36520829, 34.26266552, 34.19838921, 33.54034236, 34.81698218, 33.77272732, 34.97361514, 33.82609685, 34.75305121, 35.15618766, 35.02326286, 34.69636445, 34.39873661, 34.55238092, 33.86301680, 34.84973243, 34.55479061, 34.21490854, 34.62486940, 34.24798364, 34.41350507, 35.06438585, 33.28018919, 34.99881800, 34.30080900, 33.94575336, 34.95956957, 34.00477276, 33.18857875, 35.14603591, 33.80166088, 33.36573302, 34.22064742, 34.81199608, 33.71802137, 33.84957559, 33.39666939, 33.50358250, 34.48761843, 34.96166659, 33.47171614, 34.32282728, 34.46997702, 
43.12205647, 42.12681192, 43.58459754, 42.78373489, 43.49354851, 42.61145207, 42.22055027, 42.55347813, 41.83690313, 42.09688210, 42.64561331, 41.64766712, 43.20963709, 43.40331266, 43.41918267, 42.02635584, 43.40383739, 43.37716457, 42.63996271, 43.58151640, 42.40975797, 42.26390477, 42.11148376, 43.07127955, 42.47252015, 42.42701225, 42.37084396, 42.24613273, 42.71067438, 43.50561722, 43.52805573, 42.20501910, 42.00471739, 43.48494153, 43.36104225, 41.87055416, 42.46868186, 41.95388078, 42.79632055, 42.67787324, 42.42305114, 41.81422211, 42.69782862, 42.00497648, 43.58982303, 42.48929954, 42.40362058, 43.36594868, 42.23875237, 43.41587155, 43.31975334, 43.02079860, 42.05206458, 41.80352535, 42.46436640, 42.89687299, 42.60282586, 43.20749862, 43.51529397, 41.68578849, 43.08540409, 43.41563796, 42.26309585, 43.46240974, 
0.57671819, -0.69972320, -0.99089739, -0.58231169, -0.37355417, 0.17771141, 0.46784981, 0.42178523, 0.36422178, -0.46203332, 0.79904997, 0.32633307, 0.39955448, -0.42504119, 0.06457000, -0.98940489, -0.63688139, -0.24338840, 0.40368196, -0.21252855, -0.06757479, -0.75966338, -0.94336731, 0.90753932, 0.82012349, -1.05578508, -1.03438393, 0.27781584, 0.73214113, -0.39899982, 0.11251384, 0.37729714, -0.03028521, 0.19005426, 0.86342326, 0.66459843, -0.56379652, 0.39971088, 0.15482147, 0.86886307, -0.99388463, 0.02230925, 0.26363395, 0.47410766, 0.66570586, -0.60335824, 0.55314058, -0.90273771, 0.22169117, 0.02526035, -0.04682845, -0.77744581, 0.33403478, 0.07824205, -0.80146868, 0.22259609, 0.09089478, -0.76741480, -0.43115026, -0.10852628, -0.09797681, 0.74980139, -0.66279133, -1.05982421, 
0.06889760, -0.67032612, 0.73381617, 0.57353889, 0.79782256, -0.04292455, 0.51083977, 0.87237574, -0.95217749, -0.15708847, 0.41492122, 0.78196619, 0.30799111, 0.03649961, 0.94766629, -0.40187991, -0.86980222, -0.03072436, -0.11088791, 0.53267037, -0.88404450, 0.15608123, -0.17629573, 0.27528809, 0.45710424, 0.46099182, -0.76480038, -0.57243476, 0.27923102, -0.35915390, -0.56382116, -0.64403771, -0.02164635, -0.82217132, 0.93733485, -0.21599012, 0.14273781, 0.45600829, -0.33578070, 0.19839399, -0.69324651, -0.91302582, -0.01180615, 0.62257827, 0.13130747, -0.05630620, -0.77146796, 0.26933891, 0.92080311, 0.12547780, -0.19015704, -0.95540772, -0.71060730, 0.64138089, 0.32771404, 0.75433061, 0.11020638, 0.57074733, -0.81027048, -0.60272894, -0.78057290, -0.36625797, -0.23893298, 0.20561442, 
-0.25757681, -0.37074566, -1.07952322, 0.89299467, -0.90690370, -0.40747025, 0.09922233, -0.59231654, -0.31266240, -0.90475015, -0.96190460, 0.82647874, 0.04677732, -0.72553889, 0.10365132, -0.02458590, 0.40777258, -1.07867206, 0.02784006, 0.70499895, 0.57054251, -0.63661223, 0.46716323, -0.31141745, -1.05803123, 0.66472642, 0.09368729, -0.83077045, -0.69369788, 0.86258798, 0.38267764, 0.13354017, -0.42334282, 0.38796929, 0.11134971, -0.24543165, -0.93468610, -0.70461310, 0.24706667, -0.16253364, -0.52454839, 0.36997694, -0.25124004, 0.60704380, 0.72925292, -1.06277385, -0.33272724, 0.22184037, -1.05663104, 0.77992769, 0.01165418, 0.59872633, -0.77186968, -0.43636773, -0.62787625, -0.74508604, -0.68682644, 0.55062591, -0.49104162, -0.29570946, 0.49802875, -1.02354912, -1.07735442, -0.84049920, 
59.75225802, 59.42183314, 59.30190700, 59.90238678, 59.80203491, 58.63378854, 58.82466801, 58.36230139, 60.08858035, 59.65824284, 60.05416005, 59.90264814, 59.68028385, 58.80624768, 59.20930337, 59.70846768, 58.67099024, 58.30577241, 59.39200887, 58.98393543, 58.95421955, 59.84894749, 59.32366425, 59.35220798, 59.48438826, 59.91743750, 60.14131338, 59.06723188, 59.97870324, 60.14877383, 59.31154755, 59.51275314, 59.35239885, 58.39524642, 59.19693180, 58.93622564, 58.81082684, 59.80339168, 59.08031891, 58.68119907, 59.24342640, 58.91627084, 58.36563909, 58.70550213, 59.50431040, 59.35673433, 60.19576168, 59.95709251, 59.44429862, 59.36956243, 58.72281981, 60.18031005, 59.00030180, 59.82827594, 59.31430990, 58.26648194, 59.52750531, 59.23741516, 59.11550570, 59.28800043, 59.16798087, 60.20884512, 58.58254544, 58.30217160, 
-0.91257838, 0.26280732, -0.27827269, -0.31995966, -0.15200912, 0.58383809, 0.14303129, 0.87320915, -0.71809920, 0.29046225, -0.63949684, 0.56800308, -0.57101155, -0.66194329, 0.30688746, 0.65507895, 0.48941102, 0.81149915, 0.61718088, -0.72849530, 0.42156696, -0.28671735, -0.68022148, -0.26913585, 0.73248969, 0.21707609, 0.80065646, -0.31773757, 0.20771308, -0.83500622, -0.23377409, 0.37538838, 0.50805477, 0.56820690, -0.86431761, -0.56370067, 0.23229867, 0.35896736, -0.61023785, 0.59445315, -0.27031672, -0.16948101, 0.24270990, 0.23892541, 0.24882938, -0.37014896, -0.02574196, -0.18150592, -0.47839614, -0.32830740, 0.17025246, -0.97657550, 0.46522893, 0.57028465, -0.16545767, 0.27797229, -0.13238558, -0.28454753, -0.95951159, -0.84441882, -0.03930008, -0.11303201, 0.61122324, -0.45099163, 
41.65759973, 42.94933048, 42.18773254, 42.97015208, 42.38855151, 42.65774838, 42.64485890, 41.19848847, 41.56852104, 41.96782248, 42.51766756, 42.89760410, 42.67792720, 41.57217928, 41.79635186, 41.27978474, 42.32412555, 41.04685799, 41.38346292, 41.86960816, 42.69739632, 42.29825893, 41.22783413, 41.64526442, 41.09396508, 41.34857621, 41.88109927, 42.13491868, 42.31579788, 41.57257619, 42.76418072, 42.93148012, 41.47998917, 41.90999577, 42.85971470, 42.82662319, 41.52582666, 42.46265611, 42.98319417, 42.05243020, 41.38856110, 42.45894424, 41.90811681, 43.02457080, 42.98920603, 42.66255117, 41.26243805, 42.27141409, 42.66749167, 41.60398348, 41.09910475, 42.32297050, 42.86032492, 41.28502139, 42.92631742, 42.91237250, 41.59168010, 41.76549920, 42.00537369, 42.86556049, 42.29615790, 41.72763692, 42.75512311, 42.73422958, 
0.52094702, 0.49815213, 0.44416709, -0.99514382, -0.08110925, 0.38544377, 0.01536889, 0.26553435, -0.19752948, 0.88156820, 0.24818766, -0.25024094, 0.50220188, 0.46870821, -1.02074435, 0.12777606, -0.96922580, -0.96355709, -0.59117093, 0.84918162, -0.72045320, -0.70677100, 0.71963663, -0.17069059, 0.01681070, -0.31690717, -0.34704759, -0.72894889, 0.36881225, -0.63384198, 0.96336319, -0.07739004, 0.89716085, 0.44038097, -0.03968318, -0.15109772, -0.14132457, -0.99146360, -0.85271268, 0.69399664, 0.92295529, 0.42832566, -0.52339361, 0.45800786, -0.07011543, -0.51128728, -0.38136539, -0.00649055, -0.44199368, 0.06031437, -0.12445823, -0.12959618, 0.38639405, -0.37197091, 0.73256392, -0.56394456, 0.34397260, -0.58163299, -0.26004276, -0.25436446, -0.18262428, -0.26382889, 0.70109619, -0.25261274, 
1.01475697, 1.49961790, 2.43449442, 1.90628309, 1.54100499, 2.61463243, 1.63313042, 1.49681097, 2.07580878, 2.14258750, 0.98766952, 1.03854404, 2.66415091, 1.63915482, 2.06490418, 1.25500792, 2.73231988, 0.97329663, 2.15826242, 2.15156462, 1.63417640, 1.92367703, 2.62047075, 1.01099969, 2.37489473, 1.39327867, 1.78948592, 1.22512114, 2.16230048, 1.52343280, 2.00535908, 2.40455394, 2.25054718, 1.66734999, 1.53833352, 1.01904866, 1.50947891, 2.39896043, 1.74335612, 0.81278418, 1.76904441, 1.95852212, 1.07882470, 1.66069181, 0.82517343, 2.37122536, 2.14319621, 0.78498980, 2.57201848, 1.52895512, 2.16405090, 1.43369137, 2.68012864, 2.01201814, 1.67218755, 2.28251985, 2.63279330, 2.68916996, 2.73513748, 2.02259026, 1.44009924, 1.96799305, 1.65464069, 0.91814291, 
-0.86208357, 0.69554759, -0.56023504, -0.12510818, 0.32200450, 0.41061756, -0.08482751, -0.68145460, -0.40336383, 0.22149367, 0.20673369, -0.35069391, -0.17978447, -0.42257361, -0.33820763, -0.38026951, 0.33387800, -0.94666023, 0.28091835, 0.24150313, 0.29285439, -0.81939761, -0.24848053, 0.15314418, -0.90273117, -0.28584656, -0.59676907, -0.23513543, 0.90964298, 0.28536811, -0.08949603, 0.99997900, -0.06666471, 0.30268852, -0.17270959, -0.79224062, -0.33427434, 0.69488249, -0.52127563, 0.21478142, -0.13120424, 0.63787766, 0.81650711, 0.64143087, -0.83227636, -0.56928093, -0.78641904, 0.45402124, -0.56352157, 0.44691890, -0.35205604, 0.68175241, 0.57994088, 0.35188303, -0.21268381, 0.62962931, 1.01845606, 0.14296671, -0.65308653, 0.88051863, -0.61924559, 0.20983703, 0.83291722, 0.26650929, 
-0.59280066, -0.44511857, 0.36894247, 0.02534460, -0.79781649, 0.80008644, -0.80745438, 0.02339886, 0.39038369, 0.96147231, -0.38275067, 0.51052693, -0.65538902, -0.21675012, -0.08303224, -0.26649100, -0.81741163, 0.51733132, -0.63231900, 0.71494885, -0.17836606, 0.10741678, 0.29699775, -0.20749041, -0.79719692, 0.59633081, -0.37455218, -0.46402292, -0.24141258, -0.58921537, 0.75490596, 0.17595215, -0.02416856, 0.13401382, -0.78853787, 0.18818034, -0.05573436, -0.58582687, -0.77825542, -0.65518529, -0.61418917, -0.15084071, 0.86550702, -0.25941281, 0.64257455, -0.20735984, 0.48426157, 0.83532830, -0.67986314, 0.86210796, 0.56044253, 0.15193618, -0.02030988, -0.13239434, 0.95461115, 0.19265859, -0.52589815, -0.40977565, 0.73880105, 0.24285465, 0.01117436, 0.50387239, -0.57102782, -1.00282881, 
30.11472784, 30.11727595, 30.66219315, 31.06915886, 30.54161446, 30.89410312, 31.42413895, 30.93759067, 29.75342779, 31.29981135, 29.68834324, 31.40616772, 30.10261690, 31.18277019, 31.25166141, 30.43291914, 31.05504353, 30.82226932, 29.59502070, 30.04489903, 29.70004036, 29.55979724, 31.24772300, 30.18430759, 30.16018697, 30.99668943, 31.43732762, 31.18152672, 30.51072721, 29.87646519, 31.18886329, 31.16894418, 30.53723027, 30.39454557, 30.78159218, 29.62233387, 29.83213783, 30.74922026, 31.10341367, 30.12905475, 30.59252075, 31.33524604, 30.07871161, 31.23862678, 31.06150536, 29.87386215, 30.21503506, 30.66003803, 31.23962060, 30.35354489, 31.24842619, 29.48315009, 30.45683127, 31.03963832, 30.21094682, 31.16050737, 30.57981689, 30.19176357, 30.88552322, 29.63403323, 30.61171790, 30.61787564, 31.34646655, 29.69243730, 
-0.85892614, 0.25671137, -0.55657618, -0.48329917, -0.45057923, -0.90967338, 0.18924471, 0.68543065, 0.96906179, 0.81144545, 0.46754657, 0.57405629, -0.77120327, -0.77392924, -0.22241655, 1.01190646, 0.12310479, -0.43050122, 1.03854569, -0.87657482, -0.84737377, -0.20701836, 0.82742169, 0.27593225, 0.52823435, 0.25643405, 0.45345462, -0.31655862, -0.58220117, 0.34341030, -0.08063218, -0.48280169, -0.44155271, 0.32111726, -0.00777524, 0.06619368, 0.36976950, -0.86020491, -0.29005004, 0.29715691, 0.90956617, -0.86417785, -0.17046117, -0.90331148, -0.67978147, 0.56544790, -0.93307940, 0.40164893, -0.90672770, -0.93620808, 0.48339974, -0.79577585, -0.18490082, 0.26914705, 0.43848203, -0.69834085, -0.51609328, -0.14973773, -0.05657384, -0.13996883, -0.84800181, 0.82111960, 0.33555511, -0.33122889, 
0.05889908, -0.75557089, 0.65054258, -0.61344207, -0.65744430, -0.68073072, 0.64188582, -0.78985742, -0.58596358, -0.57093293, -0.73495152, -0.30741541, 0.95407784, -0.70928655, -0.94750294, -0.99519277, -0.68717650, 0.49427609, -0.83174569, 0.08624432, -0.27823686, 0.56474182, 0.34622493, 0.16399100, -0.62635449, -0.75293924, 0.98234506, -0.51612320, -0.97256420, 0.27623336, 0.11107026, 0.08631858, 0.52066665, -0.23730128, 0.47300791, 0.86320969, 0.08257309, 0.11576613, -0.92725279, 0.49647739, 0.54532396, -0.66139909, -0.81133579, 0.50019930, -0.37080886, -0.75894954, 0.50590877, -0.05735883, 0.73541399, 0.67415151, -0.97175338, -0.54299838, 0.23921520, 0.37511347, 0.62178712, 0.61175196, 0.62310128, 0.60334883, -0.90316966, 0.65049522, -0.11965158, 0.20789730, -0.26373766, -0.59898950, 

