-0.907528916288, -0.077425458541, -0.465620899075, -0.616199224830, -0.192724387341, -0.457502975555, -0.442365794855, 0.137913144322, 0.655934324168, 0.918149357585, -0.095553453169, 0.961729789117, 0.735953856014, 0.589953306681, 0.454145939512, 0.714712973418, 0.978148747215, 0.239051484725, -0.257301553392, 0.051362651448, -0.369548631245, -0.513962218085, 0.815668202765, -0.886471144749, -0.567125461592, -0.384197515793, 0.303506576739, -0.446455275124, -0.203588976714, 0.290810876797, 0.532395397809, -0.547288430433, 0.298501541185, 0.314981536302, -0.517807550279, 0.696523941771, 0.807184057131, 0.510849330119, 0.405133213294, -0.630848109378, 0.546800134281, -0.227515488144, -0.083407086398, 0.730948820460, -0.582201605274, 0.356913968322, 0.371501815851, -0.661061433760, -0.117587817011, -0.523911252174, -0.661732840968, -0.124179815058, 0.729667043062, -0.747856074709, -0.017303994873, -0.752433851131, -0.968382824183, 0.098544267098, -0.825373088778, -0.486617633595, -0.396221808527, -0.410504470962, -0.870052186651, 0.210303048799, 0.281533249916, -0.119846186712, -0.600024414808, -0.365581225013, 0.325601977599, -0.260109256264, -0.978759117405, -0.357646412549, 0.269081698050, 0.261635181738, 
-0.362468337046, -0.466231269265, 0.518295846431, 0.309549241615, -0.592333750420, -0.420514542070, -0.979979857784, 0.767021698660, 0.510544145024, -0.244483779412, -0.692434461501, -0.351664784692, 0.060151982177, 0.247962889492, -0.761650440992, -0.863704336680, -0.755912961211, -0.711661122471, -0.264687032685, 0.607348857082, 0.496017334513, 0.885067293313, -0.155186620685, 0.708487197485, -0.483260597552, 0.010711996826, -0.576403088473, 0.546555986206, -0.044770653401, -0.190527054659, -0.233497116001, -0.945921201209, -0.438032166509, 0.386455885495, -0.510971404157, 0.592883083590, -0.372417371136, -0.258644367809, -0.024506363109, -0.141636402478, 0.519638660848, 0.409772026734, -0.293435468612, 0.147862178411, -0.871333964049, 0.372966704306, -0.221900082400, 0.053743095187, -0.962279122288, -0.199194311350, -0.076204718162, 0.645558030946, -0.773369548631, 0.188512833033, -0.645863216041, 0.202673421430, 0.123935666982, -0.549241615040, -0.275246436964, 0.560228278451, 0.819025238807, -0.464949491867, 0.545518356883, 0.130771813105, 0.246986297189, 0.117465742973, 0.344157231361, -0.335673085726, 0.158726767785, 0.942442091128, -0.104281746879, -0.190710165716, 0.688406018250, 0.370220038453, 
0.831415753655, 0.536240730003, 0.331217383343, 0.693411053804, -0.061433759575, -0.512009033479, -0.856013672292, -0.214392529069, 0.464705343791, -0.682180242317, 0.980712302011, -0.355388042848, 0.737662892544, -0.921872615741, -0.424420911283, -0.607348857082, -0.584948271126, -0.277138584552, 0.286782433546, -0.703787347026, -0.325052644429, 0.785210730308, 0.312234870449, -0.632068849757, -0.339701528977, 0.294106875820, -0.809076204718, -0.887386700034, -0.509811700797, 0.991393780328, 0.402020325327, -0.018890957366, 0.149327066866, 0.911679433576, -0.126621295816, -0.907406842250, 0.569811090426, -0.611072115238, 0.213782158879, -0.209814752647, 0.215979491562, 0.550645466475, 0.479293191321, -0.410260322886, -0.513901181066, -0.637195959349, 0.288186284982, -0.913266396069, -0.756950590533, 0.288796655171, 0.095370342112, 0.382488479263, -0.213904232917, -0.376812036500, 0.439802240059, 0.591540269173, 0.576769310587, -0.435468611713, -0.023224585711, 0.994872890408, -0.969115268410, -0.911435285501, -0.891720328379, -0.600817896054, -0.309793389691, -0.315225684378, -0.976744895779, 0.266396069216, 0.084383678701, -0.981383709220, 0.960386974700, 0.174352244636, 0.597949156163, 0.582567827387, 
-0.493942075869, -0.827204199347, 0.652699362163, 0.396832178716, 0.740775780511, -0.403790398877, 0.519821771905, 0.824884792627, -0.955870235298, 0.895870845668, -0.927121799371, 0.563280129398, -0.625659962767, 0.054353465377, 0.795037690359, 0.870784630879, 0.831171605579, 0.144138920255, 0.352336191900, -0.902401806696, 0.317545091098, 0.593798638874, 0.046235541856, -0.421246986297, 0.111423078097, -0.276955473495, 0.457441938536, 0.951963866085, 0.159703360088, -0.889584032716, -0.406414990692, -0.035065767388, 0.907345805231, 0.355265968810, 0.853205969420, 0.833185827204, -0.525254066591, -0.203650013733, -0.881221961119, 0.210608233894, 0.994994964446, -0.249061555834, -0.708426160466, 0.836481826228, -0.076998199408, -0.165013580737, 0.579393902402, -0.079744865261, -0.868587298196, 0.928281502731, 0.851435895871, -0.672414319285, -0.397625659963, -0.653492843410, 0.372234260079, -0.370830408643, 0.530930509354, -0.216650898770, -0.773430585650, -0.924130985443, 0.650135807367, 0.583422345653, -0.251747184668, -0.438459425642, 0.591662343211, -0.089022492141, 0.265724662008, 0.637134922330, -0.905758842738, 0.375286111026, -0.523850215155, -0.362163151952, 0.872066408277, 0.674794763024, 
-0.238868373669, 0.986205633717, 0.955504013184, -0.175450910978, 0.756401257363, 0.733085116123, -0.682424390393, 0.527268288217, -0.512375255593, -0.600024414808, 0.598193304239, -0.748283333842, 0.385479293191, -0.815729239784, 0.737357707450, -0.419415875729, -0.508163701285, 0.590319528794, -0.667470320750, 0.390545365764, 0.169957579272, 0.548631244850, -0.469710379345, -0.573534348582, 0.631153294473, -0.913571581164, 0.265785699026, -0.166600543229, 0.590319528794, 0.610950041200, 0.662282174139, 0.206884975738, -0.637195959349, 0.868343150121, -0.596301156652, -0.273354289377, 0.715323343608, -0.358378856777, 0.892147587512, 0.933957945494, 0.783013397626, 0.248878444777, -0.997436445204, -0.283974730674, 0.365825373089, -0.095370342112, 0.248695333720, -0.939451277200, -0.084139530625, 0.007293923765, -0.829706717124, 0.141697439497, 0.529038361766, 0.414960173345, -0.243079927976, -0.699331644642, -0.747428815577, 0.771599475082, -0.281777397992, 0.483748893704, 0.022370067446, 0.946836756493, -0.585131382183, -0.300637836848, 0.540513321329, -0.348612933744, 0.262489700003, -0.942564165166, 0.407757805109, -0.708975493637, 0.419965208899, 0.953489791559, 0.821955015717, 0.120944853053, 
0.575975829340, -0.041230506302, -0.844599749748, -0.236610003967, -0.354472487564, 0.981688894314, 0.723746452223, -0.848323007904, -0.810663167211, -0.740714743492, -0.941709646901, 0.961912900174, 0.367778557695, 0.744926297800, 0.995849482711, -0.404705954161, 0.243140964995, 0.451826532792, -0.104220709861, 0.774895474105, -0.758232367931, -0.683278908658, -0.699575792718, -0.183629871517, 0.588915677358, -0.854426709799, 0.347880489517, 0.638843958861, -0.471541489914, 0.203466902676, -0.748527481918, 0.575182348094, -0.859065523240, -0.988341929380, 0.159215063936, -0.953794976653, 0.571092867824, 0.914609210486, -0.296914578692, -0.839411603137, 0.478072450941, 0.978148747215, 0.553392132328, 0.303079317606, -0.478499710074, -0.216834009827, 0.289040803247, 0.773003326518, 0.694570757164, -0.324442274239, 0.896725363933, 0.536973174230, -0.682790612506, 0.036042359691, -0.788384655293, -0.843317972350, -0.497482222968, -0.867976928007, -0.387737662893, 0.955015717032, 0.907712027345, -0.885921811579, -0.718985564745, 0.483199560533, 0.582934049501, -0.281105990783, -0.655629139073, 0.351237525559, -0.269325846126, -0.757377849666, 0.203955198828, 0.483809930723, 0.187231055635, 0.345683156835, 
0.372051149022, 0.864803003021, 0.439313943907, -0.748161259804, -0.877071443831, 0.832453382977, -0.011017181921, -0.094515823847, 0.273537400433, 0.987609485153, -0.121921445357, -0.353190710166, -0.594653157140, 0.778313547166, 0.185583056124, -0.029450361644, -0.159764397107, -0.177953428755, 0.309976500748, 0.928098391675, -0.317361980041, 0.029084139531, 0.849604785302, 0.737296670431, -0.759331034272, 0.589159825434, 0.892635883663, -0.838312936796, -0.861018707846, 0.883480330821, -0.469771416364, 0.221655934324, 0.434736167486, -0.614123966185, -0.595141453291, 0.799981688894, -0.949217200232, -0.386089663381, -0.894650105289, 0.704641865291, -0.162572099979, -0.806512649922, 0.223670155950, 0.751213110752, 0.575487533189, -0.900326548051, -0.117343668935, 0.427167577136, -0.766655476547, -0.865047151097, 0.550340281381, -0.299417096469, 0.790704062014, 0.709463789789, -0.048860133671, 0.535996581927, 0.940549943541, 0.983031708731, 0.887264625996, 0.680043946654, 0.983275856807, -0.565721610157, -0.216895046846, -0.721488082522, -0.775688955351, 0.917600024415, -0.235633411664, 0.888790551469, -0.811700796533, 0.270363475448, -0.914731284524, -0.551683095798, -0.038117618336, 0.534226508377, 
0.715750602741, 0.763664662618, 0.978331858272, -0.148228400525, -0.099154637288, -0.919492172002, 0.555833613086, -0.898617511521, -0.493820001831, 0.299233985412, 0.502243110446, -0.666676839503, -0.039582506790, -0.603198339793, 0.098605304117, -0.931516464736, -0.392193365276, 0.618396557512, -0.225623340556, 0.523545030061, 0.284035767693, 0.001129184851, -0.213721121860, 0.823725089267, -0.073458052309, 0.792413098544, 0.213721121860, -0.732963042085, -0.967284157842, -0.675222022156, -0.417096469008, 0.701590014344, 0.778679769280, -0.088717307047, 0.432782982879, 0.078035828730, -0.390240180670, 0.321695608386, -0.865718558306, 0.241248817408, 0.117465742973, 0.404339732047, 0.276711325419, 0.022309030427, -0.987426374096, -0.586046937468, 0.932248908963, 0.693838312937, 0.009796441542, 0.610156559954, -0.887569811090, -0.149204992828, 0.434064760277, 0.686880092776, -0.271523178808, 0.780449842830, -0.637501144444, 0.597094637898, 0.367717520676, 0.381878109073, 0.114169743950, -0.665700247200, 0.199072237312, -0.300027466659, 0.899227881710, -0.766472365490, 0.320108645894, 0.134372997223, 0.441633350627, 0.354411450545, 0.857905819880, -0.612964262825, 0.386638996551, 0.508407849361, 
-0.864009521775, 0.210486159856, -0.694509720145, 0.494186223945, 0.221167638173, 0.019501327555, 0.111239967040, -0.898983733634, 0.160008545183, 0.428388317515, -0.303567613758, -0.554551835688, -0.778618732261, 0.776604510636, 0.606067079684, -0.798150578326, -0.546494949187, 0.705130161443, -0.441450239570, 0.290017395550, -0.128635517441, -0.153660695212, 0.626758629109, 0.582689901425, -0.415814691610, -0.310647907956, -0.108981597339, -0.805413983581, 0.178258613849, -0.316141239662, -0.621448408460, -0.083285012360, -0.335245826594, 0.644520401624, -0.900692770165, 0.356669820246, -0.692312387463, -0.481185338908, 0.992797631764, -0.650624103519, -0.357768486587, 0.580980864895, -0.402935880612, 0.199438459426, 0.997863704337, -0.886654255806, -0.746757408368, 0.318155461287, 0.836970122379, 0.639576403088, 0.657521286660, 0.817316202277, -0.776665547655, -0.230018005921, 0.573046052431, 0.623035370952, 0.731498153630, -0.276161992248, -0.484969634083, 0.671071504868, 0.109591967528, 0.589159825434, -0.779229102451, 0.746940519425, 0.009857478561, -0.616748558000, 0.716910306101, 0.533249916074, 0.096652119510, -0.022675252541, 0.797479171117, -0.574022644734, -0.153294473098, -0.054231391339, 
-0.275612659078, 0.683645130772, 0.353251747185, 0.404705954161, -0.037079989013, 0.469832453383, -0.553941465499, -0.099398785363, 0.765007477035, -0.645802179022, -0.558946501053, 0.412884914701, 0.412457655568, 0.831781975768, -0.169347209082, 0.531418805506, 0.933408612323, 0.424787133396, 0.228614154485, -0.126987517930, -0.896847437971, -0.070772423475, -0.119235816523, -0.201452681051, 0.543382061220, 0.368083742790, -0.944761497848, 0.493209631642, 0.730826746422, 0.214209418012, 0.623523667104, -0.527512436293, -0.270729697562, 0.445356608783, -0.854426709799, -0.423322244942, 0.456221198157, 0.993408001953, -0.228247932371, -0.483932004761, -0.702566606647, 0.151158177435, 0.273049104282, -0.970641193884, 0.881832331309, -0.501632740257, 0.513168736839, -0.282143620106, -0.171849726859, -0.090609454634, 0.674367503891, -0.382122257149, -0.721793267617, -0.793755912961, 0.549485763115, 0.574388866848, -0.973448896756, -0.982055116428, -0.786675618763, 0.477095858638, -0.939085055086, -0.590258491775, -0.614795373394, -0.576708273568, -0.674977874081, 0.844477675710, -0.204809717093, -0.131809442427, -0.483260597552, 0.037690359203, -0.132908108768, -0.173680837428, -0.266029847102, -0.728751487777, 
0.030304879910, -0.813592944121, -0.219641712699, -0.275063325907, -0.027130954924, 0.201757866146, -0.056062501907, 0.391094698935, 0.148594622639, 0.218848231452, -0.939207129124, -0.866817224647, 0.850459303568, -0.292764061403, 0.676808984649, -0.547898800623, 0.163182470168, -0.347880489517, -0.881649220252, -0.478988006226, -0.893063142796, -0.627063814203, 0.287636951811, -0.946714682455, -0.714957121494, 0.830500198370, 0.990844447157, 0.564195684683, -0.652088991974, 0.484176152837, -0.384014404736, 0.589892269662, -0.413556321909, 0.763420514542, -0.030060731834, -0.573961607715, 0.966124454482, 0.213965269936, -0.912167729728, 0.948423718986, -0.084627826777, 0.383404034547, 0.828485976745, -0.922299874874, -0.819391460921, 0.506332590716, 0.066682943205, 0.452253791925, 0.059602649007, 0.053926206244, -0.703787347026, -0.131260109256, 0.326334421827, 0.208655049287, 0.455366679891, 0.056855983154, -0.839533677175, 0.327311014130, -0.212988677633, 0.346842860195, -0.607654042177, 0.454939420759, 0.547593615528, -0.204931791131, 0.377422406690, -0.047883541368, -0.625049592578, -0.671315652944, -0.188390758995, -0.701956236457, -0.870418408765, 0.472457045198, -0.198522904141, -0.868526261177, 
0.021088290048, -0.779961546678, -0.500473036897, -0.406842249825, -0.168431653798, 0.612598040712, -0.380230109561, 0.030732139042, -0.949949644459, 0.586230048524, -0.856563005463, 0.130100405896, -0.270851771599, 0.652333140049, -0.470503860591, 0.534897915586, -0.123386333811, -0.027985473189, 0.741264076662, 0.016388439589, 0.195226905118, 0.387310403760, 0.401776177252, -0.742973113193, 0.982116153447, 0.972472304453, 0.390911587878, 0.309915463729, 0.001312295907, -0.333109530931, 0.195959349345, -0.204199346904, -0.858943449202, 0.552842799158, -0.670827356792, 0.901913510544, 0.669179357280, 0.339945677053, 0.123630481887, 0.243079927976, 0.897946104312, 0.619251075777, -0.779168065432, 0.649525437178, 0.072359385968, -0.550279244362, -0.937559129612, -0.057893612476, 0.293313394574, 0.838679158910, -0.302285836360, 0.758964812159, 0.287881099887, -0.320474868007, 0.220618305002, -0.504928739280, 0.840815454573, 0.709341715751, 0.147740104373, -0.582018494217, -0.302468947417, -0.952208014161, 0.050569170202, 0.021210364086, -0.246559038057, 0.881282998138, -0.246070741905, -0.321024201178, -0.660267952513, -0.146519363994, -0.586718344676, -0.335856196783, 0.420331431013, -0.273842585528, 
-0.216345713675, 0.591540269173, -0.489120151372, 0.871333964049, 0.992248298593, -0.649891659291, -0.866817224647, -0.841853083895, 0.127536851100, -0.414593951231, 0.617114780114, 0.797357097079, 0.957396160772, -0.204382457961, 0.062715536973, -0.296060060427, 0.088473158971, 0.103305154576, 0.275490585040, 0.943845942564, 0.879451887570, -0.234717856380, 0.485580004273, 0.822931608020, -0.579210791345, 0.483687856685, 0.666066469314, -0.815057832575, -0.106295968505, -0.420392468032, 0.260475478378, 0.477767265847, -0.380474257637, 0.093478194525, 0.133152256844, -0.848017822810, -0.885738700522, -0.127231666005, -0.444990386670, -0.045442060610, -0.541123691519, 0.711172826319, -0.963194677572, 0.678640095218, 0.298196356090, -0.399456770531, 0.822382274850, -0.066682943205, 0.781975768303, -0.840754417554, -0.145298623615, -0.504013183996, 0.759208960234, -0.701956236457, -0.972594378491, -0.191930906095, 0.539353617969, -0.812616351817, -0.466658528397, 0.178685872982, 0.532029175695, -0.412457655568, 0.123752555925, 0.257301553392, -0.921567430647, 0.604968413343, 0.089938047426, 0.339152195807, -0.213476973785, 0.936338389233, -0.220007934812, -0.935789056063, 0.682546464431, -0.336100344859, 
-0.536423841060, 0.073885311441, 0.491561632130, 0.664235358745, 0.356425672170, 0.187047944578, 0.359538560137, 0.691824091311, 0.617419965209, 0.658070619831, 0.329020050661, -0.797967467269, 0.131443220313, 0.079439680166, 0.881405072176, 0.974364452040, 0.889461958678, 0.491317484054, 0.858149967956, -0.401287881100, 0.778435621204, -0.739371929075, 0.073152867214, 0.888241218299, -0.405377361370, 0.292641987365, -0.070650349437, 0.279457991272, -0.908200323496, -0.864009521775, 0.351664784692, -0.715872676778, -0.123508407849, -0.453901791437, 0.348429822687, -0.946409497360, 0.964232306894, 0.067110202338, 0.515060884426, 0.119479964599, 0.808160649434, 0.196020386364, 0.790581987976, 0.372234260079, -0.387432477798, 0.692068239387, -0.218482009339, 0.341044343394, -0.255531479843, -0.407940916166, 0.964293343913, -0.163853877377, 0.054841761528, 0.496078371532, 0.078585161901, -0.982055116428, 0.923276467177, 0.684804834132, -0.974364452040, -0.046418652913, -0.163365581225, -0.368572038942, 0.582018494217, -0.275429548021, 0.316934720908, -0.529160435804, -0.757560960723, -0.851985229041, 0.007660145878, -0.011932737205, 0.504867702261, 0.173131504257, 0.734122745445, -0.311441389203, 
-0.092013306070, 0.016205328532, 0.348307748650, -0.486312448500, 0.136692403943, -0.903500473037, -0.828791161840, 0.762749107334, -0.494796594134, 0.835566270943, 0.846308786279, -0.215674306467, 0.132480849635, 0.381389812922, 0.413983581042, -0.999572740867, -0.879146702475, 0.322367015595, -0.576830347606, 0.824396496475, -0.948240607929, 0.450605792413, 0.888912625507, 0.036103396710, -0.890377513962, -0.360576189459, -0.089083529160, -0.823053682058, -0.852229377117, 0.896298104801, 0.764946440016, 0.526779992065, 0.007965330973, -0.346110415967, 0.278481398968, -0.775444807276, 0.406292916654, 0.362529374065, 0.305093539232, -0.902462843715, -0.301797540208, -0.554979094821, -0.891842402417, -0.241187780389, 0.834833826716, -0.321756645405, 0.467879268777, 0.537034211249, 0.822931608020, 0.062105166784, 0.322611163671, -0.198767052217, -0.998290963469, 0.240028077029, -0.241065706351, -0.757805108798, 0.448530533769, -0.467818231758, 0.160985137486, -0.326578569903, 0.825251014740, -0.355143894772, -0.667348246712, -0.085787530137, -0.020355845820, -0.882137516404, 0.405560472427, -0.682790612506, 0.612414929655, 0.572985015412, 0.343607898190, -0.496749778741, -0.676870021668, 0.825251014740, 
-0.141392254402, -0.134739219337, 0.348307748650, 0.920712912381, -0.451826532792, 0.404400769066, -0.697866756188, 0.161595507675, 0.068636127812, 0.461043122654, -0.764885402997, -0.816827906125, -0.843928342540, 0.902340769677, 0.320108645894, 0.143162327952, -0.693044831690, 0.329447309793, -0.519028290658, -0.912717062899, 0.932065797906, 0.867061372723, -0.725333414716, 0.553147984252, 0.794610431227, 0.096957304605, 0.339457380902, -0.525498214667, 0.547227393414, 0.699148533586, 0.722281563768, 0.449385052034, -0.821832941679, 0.361980040895, 0.397991882076, -0.566576128422, 0.180822168645, -0.475142674032, 0.291604358043, -0.077974791711, -0.742545854060, -0.484908597064, 0.117587817011, 0.682912686544, -0.628223517563, 0.641834772790, 0.347941526536, -0.898190252388, 0.960936307871, 0.809625537889, 0.621509445479, -0.795342875454, 0.120090334788, 0.213904232917, -0.092684713279, 0.417279580065, 0.572862941374, 0.681386761071, 0.734427930540, 0.126255073702, 0.238563188574, -0.783196508683, 0.800347911008, 0.102999969481, 0.209997863704, 0.319803460799, 0.271462141789, -0.146275215918, 0.954222235786, 0.633411664174, 0.086519974364, 0.957335123753, -0.452253791925, 0.487411114841, 
-0.422650837733, -0.545518356883, 0.760063478500, -0.101229895932, 0.718070009461, 0.350016785180, -0.203039643544, -0.409161656545, -0.684560686056, -0.709707937864, -0.483504745628, 0.595873897519, 0.454084902493, -0.519821771905, -0.069551683096, -0.999328592792, 0.506759849849, 0.899716177862, 0.802911465804, -0.599414044618, -0.975341044343, -0.115695669424, -0.840510269478, -0.378093813898, 0.818842127750, 0.131199072237, 0.519211401715, 0.277199621570, -0.455122531816, -0.806451612903, -0.339335306864, -0.285622730186, -0.894772179327, -0.474166081729, -0.262550737022, -0.076448866237, 0.178991058077, 0.142124698630, -0.448042237617, -0.037141026032, 0.194372386853, -0.049775688955, -0.196630756554, 0.466536454360, 0.054170354320, 0.824579607532, 0.119724112674, -0.202429273354, -0.071565904721, -0.520981475265, -0.311990722373, -0.592822046571, -0.574999237037, 0.203955198828, -0.705130161443, 0.964354380932, 0.452681051057, -0.471846675008, -0.410870693075, 0.816278572954, 0.087191381573, 0.869685964537, -0.620044557024, 0.344950712607, -0.245643482772, 0.237281411176, 0.782891323588, -0.220740379040, 0.041779839473, -0.954954680013, -0.974730674154, 0.027680288095, -0.548081911679, -0.897152623066, 
-0.274636066774, 0.092074343089, 0.409344767602, -0.154759361553, -0.544419690542, 0.627185888241, 0.833979308451, 0.860774559771, 0.404217658010, -0.794122135075, 0.593676564837, -0.214941862239, 0.946653645436, -0.144871364483, -0.851924192022, 0.619251075777, 0.940000610370, 0.422956022828, -0.303811761834, 0.536851100192, -0.448164311655, 0.340495010224, 0.140537736137, 0.241615039521, 0.437971129490, 0.341410565508, 0.180028687399, -0.061799981689, 0.078768272958, 0.699758903775, 0.844660786767, -0.020844141972, 0.089632862331, -0.448957792901, -0.216345713675, 0.249794000061, -0.684438612018, -0.142857142857, 0.620288705100, -0.646046327097, 0.524155400250, 0.578417310099, -0.314615314188, -0.336771752068, -0.492172002319, 0.615283669546, 0.442732016968, -0.708365123447, -0.590014343699, -0.918027283547, 0.917477950377, -0.941160313730, 0.084933011872, 0.475020599994, 0.441938535722, -0.495895260475, -0.693411053804, 0.297891170995, -0.970397045808, 0.013519699698, -0.363383892331, -0.293801690725, -0.308755760369, -0.877376628925, -0.234290597247, 0.734611041597, -0.996276741844, 0.058320871609, 0.139622180853, 0.667775505844, 0.246864223151, 0.580309457686, -0.316873683889, -0.881099887082, 
0.417584765160, -0.813287759026, -0.565904721213, 0.377971739860, -0.563402203436, 0.745170445875, -0.099826044496, 0.590929898984, 0.858821375164, -0.387981810968, -0.049531540880, 0.334879604480, 0.399212622456, -0.697256385998, 0.055330057680, 0.149204992828, -0.410748619037, 0.775322733238, -0.314249092074, -0.413434247871, 0.873104037599, 0.389202551347, -0.314249092074, -0.653675954466, -0.541123691519, -0.396710104678, -0.569933164464, -0.948423718986, 0.235694448683, -0.526230658895, -0.421124912259, 0.234290597247, -0.930173650319, 0.016083254494, 0.243446150090, -0.911008026368, 0.792474135563, -0.508102664266, -0.626209295938, 0.559495834223, -0.809442426832, -0.314981536302, -0.817865535447, 0.319009979553, -0.684316537980, 0.227759636219, -0.586840418714, 0.208349864193, -0.580187383648, 0.040498062075, -0.724600970489, -0.307046723838, 0.834101382488, 0.947325052644, 0.844538712729, 0.902401806696, -0.899349955748, -0.470320749535, -0.248084963530, -0.186132389294, 0.671315652944, 0.281044953764, -0.028290658284, -0.856379894406, 0.484664448988, 0.124485000153, 0.516403698843, -0.493209631642, 0.735221411786, -0.643421735282, 0.856868190558, 0.410138248848, 0.145847956786, -0.920834986419, 
0.876155888546, -0.361125522629, 0.057100131230, 0.181981872005, 0.171666615802, 0.600878933073, 0.645008697775, -0.061494796594, 0.517502365184, 0.189855647450, -0.419476912748, -0.722098452712, 0.298928800317, 0.731315042573, 0.443220313120, 0.795098727378, 0.732718894009, 0.572313608203, -0.799493392743, 0.561082796716, 0.684316537980, 0.878780480361, 0.066621906186, -0.202429273354, -0.103854487747, -0.797967467269, -0.947508163701, -0.523545030061, -0.562364574114, -0.622363963744, 0.519943845943, -0.091708120975, -0.808954130680, 0.318399609363, -0.948423718986, 0.380779442732, -0.815301980651, -0.735343485824, -0.049348429823, 0.911191137425, 0.586230048524, 0.054292428358, 0.681325724052, -0.825495162816, -0.831232642598, -0.025727103488, 0.563280129398, 0.669484542375, -0.937803277688, -0.243018890957, -0.967101046785, -0.814508499405, -0.398052919095, 0.283913693655, -0.216834009827, -0.366557817316, -0.911923581652, 0.558091982788, -0.905453657643, 0.301309244057, 0.267067476424, 0.509445478683, -0.329264198737, 0.598620563372, -0.651783806879, -0.806085390790, 0.289956358531, -0.648121585742, -0.631092257454, -0.049714651936, 0.585497604297, -0.287026581622, -0.281533249916, -0.924192022462, 
-0.732291634877, -0.256996368297, 0.636158330027, -0.415204321421, -0.900082399976, 0.735343485824, 0.492965483566, 0.610705893124, 0.940549943541, 0.338480788598, 0.672475356304, 0.015778069399, 0.164036988433, 0.542893765069, -0.139500106815, 0.770744956816, -0.226172673727, -0.406903286843, 0.558519241920, 0.665395062105, -0.481307412946, -0.111117893002, -0.368694112980, -0.085543382061, -0.674672688986, 0.935850093081, -0.296792504654, 0.220679342021, 0.360454115421, -0.589281899472, -0.786431470687, -0.143406476028, 0.033661915952, -0.598071230201, -0.054414502396, 0.329203161718, 0.254921109653, 0.887813959166, -0.160130619221, -0.811578722495, -0.742362743004, -0.483504745628, -0.094027527696, 0.543626209296, 0.301431318094, -0.251136814478, -0.956297494430, -0.151768547624, -0.434492019410, 0.426801355022, -0.412213507492, 0.517746513260, 0.546739097262, 0.830378124332, -0.613574633015, 0.941465498825, -0.726493118076, 0.285256508072, -0.770867030854, -0.548631244850, -0.350993377483, -0.616138187811, -0.566698202460, -0.188940092166, -0.764580217902, -0.117831965087, 0.404339732047, 0.785882137516, 0.792352061525, -0.665761284219, 0.980407116916, 0.358073671682, -0.118564409314, -0.471297341838, 
-0.624744407483, 0.149204992828, -0.149754325999, 0.787163914914, 0.531052583392, 0.611438337352, 0.507187108982, -0.810541093173, 0.693411053804, 0.551561021760, -0.199804681539, 0.786858729820, -0.977660451064, -0.451277199622, 0.812738425855, -0.134434034242, -0.949339274270, 0.830439161351, -0.612659077731, -0.675710318308, -0.197973570971, -0.833674123356, 0.691946165349, 0.227210303049, -0.618030335398, -0.653981139561, 0.038850062563, 0.594836268197, 0.854487746818, -0.200354014710, 0.271279030732, 0.496627704703, -0.784356212043, 0.926755577258, -0.972289193396, -0.494186223945, -0.722159489731, 0.693655201880, 0.198828089236, -0.419171727653, -0.723929563280, -0.936033204138, 0.887081514939, -0.565416425062, 0.010223700674, -0.177159947508, 0.183629871517, -0.545396282846, 0.334391308329, -0.641895809809, -0.926084170049, -0.763603625599, 0.806512649922, 0.961973937193, -0.215552232429, 0.793023468734, 0.310647907956, 0.213293862728, -0.116306039613, -0.498031556139, -0.535447248756, 0.005951109348, -0.550889614551, -0.145664845729, -0.375102999969, 0.782952360607, 0.613696707053, 0.065523239845, -0.697744682150, 0.540635395367, -0.196813867611, 0.613147373882, 0.799371318705, 0.165074617756, 
-0.022309030427, 0.762443922239, 0.883785515915, 0.662587359233, -0.810480056154, 0.142674031800, 0.309244056520, -0.152378917814, 0.769829401532, -0.562913907285, -0.003936887722, -0.950132755516, -0.543076876125, -0.752067629017, 0.684926908170, -0.596301156652, 0.778435621204, -0.799249244667, -0.124423963134, 0.282082583087, -0.000579851680, 0.348490859706, 0.863277077548, -0.562974944304, -0.049653614917, 0.939512314219, -0.315103610340, -0.589342936491, 0.045319986572, 0.611072115238, 0.788995025483, -0.222937711722, -0.194921720023, -0.928464613788, -0.760856959746, -0.220557267983, -0.803949095126, 0.332682271798, 0.266701254311, 0.924375133518, -0.901547288430, 0.555711539048, -0.017487105930, 0.094759971923, 0.215613269448, 0.573168126469, 0.062044129765, 0.746024964141, -0.262794885098, -0.851313821833, 0.215002899258, 0.745719779046, 0.069246498001, 0.038117618336, -0.746696371349, 0.420880764183, 0.942564165166, 0.913266396069, 0.568834498123, -0.625354777673, -0.787224951933, -0.788201544237, 0.833429975280, -0.365153965880, -0.335489974670, 0.975768303476, -0.264931180761, -0.302591021455, -0.868526261177, -0.260170293283, -0.439191869869, -0.973693044832, -0.754020813623, -0.465865047151, 
0.440229499191, -0.426374095889, 0.129428998688, -0.938108462783, 0.061494796594, -0.118808557390, 0.336771752068, -0.884273812067, -0.327311014130, 0.327066866054, -0.632007812738, 0.294839320048, -0.819452497940, -0.921445356609, 0.057527390362, -0.915036469619, -0.840510269478, -0.684255500961, -0.844294564653, -0.634876552629, 0.583544419691, -0.714163640248, -0.586046937468, -0.598681600391, 0.092745750298, -0.247230445265, -0.513412884915, -0.607959227271, -0.391949217200, 0.403973509934, 0.960936307871, -0.373149815363, 0.105990783410, -0.223975341044, 0.829645680105, 0.320291756951, 0.365581225013, 0.262977996155, 0.716299935911, -0.815546128727, 0.501205481124, 0.768730735191, -0.832331308939, -0.197363200781, -0.907406842250, 0.567003387555, 0.325113681448, 0.865413373211, -0.274880214850, 0.929990539262, -0.713309121982, -0.666859950560, -0.247352519303, 0.089877010407, -0.526108584857, -0.413006988739, -0.904232917264, 0.094576860866, 0.314493240150, -0.370342112491, -0.112521744438, -0.879696035646, 0.554307687613, 0.400738547929, 0.779107028413, -0.196020386364, -0.489852595599, -0.733329264199, 0.718802453688, -0.842707602161, -0.422711874752, -0.250099185156, 0.015411847285, 0.626026184881, 
0.302774132511, 0.558275093844, -0.500228888821, -0.144810327464, -0.662404248177, -0.022431104465, -0.403851435896, 0.725394451735, 0.580858790857, 0.690725424970, 0.116733298746, -0.780755027924, 0.827143162328, -0.915952024903, 0.590441602832, -0.315775017548, -0.769035920286, 0.105502487259, -0.059480574969, -0.949095126194, 0.899594103824, -0.264870143742, -0.678701132237, -0.427900021363, 0.927304910428, 0.132114627522, 0.928281502731, -0.357036042360, 0.184118167669, -0.480452894681, 0.592761009552, -0.733573412275, -0.829828791162, -0.129367961669, 0.974791711173, -0.274941251869, -0.750297555467, 0.457136753441, -0.834284493545, 0.022919400616, -0.424298837245, 0.324869533372, -0.485946226386, -0.341044343394, -0.980895413068, -0.243751335185, -0.514572588275, 0.295571764275, -0.585741752373, -0.215186010315, -0.628772850734, -0.116306039613, -0.567186498611, -0.178075502792, -0.342936490982, -0.192602313303, -0.600085451827, 0.459944456313, 0.863704336680, 0.611011078219, 0.363322855312, -0.486556596576, -0.326883754997, 0.870357371746, -0.270485549486, 0.361430707724, 0.152806176946, 0.770867030854, 0.778801843318, 0.652333140049, -0.110568559832, 0.955870235298, 0.371440778832, 0.435407574694, 
-0.154393139439, 0.206274605548, 0.157811212500, -0.220068971831, -0.248084963530, 0.515121921445, -0.395001068148, 0.945616016114, -0.153843806269, -0.880916776025, 0.152684102908, -0.834467604602, 0.773186437574, 0.049409466842, 0.809442426832, -0.893856624042, 0.457197790460, 0.765068514054, 0.504013183996, -0.935972167119, -0.240943632313, 0.430280465102, -0.497421185949, -0.035370952483, -0.268227179785, -0.600817896054, -0.795403912473, -0.776360362560, 0.285256508072, 0.469954527421, 0.630603961303, 0.534470656453, -0.925351725822, -0.528977324747, 0.913510544145, -0.356242561113, 0.423566393017, -0.258217108676, 0.106540116581, -0.822016052736, -0.905819879757, 0.070162053285, -0.379985961486, 0.582934049501, 0.718924527726, 0.650196844386, 0.599536118656, 0.239295632801, -0.296670430616, 0.621204260384, -0.442060609760, -0.183507797479, 0.415509506516, -0.248573259682, -0.426068910794, -0.073030793176, 0.471846675008, -0.170628986480, 0.369426557207, -0.855647450179, -0.066255684072, 0.323587755974, -0.421674245430, -0.553147984252, -0.772820215461, -0.124301889096, 0.519211401715, 0.149082918790, -0.403424176763, 0.186925870540, 0.784539323099, -0.615039521470, 0.906918546098, -0.137607959227, 
0.958555864132, -0.796624652852, 0.606006042665, 0.774346140934, -0.223303933836, -0.659779656362, 0.659352397229, 0.508041627247, -0.960753196814, -0.271828363903, 0.269814142277, -0.548448133793, 0.590563676870, 0.807428205206, -0.804315317240, 0.093111972411, 0.678090762047, -0.299905392621, -0.521897030549, -0.912533951842, 0.002166814173, -0.690298165838, 0.391582995087, -0.344950712607, 0.770317697684, 0.409649952696, 0.429731131932, 0.874568926054, -0.932859279153, -0.218176824244, -0.861751152074, -0.566270943327, -0.145908993805, 0.468916898099, 0.608935819575, 0.398907437361, 0.909787285989, -0.797540208136, -0.555284279916, 0.566759239479, -0.975402081362, -0.930845057527, -0.988036744285, 0.960814233833, 0.761955626087, 0.477645191809, 0.788750877407, 0.034638508255, -0.902218695639, 0.488937040315, 0.623767815180, 0.145054475539, 0.252296517838, -0.427228614154, 0.718619342631, 0.856501968444, 0.024689474166, -0.148289437544, -0.855952635273, -0.358989226966, -0.054780724509, -0.103671376690, -0.295144505142, -0.465315713981, 0.555406353954, 0.133762627033, -0.035615100558, 0.313333536790, 0.130039368877, -0.068025757622, 0.241737113559, 0.750907925657, 0.153172399060, 0.421979430525, 
-0.605517746513, 0.521774956511, -0.140049439985, 0.121616260262, 0.198583941160, -0.689260536515, -0.841669972839, -0.578417310099, 0.138889736625, -0.308084353160, 0.241187780389, 0.998290963469, 0.421735282449, -0.660206915494, -0.797235023041, 0.214087343974, -0.976683858760, -0.864680928983, -0.028107547227, 0.568956572161, 0.585619678335, 0.728263191626, -0.126621295816, 0.264992217780, 0.971739860225, 0.119785149693, -0.868648335215, 0.947141941588, -0.705069124424, 0.826593829157, -0.373455000458, 0.681691946165, -0.767815179907, -0.810296945097, -0.780816064943, 0.235938596759, 0.435590685751, -0.609302041688, 0.952146977142, 0.721182897427, -0.146092104862, 0.736564226203, -0.555955687124, -0.339152195807, -0.223242896817, 0.777520065920, -0.212500381481, -0.452070680868, 0.413861507004, 0.818842127750, -0.737113559374, -0.047639393292, -0.177953428755, -0.610095522935, -0.818475905637, -0.758171330912, 0.992858668783, 0.232764671773, -0.829889828181, 0.978942228462, 0.911496322520, 0.372417371136, -0.791070284127, -0.944334238716, -0.597460860012, 0.832331308939, -0.263405255287, 0.629810480056, 0.572496719260, -0.443891720328, -0.866206854457, 0.923337504196, 0.662099063082, -0.900387585070, 
0.898434400464, 0.947752311777, -0.877864925077, 0.654347361675, -0.175756096072, 0.217139194922, 0.724112674337, 0.965575121311, -0.503524887844, -0.488021485031, -0.481795709098, -0.292336802271, 0.416058839686, -0.243690298166, 0.451887569811, -0.120700704978, -0.934812463759, 0.070833460494, -0.539109469893, 0.779595324564, -0.773003326518, -0.935911130100, -0.154454176458, 0.129673146764, -0.128452406384, 0.424665059359, -0.255531479843, 0.901364177374, 0.920773949400, 0.876216925565, 0.518845179601, -0.585436567278, -0.795587023530, -0.441328165532, 0.858760338145, 0.267738883633, -0.079073458052, 0.897946104312, 0.425458540605, 0.661793877987, -0.086642048402, 0.025666066469, -0.159459212012, -0.317972350230, 0.075350199896, 0.812799462874, 0.835810419019, -0.900997955260, -0.802179021577, -0.421185949278, -0.624561296426, -0.748405407880, 0.569933164464, 0.539475692007, -0.436384166997, 0.574571977905, -0.353862117374, 0.054719687490, -0.850642414624, 0.333048493912, 0.092684713279, -0.259620960112, 0.442243720817, -0.872920926542, 0.524704733421, -0.494186223945, -0.550096133305, 0.727469710379, -0.752067629017, 0.579088717307, -0.948545793023, -0.193456831568, -0.683217871639, -0.416364024781, 
-0.981994079409, -0.874080629902, -0.779534287545, -0.271950437941, 0.693899349956, 0.743949705496, -0.488082522050, 0.171300393689, -0.850276192511, 0.804742576373, 0.689321573534, -0.373271889401, 0.621692556536, 0.472090823084, 0.644825586718, -0.733573412275, 0.047395245216, 0.570543534654, 0.991943113498, 0.989196447645, 0.512924588763, 0.495529038362, 0.584276863918, 0.113925595874, -0.578478347118, 0.956053346355, -0.461714529862, 0.561876277963, -0.801629688406, -0.888790551469, 0.072420422987, -0.411114841151, -0.657765434736, -0.335123752556, -0.525009918516, 0.131687368389, -0.362041077914, 0.478621784112, -0.486190374462, -0.170690023499, -0.659169286172, 0.267372661519, -0.400677510910, 0.783501693777, 0.147190771203, 0.939939573351, 0.014496292001, -0.881038850063, -0.238685262612, 0.145481734672, 0.523239844966, 0.408062990204, -0.126071962645, 0.590685750908, 0.670766319773, 0.020172734764, -0.637989440596, -0.311868648335, -0.912778099918, 0.460005493332, 0.524948881497, 0.099765007477, 0.108493301187, 0.756645405438, -0.832819605090, 0.736869411298, -0.975096896268, -0.034577471236, 0.342326120792, 0.780022583697, 0.272438734092, -0.153782769250, 0.568468276009, 0.280800805689, 
-0.123264259774, 0.779656361583, 0.330057679983, -0.091769157994, 0.464705343791, -0.016144291513, -0.323587755974, -0.597888119144, 0.153904843287, 0.095248268075, 0.730826746422, -0.704214606159, -0.365825373089, -0.825739310892, -0.077730643635, -0.528733176672, 0.752800073244, 0.199865718558, -0.247718741417, -0.891415143284, 0.915829950865, -0.885311441389, 0.909360026856, -0.407635731071, 0.618884853664, -0.516281624805, 0.543748283334, 0.937803277688, 0.418988616596, 0.828058717612, -0.485396893216, -0.701406903287, 0.660573137608, 0.697805719169, 0.422772911771, 0.119785149693, 0.267372661519, -0.454756309702, -0.759636219367, 0.497238074892, -0.086275826289, 0.461409344768, 0.351664784692, -0.693288979766, -0.112704855495, 0.838435010834, -0.184423352763, 0.665272988067, -0.044648579363, 0.020111697745, 0.664113284707, -0.713370159001, -0.452558977020, 0.003509628590, -0.952330088198, -0.705618457595, -0.432294686728, -0.746513260292, -0.958433790094, -0.946043275246, 0.147434919279, 0.693227942747, 0.924069948424, -0.413190099796, -0.347453230384, -0.067049165319, 0.740226447340, -0.870357371746, -0.743034150212, 0.799676503800, -0.036530655843, -0.599963377789, 0.395001068148, 0.229651783807, 
-0.933042390210, 0.131748405408, -0.594836268197, -0.412701803644, -0.182103946043, -0.557603686636, 0.677785576952, 0.472090823084, 0.106601153600, 0.595324564348, 0.619312112796, 0.075838496048, 0.123813592944, 0.718497268593, -0.254921109653, 0.154087954344, -0.302285836360, 0.043061616871, -0.785943174535, 0.672719504379, -0.396160771508, -0.775872066408, -0.883236182745, 0.192663350322, 0.659901730399, -0.694387646107, 0.830561235389, 0.056184575945, -0.581469161046, -0.107699819941, 0.752555925169, 0.435590685751, 0.269936216315, 0.091708120975, -0.274697103793, -0.691824091311, 0.767571031831, -0.212317270425, -0.534470656453, 0.419537949767, -0.011566515091, -0.191442609943, 0.309488204596, -0.703054902799, 0.741569261757, 0.552476577044, -0.413006988739, -0.622547074801, -0.563646351512, -0.367839594714, 0.937742240669, -0.690115054781, 0.423627430036, 0.101718192083, -0.119968260750, -0.503097628712, 0.621753593554, -0.172215948973, -0.052522354808, 0.936460463271, -0.759331034272, -0.431806390576, 0.703543198950, 0.427472762230, 0.416058839686, 0.319864497818, -0.052156132694, -0.799249244667, -0.434553056429, -0.501632740257, -0.573473311563, -0.961363567003, -0.719168675802, 0.512802514725, 
0.358684041871, 0.944883571886, -0.432416760765, -0.703054902799, 0.092074343089, 0.427961058382, 0.244422742393, 0.360820337535, 0.199804681539, 0.460860011597, 0.315530869472, -0.076998199408, -0.668630024110, 0.178197576830, 0.128147221290, 0.688833277383, -0.870235297708, 0.374492629780, -0.872188482315, -0.165440839869, 0.527878658406, -0.134189886166, -0.976683858760, 0.762016663106, 0.735404522843, -0.222754600665, -0.825067903684, 0.184362315744, 0.231116672262, -0.181676686911, 0.017487105930, -0.893124179815, 