0.231405768828, 0.476811407070, -0.768496662988, -0.904619291124, 0.576810195860, -0.444817351486, -0.577674208217, -0.796878876801, -0.665476250870, 0.654632395024, 0.165735949091, 0.370932330935, -0.913784919840, -0.693431205550, -0.541194804411, -0.173456841098, -0.531001622246, -0.349233379807, 0.739768960589, 0.687968683244, -0.163986027288, 0.499303257664, -0.056194651818, -0.963326827483, -0.710216385762, -0.500361038732, 0.265653549116, -0.128157297163, 0.073804122676, -0.794925692194, -0.800663171976, 0.252276366092, -0.609617302656, -0.130903963016, -0.596433306562, 0.946155273411, -0.292977400079, 0.774580213137, -0.036428733551, 0.892259585677, 0.617643961539, 0.910987874622, -0.388673369923, -0.204331496815, 0.308501536420, 0.811924792863, 0.462925194368, -0.838994419878, -0.292428066909, 0.364289371742, -0.161432548365, -0.919074988743, -0.628365743347, 0.402671580790, 0.730196224486, -0.909502252640, 0.167506022641, 0.904466989467, 0.471165191927, 0.402254397530, -0.176447655027, -0.410758694910, 0.178187500957, -0.171432543600, 0.406038692705, -0.253232224868, 0.526464731097, 0.713166896199, 0.778852804464, -0.902849217574, 0.416598096984, -0.823857239178, -0.880204483543, 0.498265628342, 
0.036913927715, 0.987585125232, -0.451268030347, 0.314816763794, -0.674471239380, -0.620584720920, -0.073290131898, -0.742658758824, 0.061146913029, -0.874733698561, 0.898138384644, -0.486538258027, 0.372078656845, -0.834449266053, -0.760542605377, 0.966264867069, 0.993600282285, -0.871813090926, -0.444291471637, 0.331104478580, -0.816513551756, 0.034098344359, -0.585854657136, 0.012796424745, -0.601654075770, 0.506036574896, -0.032370969280, 0.495416133598, -0.631073918905, 0.796328637032, -0.880175162523, -0.916605093563, -0.867357388543, -0.057884443201, -0.689068256184, 0.799929821150, -0.414993702540, 0.362294395264, 0.977190493461, 0.261156054861, 0.109366158002, -0.791479204711, -0.253498919668, 0.331775885788, -0.141138937052, 0.781566847720, 0.439017928087, 0.380971723063, 0.239262103606, -0.671428557707, -0.071791714248, -0.052269037458, -0.839576375645, 0.531009884922, -0.073744898854, 0.628974300340, 0.627439205592, 0.993356134209, -0.238187797186, 0.001138354125, 0.218256199812, 0.054789893784, 0.206405848861, 0.393850534062, 0.020853311247, -0.776708246125, 0.412588898881, 0.318234836855, -0.406833080550, -0.445826566386, -0.969472321249, -0.629313014630, 0.500308264389, 0.282824196589, 
-0.622445320200, 0.428436485887, 0.999020190535, -0.974126738288, -0.984564068528, -0.088842598246, 0.432217563900, 0.847038013345, -0.082131743323, 0.022424670142, -0.132117844683, 0.546183329769, 0.770124935142, -0.376635359767, 0.638108297472, -0.589105222738, 0.964045978676, -0.287640168973, -0.820133556633, 0.818838910589, -0.715936930959, 0.223300716674, -0.108191333254, -0.045750462866, -0.014991022476, -0.018405878376, 0.516766703795, -0.038364983573, -0.430164825387, 0.644211999367, -0.436753606273, -0.134928764717, 0.303137137463, 0.417886733093, 0.407754587947, 0.540449067149, -0.475335436574, 0.377358152509, -0.409656387020, 0.086455720184, 0.806262067523, -0.806213899151, -0.123209657078, 0.862480379140, 0.074492464469, -0.919193421231, -0.336836006248, -0.451463527840, 0.688579477822, 0.785878920355, -0.729795551423, 0.514691445151, 0.567485249383, 0.424780699073, -0.317246340326, -0.179119566438, -0.535267354861, -0.036900095118, 0.330359647916, 0.152436737671, -0.616205659153, 0.199252131207, -0.562062606181, 0.026090108440, 0.238498934393, 0.003198009172, -0.483813147885, -0.459706742560, -0.164406427709, 0.667036627294, -0.430649904377, 0.015103445029, 0.193328323207, -0.831541044854, 
0.617161572326, -0.166002202545, -0.703820872912, -0.847962800543, -0.249861051833, -0.232126790451, 0.355220413419, -0.557332027427, 0.329258183984, 0.133207279110, -0.419205253539, 0.911368233729, 0.140925454631, -0.931888701602, 0.609756811954, -0.500479051649, -0.176522066185, 0.257573212601, 0.578927102631, 0.218021224320, 0.077758154769, -0.591390684002, -0.049687140803, -0.071477356569, 0.566264928575, -0.208505464116, -0.862639196225, -0.276744851305, 0.024012052205, 0.161684055828, -0.012332485205, 0.716110810102, 0.138428951607, -0.627829784316, -0.803128102747, 0.054258902472, 0.760756382089, 0.990078477044, -0.290328595398, 0.968593446373, -0.991338758061, 0.229401620979, -0.829834805914, -0.333020982778, -0.166328884020, 0.512247166802, -0.512408781478, 0.891625765474, 0.600717318397, -0.027103443791, 0.576885369872, 0.947108415702, -0.749082829841, -0.784667411890, 0.335789145012, 0.014612351286, 0.614517699432, 0.634293693573, -0.073796763289, 0.561964826115, 0.423926600379, 0.620621401328, 0.416757758028, -0.332593723646, -0.401321406986, 0.953361702768, -0.149726814866, 0.062038115012, 0.365608736146, 0.697189334227, 0.801840310596, -0.291210624796, 0.768053313230, 0.917810646605, 
-0.852584855398, 0.742429466655, -0.861887063708, -0.470348424728, 0.482073218999, -0.496824653356, -0.912358991749, 0.556369108660, 0.112371995207, 0.697900118013, 0.537081410671, -0.785970849729, 0.608894306785, -0.858726976319, -0.469296957809, 0.968538260047, 0.012651343836, 0.256128012435, 0.057668988629, 0.048113851847, 0.016557713049, 0.917647223837, 0.770670082201, -0.383784094257, 0.648948428814, -0.484739323604, 0.053179924420, 0.936568699712, 0.000308028411, -0.925609711494, -0.116564025285, -0.117676529223, -0.004255910414, 0.211693062638, 0.236840314447, 0.043780223501, 0.277219145800, -0.246572875653, 0.477678553635, 0.821635993026, -0.781454110326, -0.170473550617, -0.674517253122, -0.281241902418, 0.268701638340, -0.761311894072, -0.010176501252, -0.759466945907, 0.518681592774, -0.063889077930, 0.001345657733, -0.343560698768, -0.367073788661, 0.419815459668, 0.285167795860, -0.040769885344, 0.279200005599, 0.810649329614, -0.884653871777, 0.311732736701, -0.029233888762, -0.468259328487, -0.563232929976, 0.350308132678, -0.527099014757, 0.271251355539, -0.867380395414, 0.566304305153, -0.128222095905, -0.865685196480, 0.836834210745, -0.847421290217, -0.743550121557, 0.776651710058, 
0.765332709210, -0.372832401704, -0.836051509954, -0.690780347707, -0.515298918220, -0.519513529669, -0.137287488427, 0.799496449884, -0.830249936012, -0.774462100690, 0.418320266529, -0.816028310596, -0.419711889400, 0.136820592263, 0.761531424096, 0.411304066490, 0.662102120223, -0.007229829605, -0.297698888515, 0.614371171402, -0.673387854447, -0.866936241543, 0.007480091963, -0.868889426150, -0.363682963143, 0.144752347586, 0.593740658997, 0.184548483943, -0.987786481927, -0.509381384523, 0.889281904762, 0.036964029258, 0.024265272175, 0.391708126266, -0.560652480442, -0.572249514043, 0.325367000947, -0.724842061423, -0.189117088940, 0.111731320333, 0.289718324738, -0.897573767916, -0.140775769930, -0.696581921648, 0.926514486323, -0.113064963326, -0.577071438540, 0.847715694856, -0.378939160740, -0.282262637002, 0.505850408847, 0.923523672394, 0.269881293579, 0.599053936787, -0.992364258349, -0.903738506830, -0.622177795546, 0.416000859808, 0.072179332052, 0.529102455927, 0.670345174923, -0.652818379060, 0.108374284290, 0.169411303242, -0.212619398378, 0.025672180752, -0.450236513158, 0.717282642497, -0.373512980336, -0.230866409904, -0.584273806777, -0.807058925952, -0.112271482080, 0.189370408440, 
-0.085341570745, -0.086907875603, -0.610604498122, 0.490116422622, 0.896378820767, 0.705292593464, 0.719309428698, -0.221493502303, -0.011485799125, 0.113579052707, -0.213863874934, 0.671335331891, -0.817073054290, 0.513066341748, -0.207821210058, -0.441064338509, 0.245378655661, 0.836094925078, 0.283058175301, -0.212521060517, 0.201065779901, -0.209347135532, 0.740877175513, -0.896318783836, 0.263547008272, -0.634164787438, -0.681956773277, -0.329590062867, -0.952981816460, -0.572578435315, 0.306903970764, -0.047863862421, 0.145033796503, -0.772413635364, 0.853978771631, 0.801242787256, -0.865780595413, 0.636748021181, 0.516240266734, -0.964985430157, 0.080496988435, 0.909440742822, 0.213740800808, 0.845799811091, 0.568691745049, -0.197770780967, 0.131727726372, 0.326679964905, -0.631886738789, 0.844334922637, -0.853674586625, -0.555060810876, -0.225481587571, -0.416222271796, -0.660553458661, 0.766797229532, 0.667510678733, 0.628630097660, 0.144484463333, -0.746533939328, 0.392274081242, 0.264971538744, -0.293700295723, 0.424827491379, -0.499944382762, 0.505986047550, 0.014902872098, -0.771579796135, -0.599800945768, -0.646453907283, -0.637033527328, 0.906653718986, -0.981425067291, -0.906389891964, 
0.760194465834, 0.181669993881, 0.502165140915, -0.553242886296, -0.536335632046, 0.029677577208, 0.023261997188, -0.644903556249, -0.636070121014, 0.517651611217, 0.751562400353, 0.300237749710, -0.141626162996, 0.722980142972, 0.156329391533, 0.824606779527, -0.337093869675, 0.354699703127, 0.454461364090, -0.782175811872, 0.057144235736, 0.199299452876, 0.525908541288, 0.086625115890, 0.385872687300, -0.246820118645, 0.268088173234, -0.362790454653, -0.561971180006, -0.620671859725, -0.642217927416, -0.483843795747, -0.784739366668, -0.730660567877, -0.368283786359, -0.026110258114, 0.655273156442, 0.536284834510, -0.945588844119, 0.224202556608, -0.160957965491, 0.751423393803, 0.356941140316, 0.731847443232, 0.354150369957, -0.776516301622, 0.432277754215, -0.681708878677, 0.239488983341, 0.364953922311, -0.476214168378, -0.147329777753, -0.862822646420, 0.427377860187, 0.254276874439, -0.643638711364, 0.274863282338, -0.095509348663, -0.379575634865, 0.317467121567, 0.716571255982, 0.992414477138, -0.045703141198, 0.073624230853, 0.519926913430, 0.312445153500, -0.074268466067, 0.000301838580, 0.390650507290, 0.287786197844, -0.321468392823, 0.379053473689, 0.304693452094, -0.531985071188, 
-1.544678161543, -0.231131683748, 0.736056917925, -0.897251684337, -0.477744253080, 0.560392377382, -0.942964410892, 0.247516618234, -0.763580612832, -0.188245672191, 0.537930754407, 0.826494767886, 0.036656730521, 0.771866635924, 0.825781335785, 0.790299815647, 0.660981384614, 0.299947417513, 1.005924591479, 0.857703696697, -0.010975157028, -0.252132418907, 0.207049074668, -0.960894282978, 0.666028445061, 0.184404340637, -0.817457288441, 0.276936461368, -0.598475476567, -0.192865473505, -0.700815545224, -0.442586930164, 0.937967376619, 0.311727562171, 0.701571002217, -0.256466047253, -0.245822593189, 0.049329417696, 0.086176765017, 0.522732536688, 0.520821376974, 0.784928557980, -0.325823112909, -0.327757285389, -0.479800499598, -0.150036498327, -0.019520339681, -0.937883326833, -0.093718341960, 0.546292826004, -0.096751180782, 0.643891019308, 0.952108952889, 0.571726250780, 0.677015108473, 0.760757898475, 0.431970489507, -0.739757163315, -0.662362223284, 0.069654745007, 0.030266855657, -0.443727621398, 0.177263009420, -0.549870997355, 0.941629597756, -0.613124361116, -0.232417461786, -0.891636278594, -0.235530349752, 0.354068241198, 0.156205237881, -0.724131686463, -0.374896876146, 0.533291940967, 
-1.017820047756, -0.169450654299, 0.696910080345, -0.823746293365, 0.504419239030, 0.957049855118, -0.815995879597, 0.084891891313, 0.845310989877, 0.591030768923, 0.638009357056, -0.360719467595, -0.856320145026, 0.338642695556, -0.861975383689, 0.024363084973, 0.983967180476, -0.210161058301, -0.293986089421, -0.259417932595, -0.896278188340, -0.835729465540, -0.374350639282, 0.034414276640, -0.730908987539, -0.299275105971, 0.527837537848, -0.905738926278, 0.888036903143, 0.155694833297, 0.107109366211, 0.892126383413, -0.178421808446, 0.657480166102, -0.157119888832, 0.382569432742, -0.039461720391, 0.256039692454, -0.405337528449, 0.000904953235, -0.942829517341, -0.518072902454, -0.828751328919, -0.898841743136, -0.391074782475, 0.197647181777, -0.006724674134, -0.686799139297, 0.065644026244, 0.120171288267, 0.850071877355, -0.468713870582, -0.942890554360, 0.267107309345, 0.785067452171, -0.615182799606, 0.329833448367, 0.603279293272, -0.695222247913, 0.966083333923, 0.696014441520, 0.368225733288, 0.841201593147, -0.273822669068, 0.713329038443, 0.168959782870, -0.442101730319, 0.191848664977, 0.719493777357, 0.315753813449, -0.374106491206, -0.553250141830, -0.410403601022, 0.676157493901, 
0.959859475492, 0.186797810763, 0.931286079480, 0.322455578254, -0.477373518093, 0.054550339254, 0.302232576422, 0.306267005412, 0.224796347931, -0.837858152024, -0.190147069725, -0.127204140366, -0.491398269632, 0.599990903429, -0.085468582222, -0.550984162949, -0.325099918628, -0.284388226987, 0.819982082551, 0.682560227251, 0.005354501978, 0.994459394095, -0.916670706311, 0.862009062969, 0.748188785444, 0.348626696564, -0.003923124902, 0.029830346578, -0.969392927865, -0.368741387179, -0.707008546210, 0.098876977833, 0.760199315358, -0.816264810135, 0.759527908149, 0.284781974740, -0.424440659842, -0.768167639200, -0.706689598296, 0.168384379599, 0.911096589027, -0.058354382988, -0.012576618774, 0.698490889197, 0.237905544185, 0.947779837417, 0.793891749819, 0.448910518702, -0.457461687095, 0.167285713258, -0.666527239825, -0.557711997854, -0.894439468592, 0.711688648111, -0.589681632965, -0.147712578733, 0.645754904823, -0.293055483678, -0.201622029288, -0.103047243681, 0.888024595863, -0.160483078514, 0.858590989908, 0.237417248034, -0.380155309723, -0.565694084517, -0.449615437290, -0.808743493984, -0.699867214993, -0.117865476466, 0.401179569882, 0.075424999735, 0.279058257779, 0.227040954812, 
0.990417760962, 0.990689881732, 0.694791523139, -0.274377645883, -0.458526332061, 0.362383917926, -0.890616498507, 0.193616560524, -0.905317310789, 0.539612038861, 0.945836782088, 0.945447177873, -0.029337396892, 0.784736706972, 0.781708238126, 0.150134820928, 0.942540783065, -0.054987217668, -0.420035355204, -0.594920687317, 0.761504984853, 0.132518504553, 0.900608351045, -0.653455188492, 0.577516027630, -0.280335891638, -0.838275281879, -0.891133340291, 0.813240994823, 0.963171295470, 0.020149352662, -0.557772524877, -0.941000584775, 0.569909782363, -0.077143655547, 0.304276675884, 0.549049394697, 0.516380316742, 0.898082451166, 0.734953881609, -0.215415885575, -0.565463189265, -0.351772585914, -0.167844665710, 0.860079770461, -0.122578579749, -0.995506642699, 0.634670059471, -0.938300683125, -0.225341537563, 0.807747663117, -0.270753079663, -0.700538112205, -0.607700806380, 0.278922930917, 0.392146601073, -0.071894471917, 0.111338658976, 0.938512339814, 0.079355261046, -0.469329884415, 0.330644668071, 0.139537761732, 0.075082669719, -0.779923891761, 0.815865586638, 0.277908683696, 0.114855423974, 0.020332463719, 0.799751813635, -0.260804045574, -0.206481098707, -0.104633696177, -0.851154092878, 
0.668201130880, -0.430380397761, -0.015589422998, -0.089438680585, -0.524815736769, -0.821766369316, 0.603714312668, 0.548575743176, -0.416902287262, 0.275745803805, 0.582939584846, 0.188035607571, -0.255453836790, -0.894577997581, 0.500905831374, 0.169724501885, -0.279086233813, 0.022558713847, -0.633028836027, 0.238995983051, 0.954105697093, -0.325657479274, -0.669906266163, 0.673640595008, -0.571020760116, 0.652949045584, -0.028895493129, -0.335118217211, 0.778568765931, 0.434619628792, 0.732785466373, 0.267383732208, 0.688594664652, 0.416064375031, -0.937431520230, 0.224835394654, 0.665961001310, 0.860963206172, 0.823125789766, 0.991155167597, 0.229723891515, 0.569333864964, 0.533260986763, -0.749254390801, -0.403479678438, -0.918870731124, 0.006689088920, -0.740648171128, -0.088456552937, 0.229291097038, 0.945749160841, -0.688949816076, -0.907395771561, 0.851752151655, 0.053143795687, 0.648559915564, 0.355759800306, -0.525370605285, 0.229657319152, 0.124917794630, -0.527196180509, 0.785033154596, 0.413439783216, 0.935916665445, -0.168426118453, 0.696290864384, -0.373266354056, 0.726260040690, -0.637800794194, -0.173669766739, -0.207062551450, -0.609723765476, 0.385429326862, 0.198772587562, 
0.809101739549, -0.123968960181, 0.449788728612, 0.977918471049, 0.969190177339, 0.308915288871, -0.776417238313, 0.053536401576, 0.705327144410, 0.732732765919, -0.503487433380, -0.719459988987, 0.865281588529, 0.808845928552, -0.647778946183, 0.199330257298, 0.436970954632, -0.243408695626, -0.408560997000, 0.034553888682, -0.132321321133, 0.864413198353, -0.552561196617, 0.794037515502, -0.979599763760, -0.119015251001, 0.662746887736, -0.721023368925, 0.395869458323, -0.404302277583, 0.999366047256, 0.814766519391, -0.813555489656, -0.075740004564, -0.768937428802, 0.518638485990, 0.725812000223, -0.190245452118, 0.689213371406, 0.912571406306, 0.897715828146, 0.253531130127, -0.578708623283, -0.300356234308, 0.058541437130, 0.787666082976, 0.024910039687, 0.510703673526, 0.047019312458, 0.699796358240, -0.780741156014, 0.436543695500, 0.838754067839, -0.674780891114, 0.220998399026, -0.841778174966, 0.401874668735, 0.720121685551, -0.021478094716, -0.511605356901, 0.328606663438, -0.979148922073, 0.334794984907, 0.131785859872, 0.797394551544, -0.186728887574, -0.821307191063, 0.485593876183, -0.574351412383, -0.185569184213, 0.646022744543, 0.284988777442, -0.415007338454, 0.184216659152, 
0.373364756783, -0.091967089298, 0.733615484977, -0.221327640843, -0.707670607853, 0.152604101573, 0.327887599757, -0.343809973564, 0.750564811929, -0.694059352626, -0.117667818346, -0.846346714912, 0.149575359012, 0.299806426969, 0.739536075815, 0.835894564424, -0.967303122158, -0.215143937613, 0.099830188566, 0.640900253189, -0.033680880268, -0.074819831042, 0.890297512627, 0.527737620052, -0.155468697394, 0.726230005684, 0.029553471366, -0.060231983513, 0.747573998001, -0.287350731033, 0.643402770966, -0.601588268914, 0.413476320574, 0.765537845889, 0.804723612056, 0.536771098857, -0.615279525476, 0.931680611476, 0.354312484893, -0.110831672224, 0.891499288689, -0.980750230644, 0.364993963210, 0.744846296464, 0.540006060861, 0.789689541078, 0.814733683164, 0.381859144757, -0.139434925726, 0.560758647305, -0.971777788858, 0.992473482353, 0.780595025254, 0.032891543092, 0.449530234458, -0.388324924696, -0.909012769059, 0.147782177076, 0.311117239791, -0.637520108761, -0.041573620030, 0.798925095256, -0.240474300478, -0.668771062464, -0.448732609142, 0.198362901471, 0.999248591456, -0.618129301050, -0.154656251831, 0.718093117847, -0.980365044214, -0.774181994194, 0.662976689733, -0.983233784105, 
0.508291939959, 0.058402350165, 0.015065994811, -0.736828672020, -0.778455918945, 0.075919902706, 0.808567682724, -0.728425933044, -0.752148963777, 0.175613724294, 0.976826302437, 0.355245671069, 0.271645324744, -0.827224497088, -0.904944991853, 0.721650895838, 0.856766486159, 0.823745458906, 0.556077833060, -0.789768137090, 0.434329277992, -0.018382291575, 0.351868265388, -0.807896131719, 0.856237522627, 0.194392756492, -0.469445861630, -0.556850872769, -0.973041935364, 0.054984205205, -0.603116933135, -0.199275646110, -0.818882795130, 0.618416927151, 0.509221700246, 0.419741430462, 0.367534481518, -0.801792429824, 0.540798208683, 0.436221425579, -0.294371321637, -0.146051365583, 0.068188570938, 0.857193745291, 0.968647341898, -0.117119818600, 0.345886637531, -0.517420958526, -0.934324095709, 0.627267294899, 0.132643662951, 0.676341058137, -0.018789181069, -0.089042789882, -0.367371596303, -0.202937867247, 0.728954968473, 0.419375208349, 0.609261374308, -0.897376401503, 0.893164919093, -0.671173209267, 0.739453335733, 0.937091203100, 0.313170795372, -0.492802670250, -0.731355709953, -0.981770229074, 0.472111192723, -0.409304028323, 0.028311027923, -0.365194633260, 0.159133729176, -0.747713631032, 
0.821512618031, -0.435261221681, 0.961842673644, 0.974956443208, -0.354918125718, 0.526343543421, -0.848552066516, 0.638895806369, -0.409363146624, 0.988933920548, -0.473870086145, 0.243671919144, 0.523883683641, -0.874343157000, -0.218552235869, -0.936784027388, 0.562416421622, -0.246385116511, 0.947297484111, 0.561806051433, 0.647868248155, -0.947273205137, 0.480687853245, -0.626767818620, 0.853126553379, -0.117413895465, -0.433402542580, -0.341114569924, 0.557585307614, -0.489190377902, -0.820316205716, -0.841566277823, -0.452385055474, 0.563637162001, 0.485509777743, 0.242643479333, 0.105352844687, -0.988961489081, 0.133500099935, 0.286040799807, -0.856032051314, 0.000805620734, 0.006176878402, 0.663737873082, 0.464940302356, -0.649543816200, -0.009805631053, 0.693401864293, 0.183175043851, -0.485161934651, -0.671761291098, -0.170394027916, -0.608343828407, -0.162590479001, -0.886611597809, 0.425012902450, -0.867375747328, -0.103253307068, -0.505304150905, 0.368929071544, -0.274471334740, -0.230942750716, 0.149562025431, -0.078777462469, -0.478142677472, 0.007336581762, -0.412405808060, 0.045362644569, -0.847416642131, -0.841505240804, -0.148786923207, 0.559852866826, 0.321311007251, -0.371083746230, 
0.221246000750, -0.580184617364, -0.788338185958, -0.291755567449, 0.144476007001, -0.558228624509, -0.424798934796, 0.568514745345, -0.009703502871, -0.228765363890, -0.447385398092, 0.042483148333, 0.452942533101, 0.433547328758, -0.707952431998, 0.008363454738, -0.086778690124, -0.749396567867, -0.557464278630, -0.822518916571, -0.735358053508, -0.546082257738, -0.435666290454, 0.107502141200, 0.127202530638, -0.697881323871, 0.526521276306, 0.251305357851, 0.952545100907, 0.013077872881, -0.037827000925, -0.147891313779, 0.585727184689, -0.674443108594, 0.831401185971, 0.500275358156, -0.152544694903, -0.997084790774, 0.161566372308, -0.839975503992, 0.701011545806, -0.410411532291, 0.027223893595, -0.514892341053, -0.442990732728, 0.735436424495, -0.171437035410, -0.770759524500, 0.291865840087, 0.397122796127, -0.066040671364, -0.432370291430, -0.466077293576, -0.768027426331, -0.249578987353, -0.858728436494, -0.221792576046, -0.502562863225, 0.278588905323, 0.637120354647, 0.899992227589, 0.762368317536, 0.220847885394, 0.712989369204, -0.375422752748, -0.247992024860, -0.296990183395, -0.913234494418, -0.486204942146, 0.632589047560, 0.670385529975, -0.403866003580, -0.961942035542, -0.951612211655, 
0.045093237873, -0.958766409671, 0.291734832715, 0.226799845184, 0.550784341781, 0.631100658088, -0.087393526479, 0.462943670875, -0.265829934777, -0.167987593397, 0.778444021838, 0.293269158823, -0.532736418020, -0.552948071928, 0.024514763743, 0.676032304671, 0.772401356962, -0.275909443538, -0.033148417898, 0.485527367888, 0.562067789653, 0.314745788860, -0.524146999616, 0.636471915756, 0.518495758756, -0.106897938060, 0.369740142936, -0.849840532744, -0.854715093626, 0.246506401672, 0.393056284175, 0.473938734921, -0.941151913096, 0.651853244532, -0.662578958599, -0.632976004408, 0.580151548531, -0.650798813942, -0.130266715685, 0.665159314663, -0.308799996120, -0.073685399116, -0.369470792958, -0.762679669681, -0.585428166644, -0.574921398750, 0.163557092916, -0.554116175922, 0.683670332674, -0.016746261068, -0.760412899345, 0.423147534519, -0.236654239718, 0.823741890535, 0.139822093178, 0.476563326736, 0.282335131796, 0.405202650947, 0.454947821393, 0.936468863905, 0.942580966434, -0.456884204731, -0.031150997541, 0.755677213769, 0.968086039722, -0.681797218935, 0.186812197137, 0.177909193004, 0.351245926193, 0.581424925295, -0.930653545837, 0.783632168449, 0.965897107674, 0.868717772868, 
-1.392388340462, 0.257502137848, -0.388023220383, -0.445500464631, -0.679455358274, 0.985126594980, -0.959739503507, 0.956195047997, 0.632596401118, -0.606088861494, -0.076734423728, 0.484764741216, -0.547168510600, 0.349384633181, 0.318907533119, -0.811905689400, 0.629341811509, -0.056897392568, 0.753835548361, -0.011485850468, 0.789686060296, -0.647247439872, -0.096815602963, -0.886085295031, -0.839494421966, 0.252071997367, -0.382163666563, -0.404075956367, 0.246354145190, -0.831640274126, -0.960916680266, 0.754853550079, 0.762890808976, 0.994526295899, -0.631255740906, 0.322447680218, 0.394876839905, -0.989054746003, -0.956685498354, -0.776523846012, 0.826205825234, -0.267150295253, 0.436362385187, -0.449426461448, 0.978717707990, -0.152705884718, 0.242306074334, -0.184830984292, 0.557235310317, -0.338949457145, 0.506005623812, 0.124199442662, -0.323731611822, 0.271745545074, 0.313922125170, -0.841996939743, -0.662262546534, 0.720653191861, -0.576261386831, -0.300251987130, -0.098443974870, 0.708750973166, -0.319112425986, 0.689524312196, 0.364074927144, 0.820346271414, -0.670075284960, 0.355793520171, 0.106132485053, -0.165584695717, 0.383362625133, 0.451663049340, -0.640086481050, -0.624236483727, 
-0.517441717480, 0.406019896721, 0.203352869929, -0.839639668632, -0.001784509478, 0.985725378856, 0.679473782917, -0.838793191657, -0.480558886137, 0.573794579239, -0.751205069461, 0.070056061828, 0.953086656297, -0.378321879393, 0.673704137973, 0.297052735311, 0.142559999053, 0.280259513809, 0.385259268987, 0.873966597155, 0.991523895656, 0.903203329233, 0.225814492903, 0.533380031403, -0.558686270396, 0.269089739340, -0.965872265115, 0.284715216192, 0.975051941830, -0.643963027163, 0.556757209661, -0.175007569264, 0.668088732230, -0.545815500688, 0.373585115786, -0.941762642629, -0.149302942995, 0.440359614520, 0.322016876062, -0.913685613911, 0.415586626116, 0.027024963467, -0.002700064762, -0.084253563373, 0.926275322397, -0.212118076787, -0.085230155676, -0.740828776239, -0.526450683099, 0.796632694142, -0.128741508898, -0.294709204719, -0.605074404800, 0.669744773032, -0.942792230661, 0.582583909968, 0.971076494307, 0.810121875331, -0.465002487595, -0.183438719170, -0.942792230661, -0.268036027437, -0.407566652761, 0.131756446698, -0.224150410811, -0.812539232217, 0.546564027496, 0.846202794822, 0.355212973082, 0.974563645678, -0.417027390699, -0.375400143774, -0.898723502978, -0.777145802516, 
0.112089167384, -0.499469343660, -0.375462446850, -0.043841547650, 0.608461073890, -0.560465651293, 0.394180426049, 0.751402997042, 0.319267678095, -0.212608905053, -0.399022736165, 0.306205756039, 0.353211035866, 0.921947203227, 0.491690481401, 0.739385479542, -0.226654194645, 0.397693472215, -0.826573503457, 0.417896725488, 0.413135838010, 0.909916135260, -0.028589068146, 0.134013550342, -0.404204107543, 0.388110660240, 0.398609027499, 0.442433607107, -0.626928189699, 0.530326914398, 0.803711722284, 0.970288522237, -0.154752586319, -0.908803918452, 0.755614551350, -0.488136783835, -0.873694082088, 0.236983001314, -0.770792443369, -0.278657734792, -0.483186010067, 0.278922208568, 0.654849208293, -0.784532547866, 0.444325754694, -0.901289589888, -0.107509933651, 0.899295693963, -0.262103152189, 0.577264381972, 0.195423566641, -0.673689321449, -0.203575426248, 0.339470931368, -0.775980589980, 0.907237281660, 0.213300637961, 0.129740959016, -0.827014313057, -0.221954344186, -0.578586870689, -0.873707632555, 0.074014160713, 0.140910733484, 0.920353465501, -0.488191045621, 0.337449934509, 0.890940397599, 0.646907620596, 0.609010407060, -0.405858882288, -0.660383251318, -0.945724539685, 0.895267250712, 
0.025709855677, -0.151656237429, 0.459682608021, 0.208985870970, 0.370917082250, 0.188495132818, -0.776693011713, -0.538821985014, -0.705043487836, -0.573752860070, -0.673042389690, 0.159179663505, 0.809145178110, 0.169739067784, 0.897379070926, -0.934725790152, 0.180621357373, 0.964092532641, 0.265061191171, 0.291830805903, 0.764135258554, -0.335263526809, -0.904799950650, 0.151811884428, 0.702226021121, -0.404296395244, -0.837720266822, -0.922439649128, 0.422676474321, -0.695992308816, 0.338402051364, -0.084235968075, 0.999494003633, -0.274958952085, 0.345482345562, 0.915934324688, 0.439627065374, -0.429321573014, -0.158151798026, 0.720188604909, -0.038336129823, 0.752093265605, -0.596458631120, -0.327084566270, -0.681648609362, 0.651015962220, -0.038684651722, 0.756871853299, -0.761764578658, -0.949784233618, -0.742825402567, 0.470974456528, 0.042598957307, 0.536510514666, -0.113716848229, 0.962732018008, 0.495877560260, 0.191363872708, -0.521792656727, -0.272639545365, -0.037786796653, -0.625128329812, 0.588470718010, 0.183612171302, -0.075856196263, -0.576011229772, 0.859841304271, -0.556235235631, -0.076283455396, 0.071469467271, -0.986223333932, 0.586883755517, -0.003667103059, 0.399744255411, 
-0.739937838251, -0.255651412894, 0.653157675052, -0.858148897462, -0.470197605004, -0.673176746775, 0.474626535603, 0.147893232167, 0.561205941247, -0.330728016698, 0.390698493558, -0.186802726009, 0.621541569728, 0.458541675370, 0.675069964856, 0.304728387611, -0.788170490481, 0.205084918925, -0.229375511482, -0.625201649879, 0.835963546813, -0.897304680367, 0.960234917399, 0.589251916209, -0.427105469623, -0.419140673897, -0.040711156394, 0.779626378320, -0.026214329147, -0.143375422272, -0.487196950028, 0.526964173615, 0.853908430385, 0.805872296470, 0.029542452419, 0.497513276724, -0.458264332552, -0.537979749796, 0.335124823049, -0.568132037159, -0.844964901369, -0.543075805632, -0.398784292830, 0.615436797340, 0.444288996198, -0.283363289992, 0.510208976666, 0.627216941997, 0.793116630002, -0.279549011554, 0.721611227053, -0.810693150474, -0.074860833252, 0.640554065885, 0.705741602126, -0.074250463062, 0.869655981275, 0.676962112443, 0.996857128771, 0.845729469845, -0.229528639276, -0.112307579625, 0.937407072311, 0.356761911021, -0.912319787029, 0.843990450052, -0.024780494448, -0.367167117013, -0.251410945817, 0.410261393379, -0.429272819043, -0.861292839185, 0.827876677048, 0.965056841897, 
0.822344960945, 0.123914289303, 0.305973231587, 0.376252014490, -0.416130565544, 0.910117645174, -0.533612341777, -0.954380172753, 0.997975089535, 0.766095454537, 0.513987392175, -0.672180860048, 0.072373871218, -0.797184674862, -0.055304883590, -0.355215620630, 0.798603011548, -0.516561635810, -0.736488703934, 0.600537885049, -0.991063421143, 0.171691789892, -0.411394852156, -0.585472430207, 0.330535287295, -0.471333204767, -0.288527333006, -0.015936006366, -0.751101725553, 0.568005153948, 0.182373268209, 0.886704603986, 0.348577070815, -0.415423295407, 0.973046811713, 0.638197725742, -0.209250934226, -0.031683557256, -0.714296403125, 0.514536725346, 0.095725875387, 0.115196684433, -0.930184339158, 0.255861839027, 0.282473979290, -0.750247207288, 0.806293675936, 0.959435556487, 0.438473910892, -0.031805631294, -0.875251022101, 0.477548291861, 0.778363895346, -0.682374042213, 0.817488624494, -0.368521690762, 0.248354285696, -0.775114448091, 0.806354712955, 0.555309454006, 0.749371311344, 0.081112853768, 0.631849875771, -0.521383560308, 0.033748127061, 0.303312776843, -0.975743129386, -0.733400990057, -0.661036259670, -0.320668667904, -0.881563009143, 0.024409463161, 0.824629955712, -0.690334028767, 
-0.718532631090, -0.911782860183, 0.873734328901, -0.035331110257, 0.279864055611, 0.660593058721, 0.315813586092, -0.359091379891, -0.156306481820, 0.568874340348, -0.387839815818, 0.208572817475, 0.055450858037, 0.178603641169, 0.196101344496, -0.169429440895, 0.223629040043, -0.937111949367, -0.229408909412, -0.895240554366, 0.406251800748, 0.561896199075, 0.882950918763, -0.347067087158, 0.855443144328, -0.408836550337, 0.750195402542, 0.985981406754, 0.649382168346, -0.962991645402, -0.691498985104, 0.488915845521, -0.972635494397, 0.018422582327, -0.310078653673, 0.291746353194, -0.007966604654, 0.343871967379, 0.100964553062, -0.102186567123, -0.291442441780, 0.473473479726, -0.816177693710, 0.304014794003, -0.628997077697, -0.712842020625, -0.052868655809, 0.501164365218, 0.963620663023, 1.000874439378, 0.301532197339, 0.121330996280, 0.542750496237, -0.484685643782, -0.750440824299, -0.937397213349, 0.658884022190, -0.504054299902, 0.852554483325, -0.114516044951, 0.362386105234, 0.569708937501, 0.976764816892, -0.160293809165, 0.427492683343, -0.149958631849, 0.894120693231, 0.260149098489, 0.384339510944, -0.823746284060, 0.828261749782, 0.204646527149, 0.833958113657, 0.364075220652, 
-0.652026590939, 0.145554718129, -0.323508473091, 0.761320710607, 0.592492316186, 0.472536328081, -0.172307830709, 0.430542859042, 0.666286072099, 0.680751845591, 0.887282871860, -0.722916479248, 0.796618353426, 0.021429966871, 0.457704332476, -0.566661710731, 0.791515789124, -0.556608848468, -0.436451503442, -0.792639000756, 0.576299260299, -0.370812162779, -0.204608360172, -0.089431505410, 0.957676800576, 0.939896782197, 0.724130920201, -0.125321272554, 0.818573434384, 0.085378516869, -0.861977054285, 0.976354128375, 0.800854453024, -0.671358444098, 0.682930932409, -0.025953005700, 0.538431763259, -0.962260876423, -0.544749420928, -0.020703822070, -0.500436545168, -0.601941107686, 0.114938679906, 0.363096953100, 0.513736315874, 0.096139278068, 0.082021480826, 0.420593824953, 0.028833692029, -0.209003025537, 0.377397861399, -0.899209635846, 0.170360293114, 0.182079400753, 0.667079553345, 0.115304902019, 0.669319677182, 0.484316472739, -0.918558370854, 0.736887657162, -0.289797792765, -0.867897645124, 0.363951471366, -0.393640007867, -0.232563314852, 0.512716932416, 0.912308049630, -0.149473686194, -0.502285901601, -0.450752411741, 0.280452829439, 0.831311925481, -0.260377949630, -0.054274182494, 
-1.131459636118, 0.850204141710, 0.694506966700, 0.908011705549, -0.823242300006, 0.035917532208, 0.345608352589, 0.118927877983, -0.263593873235, -0.036841347828, -0.869566643945, -0.113503843632, 0.392490290035, 0.932304439091, -0.871275680476, 0.100491944814, 0.340614330816, -0.388472860565, 0.459569973863, 0.996579173493, 0.057463599898, 0.113800768391, -0.695122843780, -0.580068063056, -0.293440975503, 0.883233429299, 0.502118282963, -0.574513694331, 0.559124105219, 0.737721176118, 0.643235870780, -0.933414119214, -0.070836213939, 0.337867664963, 0.939082301640, 0.125458839010, -0.812685649173, 0.412821124236, -0.211773444145, 0.674364750446, -0.627740728303, -0.944828041758, 0.139189414829, -0.823178509541, 0.106293215059, -0.619134508630, -0.258952306349, 0.042448493236, 0.197782199578, -0.094030281141, -0.690730931861, -0.613272201366, -0.423816047984, 0.916251703107, 0.649642004325, 0.832630987143, -0.799435109169, -0.879393603996, -0.113928349319, 0.140840167786, 0.342747873034, 0.004239319372, -0.227579278608, 0.545759751514, -0.094701688349, 0.051967514747, 0.168550974391, -0.492665805362, -0.626456197459, 0.258577823899, 0.780325015346, 0.774892720660, -0.154337609311, -0.785945927981, 
-1.665560891016, 0.582735011205, 0.797627781855, -0.941595536483, 0.234648855741, -0.348037063874, -0.842635955681, 0.597792581806, -0.152020659320, 0.083887418930, 0.086241325969, 0.993155890258, -0.647858864586, 0.592936156990, 0.367072650167, 0.183682944916, -0.695093553635, -0.761013534103, -0.485073135041, -0.492999983885, -0.991123095552, -0.743801094759, -0.456805031647, 0.731097431197, 0.616496446305, 0.848898877775, 0.828695624501, 0.828512513445, 0.029015138892, 0.797749855893, 0.521008011964, 0.845263193337, -0.409501341959, 0.649368862820, -0.757473387004, 0.117614353711, 0.642707864135, -0.680444669087, 0.527504472673, 0.224856396009, 0.960623159156, 0.921071170875, 0.584207863279, -0.109260245734, -0.731288505874, -0.386707997190, 0.977320765650, -0.757595461042, -0.270039717273, 0.324407773920, -0.244125520918, 0.682267816036, 0.547585651908, -0.877567703602, -0.426870355660, 0.705854642051, -0.181589113192, 0.028866528154, 0.438241814266, -0.041753302773, 0.546242837491, 0.183168112065, -0.415299858759, -0.102790321725, -0.030156269172, 0.039574543171, 0.035275415144, -0.716429973569, -0.695215627673, 0.503394850187, 0.460520326183, 0.887169088657, 0.846361859678, -0.200998885219, 
-0.667399283161, -0.271521988226, 0.588687086183, -0.136478179086, -0.380626254894, -0.954633938019, -0.569306046793, -0.937238387617, 0.573199240269, -0.469862376602, 0.883923146853, -0.875392330519, -0.469846819702, -0.151920544881, 0.637882923458, 0.977996749959, 0.905102992430, 0.033372287757, -0.331720045813, -0.566987830654, 0.025864734426, -0.100298783748, 0.258049554520, -0.566072275370, -0.415844614829, -0.175313280040, 0.895092921322, -0.287316209816, -0.098940412430, 0.246818743032, -0.985701780665, 0.688498169069, 0.519715254767, -0.845560785151, -0.203878604909, 0.377010704457, -0.309014274763, -0.106036263529, -0.009826364761, -0.815774719903, -0.720968672570, 0.608295526166, 0.846461974117, -0.685521721459, -0.237937261484, -0.393627139931, -0.758460959107, -0.314904942383, 0.751015633376, 0.006638073456, -0.964567415208, 0.113269745566, -0.347116931489, -0.062440275097, -0.295113391342, -0.395641361556, 0.102771378306, -0.407620174171, 0.382076777030, 0.537415990263, 0.601276268987, -0.470183118597, 0.295770432232, -0.393337511736, 0.995559854517, -0.576066789578, -0.308068796260, -0.744223776791, -0.603915227120, -0.344370265636, 0.325617534500, 0.479797044372, 0.997894818137, -0.960493491838, 
-1.289077208966, 0.816881065268, -0.555667730753, 0.987391916648, -0.886505602197, 0.214375300345, 0.302749025911, -0.607732307919, 0.612380472207, 0.854331215333, -0.923171621863, 0.654068756152, 0.868779760101, -0.632957825470, -0.370237267177, 0.9919