-0.474409785913, -0.759980802513, -0.233949483901, 0.633117298564, -0.010151844171, -0.922630168736, 0.282323261363, 0.449726165380, 0.121688116765, -0.962573487898, -0.000788071504, 0.504756447708, 0.233116604604, 0.073468871793, 0.267713774865, -0.848007003325, -0.815754348551, 0.758329333202, 0.847332126318, -0.341679822351, 0.515646145848, -0.500620219702, 0.512960517015, 0.682033059512, 0.234179342693, -0.651747878627, -0.122251739219, 0.123056039949, 0.495784005922, -0.765398807916, 0.927401875699, 0.681641728630, 0.209972754937, 0.415606471786, 0.934787354992, 0.402056253579, 0.631139005190, -0.039241393444, -0.748211477339, 0.559470725456, 0.974741493638, 0.087629460190, 0.553341914793, 0.142832034090, 0.200573054018, -0.851974409557, -0.885458624195, -0.696121791405, -0.074082711782, -0.897299805871, -0.335235007110, -0.950157864284, 0.577207389204, -0.726116076478, -0.630837289894, -0.493748145328, -0.113706556566, -0.821980124484, 0.546591914457, 0.048590876828, -0.295255759696, 0.307509911222, 0.640833071719, -0.350225005005, 0.251538964843, -0.403779579393, -0.982324373271, 0.700990463638, -0.121275146916, 0.437920911955, -0.829304566759, 0.663050546618, -0.649819802788, 0.057319170538, 
-0.734066886442, 0.902268977175, 0.759389382421, -0.945987615969, -0.111977789009, 0.702014584606, 0.134115404794, -0.196389297349, -0.380601709416, 0.627546732614, -0.414108343950, -0.084083871348, 0.671185512294, 0.171966423156, 0.827506695571, 0.930107235559, 0.301062407110, 0.397317785997, 0.765609780613, 0.719654283083, -0.030185494742, -0.984316175000, -0.480882842684, -0.005465502067, 0.894278505434, -0.547291119304, 0.488446055293, 0.796683001000, -0.294356401637, 0.322608474800, -0.904357680173, -0.051795288322, -0.455979738951, 0.479473613507, 0.955196139219, -0.955567739074, -0.838259966389, 0.020658342045, 0.103177702797, 0.087738025873, -0.560111582154, 0.553997124777, -0.565543876841, 0.195651475380, 0.397806082149, 0.979364109853, 0.534834189696, 0.565169588115, -0.386341878068, 0.243748646314, 0.834157041766, -0.716241587763, 0.915336276972, -0.754331376459, -0.919863771857, 0.884085323269, -0.812741114726, -0.872801541375, -0.509509204572, 0.370156312564, -0.722470052567, 0.636033567119, -0.650565755370, 0.750722125729, 0.913446818255, -0.637384448147, 0.176363777391, -0.469410571992, 0.327552473335, -0.464283462400, -0.335370589502, -0.728937287705, -0.277204999312, -0.397689385852, 
0.301620949453, 0.018360142366, -0.523387807971, -0.178066243707, -0.184597204735, 0.185923389271, 0.700545014226, -0.759173812182, -0.525977251733, -0.108911301234, 0.264661143719, 0.343617157276, -0.711921900428, -0.432224390623, 0.411516211317, 0.766359550537, 0.246838334185, -0.436287981926, -0.841808676757, 0.279737287400, 0.573386385578, -0.401374807085, -0.829671569072, 0.413713543999, 0.103985820870, -0.116087780504, -0.345464897725, -0.976343525613, -0.159388915907, 0.712611825807, 0.837920825716, -0.890551365933, 0.741360261734, 0.336257566949, -0.411873174345, 0.202159236312, 0.812538684917, -0.061581722580, -0.257902664496, -0.372687408178, 0.565730869242, -0.481237116841, -0.295867690284, -0.036800692885, -0.103453117581, -0.499853407622, 0.875214444295, -0.000178481514, 0.454861753859, -0.130065257844, -0.522681252710, -0.484141004784, 0.566524350489, -0.330719828106, -0.663371581394, -0.815903091755, 0.764310180860, 0.644250364581, 0.182505316209, -0.081052531625, 0.998178148517, -0.134154738114, -0.968713898244, 0.975925525566, -0.415962654615, -0.860460115590, -0.785663878407, -0.879991961655, 0.949862718474, 0.009622589571, 0.612205929631, 0.172251097025, 0.248521481749, 0.174204281632, 
-0.087048527772, -0.767313386543, -0.107406519798, 0.116953676918, 0.671230846021, 0.983935379064, 0.077732255895, -0.191210346819, -0.894063505003, 0.130748043201, 0.406036883626, 0.175182992998, 0.205567543485, -0.292116424098, 0.459932571361, -0.666578535369, -0.250172107127, -0.858894297135, 0.785724408623, 0.211756052302, 0.294888472115, -0.360893259505, -0.034650393207, -0.508969067483, -0.345829000776, -0.842292227980, 0.970263086819, 0.657143179595, -0.976280369531, 0.214868940269, 0.992663672774, 0.931492694832, -0.616882516990, 0.912155844776, -0.392693546379, 0.959398497445, -0.268812167810, 0.457735238679, -0.543100646029, 0.982592564647, -0.232239108506, -0.497444955853, 0.497153267970, 0.422944137876, 0.427338803241, 0.620570120291, -0.173387537285, 0.578954758317, -0.979222031393, -0.797491056069, 0.205823576512, -0.686586792633, 0.460164834485, 0.116221232691, -0.654371131578, -0.479377998243, -0.959117082254, 0.467806346806, 0.939195244172, 0.209375608563, 0.521262890456, -0.333975934148, -0.410577392932, -0.050581055153, 0.954515535929, -0.745926660006, 0.674904952110, -0.399785725530, -0.203478787628, -0.289491832283, -0.825140825654, 0.046834027094, -0.019341986402, 0.556432098324, 
0.589889563362, -0.244329706805, 0.420705652769, -0.892436773322, -0.194539498625, 0.045266949195, -0.510443109794, 0.171796689483, -0.458036309441, 0.789926580052, -0.822557386264, -0.007216887461, -0.496664742795, 0.427244613439, 0.294908356709, 0.759163922500, 0.227950746918, -0.948537793381, 0.447761051449, 0.992805631406, -0.863024929829, 0.423757503716, -0.744185853930, 0.130718775728, 0.047350207482, -0.294098876178, 0.401478991799, 0.612422929297, 0.163320543491, 0.725585562434, -0.913136322389, -0.220907490812, -0.378940332521, -0.408726397770, 0.437063573848, 0.906926545740, -0.354204340561, 0.466849639097, -0.574372867563, -0.325227755843, 0.392148327542, 0.318598719704, -0.115069299949, -0.605814931966, 0.508476886022, 0.449095866224, -0.843493083765, -0.700544385379, -0.485800153422, -0.374362556100, -0.049820726690, -0.780685991263, -0.960004753302, 0.619816408233, -0.023025475370, 0.939040017351, -0.017418069269, 0.974677636777, 0.906682397665, -0.431188020744, -0.340479010939, -0.203031643902, -0.776413399937, -0.777389992240, 0.012978366170, -0.592622936230, 0.542108283464, 0.333796937423, 0.918584616360, -0.354639599336, -0.063562055596, 0.908025212082, -0.319665387477, -0.353182710523, 
0.078495383922, -0.986325861091, 0.756523793066, 0.900754730516, 0.177405018916, 0.921873077407, 0.783565039125, 0.441938997388, -0.003752853334, -0.065461279494, -0.977293767284, -0.134188962834, -0.379374206299, 0.655080729234, 0.053926667910, -0.817986686154, 0.484298688540, -0.434430520725, -0.792106528452, -0.892940607092, -0.644764088034, 0.501450090866, -0.609850913193, 0.745048833503, 0.605091410712, 0.260598014081, -0.501998500705, 0.441023442103, 0.930662869802, 0.624989017225, -0.365031430177, 0.574633938255, 0.164830931346, 0.152074194385, 0.961730250783, 0.174779965435, 0.734490352556, 0.029511860329, -0.614733413043, 0.079012882699, -0.620226744749, -0.694386722776, -0.878047112802, 0.569628441035, -0.467695696054, -0.172337099679, -0.845148621253, 0.182348555785, 0.118443720274, 0.154088416010, 0.694083384344, -0.429608596228, -0.741873523520, 0.796564539165, 0.720451376532, -0.790520027625, 0.329813993573, 0.127842497861, -0.417096007343, 0.782647637178, -0.851679120615, -0.849665360655, -0.195348517490, 0.988037205951, -0.290993526188, 0.599353930931, 0.141148567992, -0.304787430805, -0.985045468691, 0.575671567577, -0.091280400177, -0.830804921799, 0.689261459847, 0.047029484768, 
-0.087613493030, 0.163705057595, -0.177441300529, 0.550937278698, -0.521361070250, -0.136607534851, 0.609726387150, -0.560936890605, 0.278101803983, -0.848336380776, -0.474142249655, 0.852399115302, 0.281787857193, 0.471283968966, -0.796234598665, -0.071945499707, -0.325517108507, -0.345537250723, 0.119185238705, 0.362431132101, -0.957433365717, 0.806048185844, -0.810883483213, 0.764848198051, -0.376276076202, -0.022224161335, -0.005255870066, 0.092281286219, 0.287745652977, 0.410162080921, 0.334476177421, -0.571716610886, -0.612146949506, -0.799286449612, -0.555931855051, 0.491280279109, 0.541134150720, 0.192076812206, 0.586033564596, 0.091304693916, 0.452484567129, 0.891767992526, -0.456051459972, 0.972618210564, -0.324540516204, 0.256433662255, 0.543589004350, 0.232910577885, 0.583005545721, -0.894015903026, 0.205833973544, -0.294693413936, -0.485959599258, 0.023333286877, -0.882028815238, -0.413203472668, -0.934910705724, 0.577586623907, -0.514182534088, -0.346147620913, -0.220631677874, 0.562327369169, 0.528329749612, -0.694485888072, -0.818391036544, -0.773382921503, 0.155149415740, 0.863263704676, -0.822846738928, -0.809272688647, 0.445258366819, -0.656520862284, 0.018328251323, 0.886617050861, 
-0.313280916916, -0.989089894289, -0.211893891462, 0.359042503644, -0.526299456255, 0.156708665989, -0.548528571664, 0.250400490080, 0.565164516645, 0.184537666460, 0.711657242300, 0.706709363595, -0.168321220272, 0.592387027098, 0.413735552796, 0.124538276831, 0.107268680638, -0.087927705971, 0.939805858802, 0.449747393977, -0.692865600804, 0.074552838479, 0.361732012649, 0.906670517852, 0.525795639421, 0.469706499175, -0.491748623357, 0.959589613283, 0.425084558150, 0.992488566498, 0.094267795601, 0.287324006376, 0.521465891246, 0.415078367213, 0.839224611910, 0.629623488829, 0.931687935281, -0.613700587223, -0.278733307385, -0.740840697700, -0.827944403915, 0.370334352150, -0.586420919922, 0.968806203145, -0.529286390013, -0.150860752681, -0.059728603215, 0.312169953260, -0.717776464877, -0.926332198295, -0.358691802212, 0.954889762824, 0.510292236607, 0.701154994870, 0.521584085113, -0.068888036228, -0.057226085438, -0.352523183128, 0.988154938153, -0.363815031634, 0.577738142549, -0.606681330044, 0.096892387416, -0.677911531161, 0.332861502684, 0.156277526686, 0.358069791511, 0.981253874841, -0.324507191429, 0.169522559798, -0.863769253870, -0.629509175132, 0.819017478466, 0.395424447110, 
-0.064700752561, 0.981548188754, -0.019673837238, -0.002145611425, 0.225278321191, -0.112694254121, -0.744323957758, 0.911323812837, -0.936744445617, -0.976601618993, -0.198512302767, 0.719434026626, -0.426830587918, -0.924292893751, 0.596494869082, 0.310791184742, 0.379752414784, -0.561804639570, 0.758203135035, -0.532751018548, -0.230861922812, -0.730877182067, -0.378632545695, 0.799626068155, -0.818515739907, -0.599525517282, 0.257068006690, -0.677164605389, -0.237870578617, 0.883063673062, -0.890733134702, -0.053905003496, -0.906785870686, -0.982532811206, -0.867783215576, 0.245470973090, 0.167792050712, 0.668396477408, -0.898230086659, 0.760806524101, -0.293048043750, -0.327472922439, 0.642344271690, 0.224901497703, -0.248684732346, 0.171687818551, -0.501500064845, -0.055929826495, -0.246344122877, 0.642944040505, 0.649790788002, 0.698487727751, -0.839207289332, 0.475224913799, -0.152907048236, 0.453129512938, -0.527990131070, -0.075949968712, -0.942614600811, 0.215074537651, -0.012949163779, -0.840072408972, 0.454705874057, 0.290333182019, 0.216844611201, -0.644132976762, 0.504267933446, 0.346619914867, 0.982859199049, -0.470604731881, 0.667053662991, -0.481663033686, -0.619901280238, -0.025716502114, 
0.268802909348, -0.122375644909, -0.418430759276, 0.120839827315, 0.476441499729, -0.418735944370, 0.527188834928, -0.407077873750, -0.262106429590, -0.860940622528, 0.648374257967, 0.364011310820, -0.698878813060, 0.812084066946, 0.691039134215, 0.664740703196, 0.268907111143, 0.788637327519, 0.512034605928, 0.630002115263, 0.088725831197, 0.243149489145, -0.844408114542, 0.387807224061, -0.505033765019, 0.644040629622, 0.181868322117, 0.423574917167, 0.641729747051, -0.351351075447, -0.787948872011, -0.934246082289, -0.061852494558, 0.866581600721, -0.092554115091, 0.856144270480, 0.151122712865, -0.184964161784, -0.652071943674, 0.679197952538, -0.697605559812, -0.617769139023, 0.892042561774, -0.618693218457, -0.962331635157, -0.905863868476, -0.391086174785, -0.228178371202, -0.113411727273, -0.468114892702, 0.314144066336, 0.769776888663, 0.043200739208, 0.180900253964, -0.742284657685, 0.529299558142, -0.709150080544, 0.008401114256, -0.407260984807, 0.335010202668, 0.506532750073, -0.836534339097, -0.378634622919, 0.130475152160, 0.383534632735, 0.999772900224, -0.105249815033, -0.587311666566, -0.033592354783, 0.815380065970, 0.259568447243, 0.369984414527, 0.463379577674, 0.603451012019, 
0.929019869210, -0.929985828718, 0.974197777874, 0.106450916324, 0.317272779784, -0.516753484066, -0.292010469741, -0.492155565429, 0.721215771209, 0.129706020545, -0.835000500882, 0.041385454121, -0.815191632960, 0.271861237684, 0.916945054097, -0.104737169250, -0.637606781591, -0.666782476650, 0.566747513132, -0.350793829536, 0.359249811933, 0.437438233210, 0.381528323850, 0.602543369475, -0.987454537333, -0.141253743474, 0.189078603095, 0.297114126640, 0.580464405505, -0.811989544737, 0.137563359099, 0.536212566765, -0.078446650972, 0.037889907150, -0.176166918314, 0.228203332243, 0.225916799304, 0.094593297757, -0.611893759722, 0.346371000934, -0.627214051479, 0.329602257613, -0.868798572491, -0.653171221424, 0.936354826124, 0.187569114511, -0.794227772222, 0.327632636116, -0.047040749449, 0.552126791821, -0.044615705582, 0.259149100851, 0.490251691494, -0.687396552165, 0.469254956975, 0.592000402087, -0.944684023939, -0.649386926249, -0.108415827278, -0.438687136827, 0.953522665340, -0.271872964031, -0.929119584106, -0.517485928294, -0.369776342430, -0.068053920860, -0.892741520811, -0.621354497659, 0.049670051808, -0.044188446449, 0.349605962938, 0.230278590887, 0.204598442799, 0.040636573003, 
0.362003914841, -0.832329776257, -0.201971112542, 0.895810574990, 0.800592825425, -0.120486692241, 0.148077723830, 0.181341366477, 0.599658959035, -0.295326849858, 0.388317897743, 0.145848723127, 0.997773298320, 0.437666710736, 0.118595310994, 0.093539997885, 0.957182914376, -0.544449825881, -0.667499689748, 0.641011156204, -0.191838967396, 0.297555850561, -0.066346856430, -0.518570129846, -0.833795431053, -0.944974744244, -0.184941784254, -0.511123613533, -0.151035337056, -0.088869516424, -0.525223164911, 1.003174691327, 0.309152884162, 0.110477387474, 0.371654791569, -0.935636080345, 0.146673106053, -0.315194782698, 0.995300915882, -0.532608644205, -0.768913079907, 0.247597433720, -0.268897820652, 0.369762643982, 0.102237389915, 0.156469164424, 0.607807017894, -0.656941051810, 0.079837570301, 0.386425750156, 0.961364333344, 0.633930862006, 0.705497149898, 0.398786129664, -0.933407845982, 0.463851591867, -0.863002027792, 0.301950515926, 0.858180869636, -0.835657443301, 0.939696191616, 0.694052325674, -0.257392725750, 0.004700233630, 0.907742929025, 0.393842131129, 0.578631322835, -0.549423959755, -0.493239766981, -0.549546033793, -0.086183887590, 0.728233056287, -0.589098022074, -0.274666202113, 
-0.106896022213, -0.517978910824, -0.238621287965, 0.332016739845, -0.763475676305, -0.568099116268, 0.729925879278, 0.324628322924, 0.412341456786, 0.473317438719, -0.075652447363, -0.247041458952, -0.440770019478, -0.290072557313, 0.983278794435, -0.273531525177, -0.172640270478, -0.479839586863, 0.482475929190, 0.448045175245, -0.116058953909, 0.909362964484, -0.878106135525, -0.246372989372, -0.362706609866, 0.845518242661, 0.962953467124, -0.573348299898, 0.596551179983, -0.666124568705, -0.502728468970, -0.473427762245, 0.041172406911, -0.885308503761, -0.232700697126, 0.153663632840, -0.939686612391, -0.234287659619, -0.687179402615, 0.822507286516, -0.400000228446, -0.977471464751, -0.534464781197, 0.942445028756, 0.327558099834, -0.839832987014, -0.508649059808, -0.462993369632, 0.692504311404, -0.824942892018, -0.789660557435, -0.376076654645, -0.899893413663, 0.648676794168, 0.688289819468, -0.475136798776, 0.121558160871, 0.139869266557, 0.416611110485, 0.461412282396, -0.913748816965, -0.260899799882, 0.689324511162, 0.638968970527, 0.950746063334, 0.843873180777, -0.293127345889, -0.691513030961, -0.564436895131, 0.787536012284, 0.903625484703, 0.972841464194, -0.290621890484, -0.824759780961, 
-1.053387268854, -0.931481439009, 0.515878381359, -0.211903016938, 0.252466623249, -0.539939972472, 0.777090811182, 0.796831779595, -0.389337631031, -0.775091590808, 0.912496930509, -0.770391740349, 0.169846515274, 0.606847555284, -0.127146613300, 0.268275211158, -0.427326672506, -0.057259226600, -0.276334093265, -0.552574635395, 0.978844170110, -0.429951264321, -0.823395888485, 0.406805228492, 0.998888328013, 0.105526502945, 0.005608902921, 0.039423411420, -0.534910921232, -0.553368116642, -0.733610433607, -0.103684382336, 0.528390970244, -0.240492357494, -0.393939423139, -0.410297344218, -0.355071847713, 0.786882745506, 0.586094968841, -0.902866087161, -0.032637292276, 0.788066464553, -0.891611259987, -0.341142401746, 0.865803611011, -0.596192088260, 0.047785483016, 0.198180697714, -0.063131786065, -0.194653556261, -0.890817778741, -0.993261912229, -0.842781644826, 0.395842580767, 0.951706712363, -0.465450793664, 0.835163027497, -0.645595052278, 0.736710315928, 0.069331550706, -0.262991001801, 0.452033659535, 0.068232884365, 0.189574478042, -0.936863706717, -0.709476795435, -0.591943512619, -0.311454394849, 0.878560347972, 0.395049099521, 0.071711994446, 0.876240941252, 0.422943017182, 0.445502698508, 
-0.617042926139, 0.099334797135, 0.978941490659, -0.051913460223, -0.852169815703, -0.990478962846, 0.861137092872, 0.576219239614, 0.236364380287, 0.065033468089, 0.844965234060, 0.773734295140, -0.146887799515, 0.065521764240, 0.270484811683, 0.485639565687, -0.072665308865, 0.538437324883, -0.681694159573, -0.210547934677, -0.729850891921, -0.833613824139, -0.015168437012, 0.441083279654, 0.047637917687, 0.234045711369, -0.001496144767, 0.707021571228, 0.457928759083, 0.992430671848, 0.916439583252, 0.901973071958, -0.493393480501, -0.355877076802, -0.529100136588, -0.216529562535, 0.950252616147, -0.189795348234, -0.586353598167, -0.676687648414, 0.354532048978, -0.711784672113, 0.481305937341, -0.108494038990, 0.707998163531, -0.129064252179, 0.137179962292, -0.565173014788, 0.182590028788, 0.143649886301, 0.552047842307, 0.800347173206, -0.678946755917, -0.026644134377, 0.339761090391, 0.578232723437, -0.080661158347, 0.449018092118, -0.174169871382, -0.285013097799, 0.245153711016, 0.353434120439, -0.803644647834, -0.629017736612, 0.907711289542, 0.611375824728, 0.135654036818, 0.073029317571, 0.542038509001, -0.205909859039, 0.614855672611, -0.309794127493, -0.945190232586, 0.433087430171, 
-1.019591504907, 0.559932275091, -0.254842517946, 0.903169360300, -0.900352475693, 0.757090219259, 0.391304546415, 0.655219434629, 0.661462765250, 0.405107285652, -0.037855915571, -0.191529574604, 0.978140374262, -0.396369810207, -0.212788011888, 0.621361443799, 0.011706143818, 0.971086007705, -0.713012309841, -0.059340946242, 0.824719236258, -0.311118649419, -0.906839954391, 0.252069924451, -0.421333950958, -0.522306734993, 0.378172405606, 0.180839723334, -0.773517550311, -0.123612927199, 0.222466970259, 0.333388788383, -0.662264619450, -0.940349277795, 0.450135050950, -0.824867237938, -0.374134780620, -0.458950309321, -0.234194450851, 0.907973730109, -0.344427307079, -0.928185356336, 0.300978131320, -0.041640210746, 0.566105386959, 0.016606660022, 0.699044014236, 0.084950566560, -0.967170456757, -0.404871510530, 0.728176226965, 0.799694058488, -0.813435760706, 0.231212818658, -0.547619543170, 0.960910380229, -0.798010949599, 0.281184582491, 0.178337205557, 0.304744871806, -0.187318020296, 0.650275436093, 0.084645381465, 0.846448415005, -0.501798296625, -0.658523806606, -0.370080409727, 0.772305991667, -0.021314883435, -0.554821911406, -0.125688185843, 0.792857912365, 0.351028486860, 0.836194195821, 
0.642275619832, -0.230280976069, -0.391633478369, 0.850541448060, 0.014456362456, -0.740887300812, 0.131007692845, 0.259570476830, -0.961220385492, 0.030509098440, -0.552588097345, -0.086743014967, -0.341867200450, 0.133600623450, -0.756451740645, 0.290526799175, 0.980173522577, -0.478183971243, 0.762231435373, -0.667459767013, -0.852340897418, 0.922920798800, -0.557532095880, 0.827580975197, -0.595974864083, -0.196376054741, 0.276477731080, 0.666199097088, 0.557380646034, -0.738445820054, 0.371756517664, -0.692779576141, 0.866827778383, 0.629454811679, 0.398795917060, -0.273282698621, -0.584428313765, -0.382722073602, -0.586025829994, -0.787397509254, 0.006399475954, 0.803603980486, 0.633860030780, 0.252490182632, -0.271573662090, 0.277892136252, 0.744875814517, 0.889228364339, -0.849328976016, -0.728069526832, 0.288451540531, -0.179957096643, 0.253538365690, 0.569038716653, -0.327411980695, 0.565864791668, -0.791120767410, 0.491328037791, 0.422356206375, 0.008097958748, -0.025828070053, 0.339834156752, 0.182236573818, -0.355743711225, -0.179407763473, 0.014944658607, -0.956592125788, 0.813430940537, 0.882087033121, -0.309039837990, -0.218105233488, 0.253771960030, 0.713696451570, 0.344106748079, 
-0.596477155121, -0.685341794545, -0.017712901561, 0.937107538349, -0.442390126985, -0.976482395259, 0.355357731030, -0.953410402096, 0.407062065769, 0.564110315533, 0.538883674262, 0.844209195504, -0.509207310294, -0.870259629839, -0.206622475218, -0.910360951290, 0.132682313136, 0.804760928817, 0.600201546178, -0.894753826883, -0.967754101549, 0.574895515443, -0.118485019851, -0.557768445249, -0.531870396769, 0.837232622899, 0.724924508027, -0.928141076249, 0.947850053684, 0.749644500703, -0.437525517913, -0.049250687916, 0.809765964371, -0.303915483427, -0.956096030929, 0.716928658545, 0.342075993030, -0.803625557587, -0.444953681781, 0.401428307582, 0.941319092656, 0.571923053959, -0.532419729940, -0.128495090959, 1.002520870221, 0.664577248728, -0.786901414395, -0.088149621432, 0.942741296536, 0.959184586765, -0.790423209050, -0.300741558442, 0.993688854917, 0.385760146155, 0.687710278911, 0.506064110510, -0.601898209951, -0.902810713384, -0.447474552002, 0.422425042101, -0.573131421581, -0.373436648014, 0.270137679816, 0.965959695869, 0.865431725655, 0.610071190804, -0.143998493773, -0.698623532546, 0.568242480378, -0.519846104035, -0.935770703618, 0.956682068988, -0.465889379282, -0.579131401882, 
0.759329322814, 0.850948331860, -0.848444898907, 0.878963957489, 0.840693746606, -0.649403180105, 0.186072267451, 0.938291756875, 0.907834467453, -0.671681508987, 0.941282570803, 0.920102908262, -0.816705282982, 0.848567522050, 0.388348216117, -0.549546434064, 0.290994170889, -0.538437879650, 0.558031494874, -0.624927335505, -0.137851924268, 0.813837275232, -0.038788842509, -0.212011902295, -0.326883388927, -0.584520828959, 0.537583727455, -0.503097445677, 0.486495925627, 0.393414288690, -0.364726523712, -0.744315561540, 0.627735404447, 0.021942991348, -0.322122684484, -0.951597460936, -0.638721335718, -0.146397106921, -0.977660084993, -0.225623157521, -0.892269295479, 0.260292733391, 0.582873378552, -0.403362956709, -0.367473189565, 0.190649494767, -0.201574572054, 0.315714163564, 0.184179753793, 0.975524338435, 0.490829553973, 0.050752464294, 0.682852015596, 0.974670003205, 0.163976317485, -0.447187353281, 0.060457350307, 0.869014740364, -0.650684957503, 0.451033234581, 0.737235999482, 0.458662861950, 0.518540177542, 0.773735953780, -0.656849696417, 0.712516006806, -0.864680745948, 0.009247474442, 0.766045289392, -0.068757835779, 0.427045686133, -0.941587389828, -0.469893124332, -0.175633838999, 
0.405560272414, -0.608669053324, -0.386236601385, 0.303945144959, 0.799077442697, 0.677943824043, 0.774710117257, 0.808257859506, 0.186570957514, -0.732341362808, 0.378557246084, 0.984019610122, -0.656314101160, 0.769413451487, 0.899386128801, 0.519344784840, 0.915988197956, -0.906088891799, 0.046160949959, 0.957371296806, -0.742265532932, -0.758989676124, -0.347539131369, -0.709488653754, 0.891182304296, 0.151804720677, 0.370073100450, 0.151072276450, -0.820173633080, 0.944370411769, 0.208141889170, 0.416070148774, -0.227662426147, 0.838104961773, 0.013189650637, -0.969994650641, 0.376554333546, 0.082954963299, -0.068502744686, -0.129698010729, -0.578406001011, 0.204943100219, -0.078695926851, 0.450519891428, -0.808246550419, 0.878974900505, 0.382341541259, 0.291274308983, -0.032759915546, -0.253664196221, -0.040914012120, -0.238954274653, 0.746463532361, 0.485225091246, 0.578123434091, -0.797406825011, -0.873983419830, -0.558360994829, 0.794097271109, -0.845540168998, -0.125328209331, 0.151316424526, -0.505319825360, -0.510080712838, 0.778166609163, 0.040631445200, -0.970421909774, 0.269398192232, -0.674148219781, 0.638183860740, -0.168761702859, 0.132028726537, 0.780461151917, -0.397589486910, 
0.071814191206, -0.989954818141, -0.798736911573, -0.137315737267, -1.002393406873, -0.835664308039, 0.002042850809, 0.281007953688, -0.684024316020, 0.785930211401, -0.322037793558, 0.878157147038, -0.572180460357, 0.932358019867, 0.825336088702, -0.616578410078, -0.036567655919, -0.370928445738, 0.894844290154, -0.049690614994, 0.040400024979, -0.443135239159, 0.372990741249, 0.651136436613, 0.160117656086, -0.024299215110, 0.251466036515, -0.995093001541, 0.947251052491, 0.619275112720, -0.346269490082, -0.250844592517, 0.953941087634, 0.472542119159, 0.699905014755, 0.319888534760, -0.414949099537, -0.797088912061, -0.528990287882, 0.157224879253, 0.315945165471, 0.056598871944, 0.578221235908, -0.589807195700, -0.092660676336, 0.076130718009, -0.190747165792, -0.901095992355, -0.874435778207, 0.350712229331, 0.512606440534, 0.199218348292, 0.826519829004, 0.205040902035, 0.323452718802, -0.095871601398, 0.266969439329, 0.191832868999, -0.409686952773, 0.433051167897, 0.110433522660, -0.556236835277, 0.269471957106, 0.547861800546, 0.945701090075, 0.548618281716, 0.805193872448, -0.663271729576, -0.711881233604, -0.496213408704, -0.535606322871, 0.373601111438, 0.424346911130, -0.377459406766, 
0.016430647087, -0.438522641628, -0.073336523013, -0.744988424302, 0.689381521070, -0.790033199547, 0.869072870639, 0.138767117846, 0.731252916071, -0.703239103339, -0.842769183921, 0.093416068022, -0.786738290007, 0.602708954158, -0.537950311275, -1.000428348616, -0.426008418517, 0.714163095506, 0.425640017436, -0.238990992448, -0.352336736642, -0.598499034076, -0.227577069904, -0.859493327114, 0.456952552901, 0.632922823281, -0.483261142294, 0.267677301872, -0.031831894867, -0.496567212426, 0.446454730383, -0.409590005161, -0.564806599614, -0.567675339505, -0.238563733316, 0.143650079362, 0.889765509547, -0.075533855695, -0.956664806028, -0.130406135733, -0.615650981143, 0.206883886254, 0.597276659471, 0.905147927807, 0.411785703618, -0.928343629234, -0.806513194664, 0.549302107317, 0.235265555325, 0.197118507964, -0.690482366378, -0.216895591588, -0.386823197092, -0.703605325453, 0.950253740071, 0.131197982754, 0.405071631533, 0.426129403072, 0.030853668338, 0.700429766242, -0.224159541585, -0.330851705971, 0.464643762030, 0.149143411067, -0.532395942551, -0.361736982303, -0.001312840649, -0.504868791745, 0.666004887553, -0.984131464556, 0.826532247397, 0.495467456601, 0.137667906763, 0.463728206746, 
-1.111701571793, -0.571608640269, 0.116039763209, -0.754797514507, 0.237847524710, -0.943318737721, -0.524327078909, -0.186703850793, 0.514284183543, 0.808116392778, 0.834018217142, 0.808543651911, -0.654413746658, -0.470426043209, -0.785049747579, -0.451016271183, 0.908300269206, -0.880572682239, 0.507303835055, 0.575404367842, -0.084588918086, -0.454290141878, -0.336488695301, -0.595896025847, -0.456814787983, -0.858111059264, -0.934590444011, -0.166378523482, 0.727730638818, -0.967184212132, 0.469505139960, 0.163931694759, 0.818392740290, -0.547615743856, -0.672741632707, 0.569727925080, 0.653609569483, 0.787874230814, 0.899549847168, -0.967123175113, 0.068469797118, -0.837441638168, 0.754098631006, 0.021920679985, -0.930745111817, -0.650851471231, -0.747756128999, -0.648143714070, 0.522685163831, 0.874058501574, 0.541201508901, -0.534187599686, -0.479337447976, 0.080921348984, -0.407618950708, 0.476502268812, -0.420658744436, -0.059685814353, -0.051140631700, -0.746596425639, 0.539126250257, 0.541956081456, -0.356630911555, -0.058159888880, 0.346332435715, -0.088334304570, -0.127375868371, 0.105885489735, -0.176327557571, 0.090992457111, 0.035165713098, -0.092279582474, 0.348690751126, 0.261490979372, 
0.009188871358, 0.615189000673, -0.390660588511, -0.308436872691, 0.699833643377, -0.219879009483, -0.472117603647, 0.387317255051, -0.887189886394, -0.845806787545, -0.687849833788, 0.108690114826, 0.625802590679, -0.830852717902, -0.363438078058, -0.171958098315, -0.004723517678, -0.263459441015, -0.626677038216, 0.156780434469, 0.755187368275, -0.975883526223, 0.508109515557, 0.733091967414, 0.374018036211, 0.432240501000, 0.458059160016, -0.651105548379, 0.165088320338, -0.961967085902, 0.020057512017, 0.571594866558, 0.598932599758, -0.123928815691, -0.248444334353, 0.757262626919, -0.422935468954, -0.656171620952, -0.992112521973, -0.839038529732, 0.288261024583, 0.044784355984, 0.667422986313, 0.098612155408, 0.016517364918, 0.404841730782, -0.441199240203, -0.165617099635, 0.704296197051, -0.680159169400, -0.293849025162, -0.909902508736, 0.722600451446, -0.801921170918, 0.475461561709, 0.956433271051, 0.304001724182, -0.263032181882, 0.576715124859, -0.949454497017, 0.418452986008, -0.390660588511, 0.093424008797, -0.350070970908, -0.476417600139, 0.560791314204, -0.421240135006, 0.748358073443, -0.298677800950, -0.907454176686, 0.229597598079, -0.263032181882, 0.904490767923, 0.073892162733, 
0.159237622977, 0.541330515209, 0.753721556687, -0.364592776393, -0.504977919983, 0.012549035553, 0.420055886709, -0.411963431258, -0.727274743006, 0.606139973019, 0.276961401653, 0.821844797996, -0.258992805448, 0.674440397227, -0.090786637533, -0.254420957185, -0.495401036166, -0.281527321758, -0.274740356338, -0.645307954712, -0.133329439742, 0.081032570817, -0.868520333019, -0.933524758203, 0.505184743673, -0.020166806605, 0.686153576707, 0.669429433514, 0.837592348885, -0.265291474717, 0.637751220678, 0.751469115144, 0.053810060364, -0.051112575214, -0.341648785426, 0.840699308694, -0.116349292157, -0.521402806239, 0.180040543715, -0.327305085972, -0.894638248972, 0.004742225285, -0.073446195992, 0.761656369151, 0.040748138309, 0.995556153933, 0.249128521011, -0.280916951568, -0.128922918061, -0.074306642416, 0.778508514540, 0.554191541733, 0.942087725331, -0.484103259501, 0.935007431133, -0.702188528217, -0.780382877652, 0.778563623400, -0.038172727196, 0.233136822045, 0.754948225224, -0.186797868344, -0.058314943450, -0.876455145483, -0.656233581104, 0.986034378977, -0.620587962036, 0.623840708515, -0.508890217354, 0.433893505537, -0.036341616628, 0.290999916012, -0.408966689171, 0.678890171452, 
-0.340789246533, 0.528234762596, -0.490801198874, 0.145293564653, -0.777036828730, 0.528822202719, -0.362267354885, 0.333137519959, 0.156768524216, 0.081815064943, -0.755457713050, 0.680710294900, -0.718718486603, 0.754504050813, -0.228891350551, -0.419054712577, 0.789084051530, 0.546339827158, 0.258240038743, -0.280711779641, 0.119996249779, -0.157050779245, 0.741658287805, 0.314704340235, 0.378943273201, 0.111512104144, -0.578999691260, 0.122010471404, 0.518229750450, -0.282787038286, 0.412363570559, 0.092191358165, 0.715717554750, 0.088318036942, 0.544935975722, -0.623617752114, -0.483970111714, 0.578933595279, 0.017665158024, -0.350599166341, 0.206818879757, -0.658930197058, -0.974430548021, -0.652732410154, -0.710412393063, 0.483926945799, -0.508440897351, 0.843284924360, 0.238219896526, 0.915247569704, -0.113198210609, 0.247563619388, -0.723934622242, -0.899049829616, 0.167205854457, 0.692246291482, 0.900049351985, -0.988252903333, -0.943817953536, 0.864464769936, -0.621697615498, -0.218820242424, 0.568801450133, -0.271678300836, -0.013674821726, 0.097257430738, -0.126654343806, -0.957767441847, 0.620560842204, -0.147073756127, -0.364881828776, 0.652849425229, -0.894349979156, 0.317389969069, 
0.788469592440, 0.374613418829, 0.950727545204, -0.904569263363, -0.969024355376, -0.878185690674, -0.853039723854, -0.789865124250, 0.531753866615, -0.743004274197, 0.302941663066, 0.633136355095, 0.830941753016, 0.901027831275, -0.963759591244, -0.417615926164, 0.100970167354, 0.031571076806, 0.909374322370, -0.123401914313, 0.362330682507, -0.825083484185, -0.393612797214, -0.332148519129, 0.524978757512, 0.506133899158, 0.882182972921, -0.135365170028, 0.366160434199, 0.176106737684, 0.826639285674, -0.437025698191, -0.505371578915, -0.327875927803, -0.962416776827, 0.789162556038, 0.365595520526, -0.974135884466, 0.245856469844, -0.121570803745, -0.598834835432, -0.317637289120, 0.957609147844, -0.213858776400, -0.697271966500, -0.160955261471, 0.683934735365, 0.659764075860, 0.587465084417, 0.074541138148, 0.312508894540, 0.974165760481, -0.573748620643, 0.072938595153, -0.818201881546, 0.547196232410, -0.142262353170, 0.252891307526, -0.566835857000, -0.256462615629, -0.585406691263, -0.868663915717, -0.809763192429, 0.189656955891, 0.240378718641, 0.210271887795, -0.868908063793, -0.704001619087, 0.766029525855, -0.783288706705, 0.021744116754, -0.087145925056, -0.011536639076, -0.495361507807, 
-0.020663995738, -0.580298524859, -0.573333245064, 0.420977786126, -0.464974543963, -0.374474637318, 0.825585125124, 0.487062885189, -0.435798848903, -0.415778706687, 0.684456604480, 0.107064397656, 0.103725354075, -1.003931421309, -0.475002607532, -0.216859061923, 0.210626226355, 0.137442840632, -0.721556179175, 0.473146444868, -0.208392908750, -0.139665225410, 0.534122426801, 0.016589543107, -0.375799459274, -0.085830574694, 0.821850934141, 0.418823498001, 0.781279308999, 0.871351956511, 0.106680183080, -0.231630020509, 0.079823894741, 0.008288508530, 0.376707954924, -0.343162646596, -0.885074352947, 0.437500825800, -0.500314977936, -0.159563293588, -0.517954676413, -0.196777882687, 0.388628166081, -0.946391504899, -0.384545745445, -0.129942346935, -0.494290305521, -0.308127397718, -0.026222459274, -0.722324608326, -0.196655808650, -0.766271261971, 0.056769894039, 0.811187448286, 0.180675042512, 0.192455187169, -0.257039412855, -0.482876382977, 0.441346157994, -0.568572357586, 0.661341566759, 0.883864545396, -0.107376642384, 0.599371000061, 0.068165824122, -0.472360023256, 0.630377805688, 0.589256847376, 0.757273768090, -0.396246860623, -0.461452389325, -0.241108750908, -0.322819326823, -0.725071274179, 
0.090678858948, 0.727200834872, 0.731736119848, 0.573521984867, 0.085531018346, -0.386156882258, 0.310494924629, 0.951774573170, 0.117941675409, 0.501620376541, -0.771605656939, -0.154344466136, -0.697702190704, 0.904281590568, -0.497183219731, 0.532688219188, 0.839649569355, -0.892153769370, -0.399902575237, 0.636152148169, -0.212567600358, -0.836549045104, 0.708297904571, -0.434009905116, -0.015485248020, 0.351780676872, -0.407763986967, 0.212189014529, 0.218164460528, 0.935416652091, 0.585613496477, -0.793524128601, 0.691878946473, -0.992376554489, 0.296298026645, -0.938541903773, -0.143486058620, 0.251435817715, -0.420893127899, 0.503823891081, 0.662697069556, -0.578917969966, 0.340238498432, 0.307040541980, 0.309787207833, -0.641480914392, -0.262984178012, 0.944877390029, 0.539090924320, 0.358738897033, -0.664491870536, -0.629267328743, 0.539951624443, -0.305350051023, -0.215930818258, -0.759221323950, -0.461598637682, 0.112332451523, 0.573222981630, -0.112222741201, -0.882760250309, -0.883608586716, -0.561455200688, 0.366063339307, 0.338230458665, -0.151841948359, 0.968803901458, -0.129441362403, -0.268538546737, -0.624207438028, 0.986138414840, 0.849354455369, -0.794256572828, -0.791381651080, 
0.308915161386, 0.118297191746, -0.052238196341, -0.157242895567, 0.095450362895, 0.309467177968, -0.623140504092, 0.164809443052, -0.564970182166, 0.899857235663, -0.781996794931, -0.507534347332, -0.103124086384, -0.751133089970, -0.286986571231, -0.880775718224, 0.468041353205, 0.836827021713, 0.131135992354, -0.881304024766, 0.295733848704, -0.909503127522, 0.539820887493, -0.743665547030, -0.783421672995, 0.090893613101, 0.933753807809, -0.184200231316, 0.537480454145, 0.462425947462, 0.820591174672, -0.861488020235, -0.349610552675, -0.227780662847, -0.730603624974, -0.291625384671, -0.957337166617, -0.255796654546, 0.519230385478, -0.430118380673, -0.721713246835, -0.399193638692, -0.796788780146, 0.924293069872, 0.469567278679, -0.148697712913, 0.241349864818, 0.684600696447, -0.144140963120, -0.174373271264, -0.525784415999, 0.821995026108, 0.026234383403, -0.721896357892, 0.107047396496, -0.692964810908, -0.673839197348, -0.619821435576, -0.999471693457, -0.532660572512, -0.942301033327, -0.617257880780, -0.103082033128, 0.553859401852, -0.992391399259, 0.304380078767, -0.362733511750, -0.640717122685, -0.145868983414, -0.074659808925, 0.421958403897, -0.323120486450, 0.051076450117, 0.408652333765, 
0.225667702355, -0.591205576841, -0.277192244761, 0.865245015773, 0.165394556469, 0.174481695484, -0.870320487699, 0.180097101227, -0.337672553733, -0.835307369249, 0.311998099183, 0.389461453042, -0.837985621273, 0.136585083524, -0.611614071599, -0.045915603142, -0.220733002230, -0.715010781704, 0.178219707259, -0.790269426071, 0.133525855767, 0.851931568832, 0.625179043425, -0.671796572286, 0.727362389960, 0.270431889276, 0.612178158388, -0.903554133246, 0.863474942223, -0.347506890594, 0.755065819755, 0.819772436654, 0.176556954128, -0.561197493945, 0.697385836845, -0.328524377700, -0.158826711394, -0.978690703576, 0.494200977564, -0.211211227274, -0.472259180522, 0.150074264712, -0.358058918063, -0.554971718012, -0.860645108923, -0.059465821350, -0.689741455858, 0.593561867608, -0.571131774415, -0.713729004306, 0.345392725359, -0.894642728479, 0.541504667252, -0.504120504415, 0.611575165008, -0.989731027197, 0.529656108765, 0.972357607224, 0.216780349617, -0.942373677300, 0.935620698625, 0.725218717488, 0.200788650652, 0.897282073913, -0.516152173958, 0.557679477274, -0.754501732966, -0.787271235333, 0.939275542952, 0.719549651534, -0.038171278545, -0.896351765010, 0.216055282199, 0.843203275122, 
-0.584948898043, -0.975164553785, 0.782721816661, 0.978847362684, 0.809713783168, 0.638918600010, 0.421253969928, 0.551452551852, 0.815207114873, -0.206674656421, -0.553073343103, 0.012020982484, 0.888587215784, 0.084838146094, -0.656653164265, -0.939363031921, 0.379267121388, -0.824749114459, -0.961444828651, 0.186268067462, -0.985459585359, -0.737222029282, 0.739934866376, -0.619603693761, 0.030148977113, -0.002885654270, 0.436947104298, 0.827400914534, -0.639732305885, -0.861676510925, -0.815227339502, -0.631370234289, -0.525972906689, -0.712196851511, 0.153186003190, -0.422637233603, -0.579475164050, -0.003373950422, -0.448015029357, -0.775370166127, -0.338758765433, -0.435441403453, 0.485302027438, -0.008562097033, -0.802836824655, -0.151192006193, -0.216087961469, -0.801432973219, -0.377686779394, 0.378534677161, 0.893456573170, -0.609227400539, -0.365859201848, -0.897247488844, 0.886437315990, -0.420609407848, 0.532897298090, 0.092759354428, 0.630068232262, 0.963879688910, 0.334601627645, -0.529390979750, 0.203846728920, 0.921519997758, -0.976609217611, -0.068608919551, 0.622072382779, 0.116943618063, 0.489988273767, -0.867827645709, -0.090290665409, 0.510923971268, -0.234263388987, 0.268668043047, 
0.602713513441, -0.970017379342, -0.920278282453, 0.177341446305, 0.780348807600, -0.878782788690, -0.692919843982, -0.830785982613, -0.460607833373, -0.255818248668, 0.318378461929, 0.158999518517, -0.792244675628, -0.120820783410, -0.998104163401, -0.895592396996, -0.883777247580, 0.799035408409, 0.331948912395, 0.237832990138, -0.606553486510, -0.234593058633, -0.302114157701, 0.255375149349, 0.855861957463, -0.979326321679, -0.832253406429, -0.906337101198, 0.906155974141, 0.683872337949, 0.829791907115, -0.677243227413, 